{"learner":{"attributes":{"best_iteration":"51","best_score":"1.0"},"feature_names":["insured_education_level","policy_deductable","incident_severity","police_report_available","claimant_age","incident_hour_of_the_day","claimant_gender","claim_duration_days","policy_annual_premium","witnesses","claim_amount","incident_type","bodily_injuries","county","insured_occupation"],"feature_types":["int","int","int","int","int","int","int","int","int","int","int","int","int","int","int"],"gradient_booster":{"model":{"gbtree_model_param":{"num_parallel_tree":"1","num_trees":"62"},"iteration_indptr":[0,1,2,3,4,5,6,7,8,9,10,11,12,13,14,15,16,17,18,19,20,21,22,23,24,25,26,27,28,29,30,31,32,33,34,35,36,37,38,39,40,41,42,43,44,45,46,47,48,49,50,51,52,53,54,55,56,57,58,59,60,61,62],"tree_info":[0,0,0,0,0,0,0,0,0,0,0,0,0,0,0,0,0,0,0,0,0,0,0,0,0,0,0,0,0,0,0,0,0,0,0,0,0,0,0,0,0,0,0,0,0,0,0,0,0,0,0,0,0,0,0,0,0,0,0,0,0,0],"trees":[{"base_weights":[-2.7305793E-8,-1.0464138E-1,7.8013873E0,1.758089E0,2.0595856E0,6.0191317E0,-9.434941E-2,9.479452E0,-7.269915E-2,1.1066283E0,2.3178017E-1],"categories":[],"categories_nodes":[],"categories_segments":[],"categories_sizes":[],"default_left":[0,0,0,0,0,0,0,0,0,0,0],"id":0,"left_children":[1,-1,3,-1,5,7,-1,9,-1,-1,-1],"loss_changes":[1.5673878E3,0E0,1.2388613E3,0E0,1.8927347E2,1.6551225E2,0E0,2.6200256E1,0E0,0E0,0E0],"parents":[2147483647,0,0,2,2,4,4,5,5,7,7],"right_children":[2,-1,4,-1,6,8,-1,10,-1,-1,-1],"split_conditions":[1E4,-1.0464138E-1,1.003E5,1.758089E0,2E0,2E0,-9.434941E-2,3.7E1,-7.269915E-2,1.1066283E0,2.3178017E-1],"split_indices":[8,0,10,0,3,9,0,4,0,0,0],"split_type":[0,0,0,0,0,0,0,0,0,0,0],"sum_hessian":[1.9E2,1.682925E2,2.17075E1,7.2675E0,1.444E1,5.795E0,8.6449995E0,3.5625E0,2.2325E0,2.47E0,1.0925E0],"tree_param":{"num_deleted":"0","num_feature":"15","num_nodes":"11","size_leaf_vector":"1"}},{"base_weights":[-7.645458E-2,-1.0406051E-1,3.158568E0,4.037045E0,-9.306522E-2,4.333063E0,-7.09543E-2,-6.611385E-2,4.5569608E-1],"categories":[],"categories_nodes":[],"categories_segments":[],"categories_sizes":[],"default_left":[0,0,0,0,0,0,0,0,0],"id":1,"left_children":[1,-1,3,5,-1,7,-1,-1,-1],"loss_changes":[6.240932E2,0E0,1.6881442E2,5.6481018E1,0E0,4.3177246E1,0E0,0E0,0E0],"parents":[2147483647,0,0,2,2,3,3,5,5],"right_children":[2,-1,4,6,-1,8,-1,-1,-1],"split_conditions":[1E4,-1.0406051E-1,2E0,2E0,-9.306522E-2,1E4,-7.09543E-2,-6.611385E-2,4.5569608E-1],"split_indices":[8,0,3,9,0,1,0,0,0],"split_type":[0,0,0,0,0,0,0,0,0],"sum_hessian":[1.9803711E2,1.5308942E2,4.49477E1,3.7009747E1,7.937954E0,3.4919155E1,2.090592E0,1.4145131E0,3.3504642E1],"tree_param":{"num_deleted":"0","num_feature":"15","num_nodes":"9","size_leaf_vector":"1"}},{"base_weights":[-8.4565006E-2,-1.03528045E-1,2.4081712E0,2.952791E0,-9.1777086E-2,-7.227575E-2,3.1290474E0,3.2629216E0,-6.055451E-2,2.9452927E0,4.2391178E-1,2.9961503E-1,7.5411454E-2],"categories":[],"categories_nodes":[],"categories_segments":[],"categories_sizes":[],"default_left":[0,0,0,0,0,0,0,0,0,0,0,0,0],"id":2,"left_children":[1,-1,3,5,-1,-1,7,9,-1,11,-1,-1,-1],"loss_changes":[4.5918945E2,0E0,9.962976E1,3.2201202E1,0E0,0E0,2.4118011E1,8.200073E-1,0E0,1.7136536E0,0E0,0E0,0E0],"parents":[2147483647,0,0,2,2,3,3,6,6,7,7,9,9],"right_children":[2,-1,4,6,-1,-1,8,10,-1,12,-1,-1,-1],"split_conditions":[1E4,-1.03528045E-1,2E0,1E4,-9.1777086E-2,-7.227575E-2,2E0,1.15E4,-6.055451E-2,1.042E5,4.2391178E-1,2.9961503E-1,7.5411454E-2],"split_indices":[8,0,3,1,0,0,9,8,0,10,0,0,0],"split_type":[0,0,0,0,0,0,0,0,0,0,0,0,0],"sum_hessian":[1.9170839E2,1.3920216E2,5.2506237E1,4.5214584E1,7.291651E0,1.9271119E0,4.328747E1,4.191137E1,1.376102E0,3.4653225E1,7.258145E0,3.350813E1,1.1450981E0],"tree_param":{"num_deleted":"0","num_feature":"15","num_nodes":"13","size_leaf_vector":"1"}},{"base_weights":[-8.56599E-2,-1.0303731E-1,2.0051434E0,2.4055357E0,-9.047925E-2,2.5441084E0,-7.2399385E-2,-6.256126E-2,2.6432884E-1],"categories":[],"categories_nodes":[],"categories_segments":[],"categories_sizes":[],"default_left":[0,0,0,0,0,0,0,0,0],"id":3,"left_children":[1,-1,3,5,-1,7,-1,-1,-1],"loss_changes":[3.6588657E2,0E0,6.936185E1,2.394284E1,0E0,1.7065308E1,0E0,0E0,0E0],"parents":[2147483647,0,0,2,2,3,3,5,5],"right_children":[2,-1,4,6,-1,8,-1,-1,-1],"split_conditions":[1E4,-1.0303731E-1,2E0,4E1,-9.047925E-2,1E4,-7.2399385E-2,-6.256126E-2,2.6432884E-1],"split_indices":[8,0,3,4,0,1,0,0,0],"split_type":[0,0,0,0,0,0,0,0,0],"sum_hessian":[1.8319337E2,1.2652929E2,5.666409E1,4.9962803E1,6.7012863E0,4.802343E1,1.9393715E0,1.2960097E0,4.672742E1],"tree_param":{"num_deleted":"0","num_feature":"15","num_nodes":"9","size_leaf_vector":"1"}},{"base_weights":[-8.7559015E-2,-1.02582335E-1,1.7349632E0,2.053631E0,-8.916697E-2,2.175269E0,-7.0158616E-2,-6.0403854E-2,2.2537218E-1],"categories":[],"categories_nodes":[],"categories_segments":[],"categories_sizes":[],"default_left":[0,0,0,0,0,0,0,0,0],"id":4,"left_children":[1,-1,3,5,-1,7,-1,-1,-1],"loss_changes":[3.0056665E2,0E0,5.184642E1,1.948668E1,0E0,1.2605743E1,0E0,0E0,0E0],"parents":[2147483647,0,0,2,2,3,3,5,5],"right_children":[2,-1,4,6,-1,8,-1,-1,-1],"split_conditions":[1E4,-1.02582335E-1,2E0,2E0,-8.916697E-2,1E4,-7.0158616E-2,-6.0403854E-2,2.2537218E-1],"split_indices":[8,0,3,9,0,1,0,0,0],"split_type":[0,0,0,0,0,0,0,0,0],"sum_hessian":[1.737284E2,1.14974686E2,5.875371E1,5.259138E1,6.1623325E0,5.056933E1,2.0220504E0,1.2043443E0,4.9364986E1],"tree_param":{"num_deleted":"0","num_feature":"15","num_nodes":"9","size_leaf_vector":"1"}},{"base_weights":[-8.8623926E-2,-1.0215773E-1,1.5450575E0,1.8128208E0,-8.783645E-2,1.9206667E0,-7.354174E-2,1.9924556E-1,-5.8161087E-2],"categories":[],"categories_nodes":[],"categories_segments":[],"categories_sizes":[],"default_left":[0,0,0,0,0,0,0,0,0],"id":5,"left_children":[1,-1,3,5,-1,7,-1,-1,-1],"loss_changes":[2.5263716E2,0E0,4.0703537E1,1.6418121E1,0E0,1.0618835E1,0E0,0E0,0E0],"parents":[2147483647,0,0,2,2,3,3,5,5],"right_children":[2,-1,4,6,-1,8,-1,-1,-1],"split_conditions":[1E4,-1.0215773E-1,2E0,4E1,-8.783645E-2,2E0,-7.354174E-2,1.9924556E-1,-5.8161087E-2],"split_indices":[8,0,3,4,0,9,0,0,0],"split_type":[0,0,0,0,0,0,0,0,0],"sum_hessian":[1.6372067E2,1.0444787E2,5.92728E1,5.360226E1,5.6705403E0,5.1662106E1,1.9401556E0,5.0419346E1,1.2427579E0],"tree_param":{"num_deleted":"0","num_feature":"15","num_nodes":"9","size_leaf_vector":"1"}},{"base_weights":[-8.931106E-2,-1.0175859E-1,1.4016235E0,1.6345522E0,-8.648487E-2,1.7296689E0,-7.1550556E-2,-6.366866E-2,1.8029921E-1],"categories":[],"categories_nodes":[],"categories_segments":[],"categories_sizes":[],"default_left":[0,0,0,0,0,0,0,0,0],"id":6,"left_children":[1,-1,3,5,-1,7,-1,-1,-1],"loss_changes":[2.1540611E2,0E0,3.2955162E1,1.3425339E1,0E0,1.0291138E1,0E0,0E0,0E0],"parents":[2147483647,0,0,2,2,3,3,5,5],"right_children":[2,-1,4,6,-1,8,-1,-1,-1],"split_conditions":[1E4,-1.0175859E-1,2E0,4E1,-8.648487E-2,1E4,-7.1550556E-2,-6.366866E-2,1.8029921E-1],"split_indices":[8,0,3,4,0,1,0,0,0],"split_type":[0,0,0,0,0,0,0,0,0],"sum_hessian":[1.5361006E2,9.4864006E1,5.874605E1,5.352411E1,5.2219424E0,5.1695755E1,1.8283514E0,1.3227727E0,5.0372982E1],"tree_param":{"num_deleted":"0","num_feature":"15","num_nodes":"9","size_leaf_vector":"1"}},{"base_weights":[-8.9842424E-2,-1.0138046E-1,1.2880543E0,1.4956728E0,-8.511031E-2,1.589591E0,-6.882613E-2,-6.1507285E-2,1.6555445E0,1.6864644E-1,6.941358E-1,8.812693E-2,1.6978076E-2],"categories":[],"categories_nodes":[],"categories_segments":[],"categories_sizes":[],"default_left":[0,0,0,0,0,0,0,0,0,0,0,0,0],"id":7,"left_children":[1,-1,3,5,-1,7,-1,-1,9,-1,11,-1,-1],"loss_changes":[1.8545634E2,0E0,2.7254715E1,1.2105988E1,0E0,8.546814E0,0E0,0E0,3.318634E-1,0E0,1.7167377E-1,0E0,0E0],"parents":[2147483647,0,0,2,2,3,3,5,5,8,8,10,10],"right_children":[2,-1,4,6,-1,8,-1,-1,10,-1,12,-1,-1],"split_conditions":[1E4,-1.0138046E-1,2E0,2E0,-8.511031E-2,1E4,-6.882613E-2,-6.1507285E-2,3.9E1,1.6864644E-1,2.7E1,8.812693E-2,1.6978076E-2],"split_indices":[8,0,3,9,0,1,0,0,4,0,7,0,0],"split_type":[0,0,0,0,0,0,0,0,0,0,0,0,0],"sum_hessian":[1.4364455E2,8.614404E1,5.7500496E1,5.2687645E1,4.8128514E0,5.0776203E1,1.9114426E0,1.2330338E0,4.9543167E1,4.726879E1,2.2743769E0,1.174533E0,1.0998439E0],"tree_param":{"num_deleted":"0","num_feature":"15","num_nodes":"13","size_leaf_vector":"1"}},{"base_weights":[-8.9463905E-2,-1.0101922E-1,1.2015015E0,1.3912013E0,-8.371168E-2,1.4781045E0,-6.712445E-2,1.5406635E0,-6.1564516E-2,-5.6454927E-2,1.5970792E-1],"categories":[],"categories_nodes":[],"categories_segments":[],"categories_sizes":[],"default_left":[0,0,0,0,0,0,0,0,0,0,0],"id":8,"left_children":[1,-1,3,5,-1,7,-1,9,-1,-1,-1],"loss_changes":[1.6141731E2,0E0,2.3040016E1,1.0334862E1,0E0,7.540962E0,0E0,6.739723E0,0E0,0E0,0E0],"parents":[2147483647,0,0,2,2,3,3,5,5,7,7],"right_children":[2,-1,4,6,-1,8,-1,10,-1,-1,-1],"split_conditions":[1E4,-1.0101922E-1,2E0,2E0,-8.371168E-2,4E1,-6.712445E-2,1E4,-6.1564516E-2,-5.6454927E-2,1.5970792E-1],"split_indices":[8,0,3,9,0,4,0,1,0,0,0],"split_type":[0,0,0,0,0,0,0,0,0,0,0],"sum_hessian":[1.3378021E2,7.821445E1,5.556576E1,5.1125916E1,4.4398475E0,4.9330643E1,1.7952727E0,4.8155952E1,1.1746876E0,1.0217377E0,4.7134216E1],"tree_param":{"num_deleted":"0","num_feature":"15","num_nodes":"11","size_leaf_vector":"1"}},{"base_weights":[-9.035779E-2,-1.00670986E-1,1.1286516E0,1.3047621E0,-8.2288675E-2,1.3852695E0,-6.803757E-2,1.4462698E0,-5.686269E-2,1.4719811E-1,5.4003205E-2],"categories":[],"categories_nodes":[],"categories_segments":[],"categories_sizes":[],"default_left":[0,0,0,0,0,0,0,0,0,0,0],"id":9,"left_children":[1,-1,3,5,-1,7,-1,9,-1,-1,-1],"loss_changes":[1.410014E2,0E0,1.9702583E1,8.949951E0,0E0,6.6006393E0,0E0,3.070755E-1,0E0,0E0,0E0],"parents":[2147483647,0,0,2,2,3,3,5,5,7,7],"right_children":[2,-1,4,6,-1,8,-1,10,-1,-1,-1],"split_conditions":[1E4,-1.00670986E-1,2E0,4E1,-8.2288675E-2,2E0,-6.803757E-2,4.3E1,-5.686269E-2,1.4719811E-1,5.4003205E-2],"split_indices":[8,0,3,4,0,9,0,7,0,0,0],"split_type":[0,0,0,0,0,0,0,0,0,0,0],"sum_hessian":[1.2421035E2,7.1007126E1,5.3203224E1,4.9103455E1,4.0997705E0,4.7480076E1,1.6233784E0,4.629457E1,1.1855047E0,4.441031E1,1.8842598E0],"tree_param":{"num_deleted":"0","num_feature":"15","num_nodes":"11","size_leaf_vector":"1"}},{"base_weights":[-9.032536E-2,-1.0033219E-1,1.0641748E0,1.2286749E0,-8.0841824E-2,1.3020267E0,-8.094319E-2,-6.444609E-2,1.3771713E0,1.413493E-1,4.146293E-2],"categories":[],"categories_nodes":[],"categories_segments":[],"categories_sizes":[],"default_left":[0,0,0,0,0,0,0,0,0,0,0],"id":10,"left_children":[1,-1,3,5,-1,7,-1,-1,9,-1,-1],"loss_changes":[1.2365797E2,0E0,1.6963516E1,8.238014E0,0E0,7.7282715E0,0E0,0E0,9.99382E-1,0E0,0E0],"parents":[2147483647,0,0,2,2,3,3,5,5,8,8],"right_children":[2,-1,4,6,-1,8,-1,-1,10,-1,-1],"split_conditions":[1E4,-1.0033219E-1,2E0,3E0,-8.0841824E-2,1E4,-8.094319E-2,-6.444609E-2,4.3E1,1.413493E-1,4.146293E-2],"split_indices":[8,0,3,14,0,1,0,0,7,0,0],"split_type":[0,0,0,0,0,0,0,0,0,0,0],"sum_hessian":[1.1530351E2,6.445916E1,5.0844353E1,4.7054646E1,3.7897062E0,4.5768585E1,1.28606E0,1.4196173E0,4.434897E1,4.228484E1,2.064131E0],"tree_param":{"num_deleted":"0","num_feature":"15","num_nodes":"11","size_leaf_vector":"1"}},{"base_weights":[-9.0587124E-2,-9.999939E-2,1.0063396E0,1.1637957E0,-8.0340594E-2,1.2541227E0,-6.979683E-2,-6.273524E-2,1.3280784E-1],"categories":[],"categories_nodes":[],"categories_segments":[],"categories_sizes":[],"default_left":[0,0,0,0,0,0,0,0,0],"id":11,"left_children":[1,-1,3,5,-1,7,-1,-1,-1],"loss_changes":[1.0867627E2,0E0,1.5017929E1,8.58987E0,0E0,6.9707565E0,0E0,0E0,0E0],"parents":[2147483647,0,0,2,2,3,3,5,5],"right_children":[2,-1,4,6,-1,8,-1,-1,-1],"split_conditions":[1E4,-9.999939E-2,2E0,4E1,-8.0340594E-2,1E4,-6.979683E-2,-6.273524E-2,1.3280784E-1],"split_indices":[8,0,9,4,0,1,0,0,0],"split_type":[0,0,0,0,0,0,0,0,0],"sum_hessian":[1.069341E2,5.8512604E1,4.842149E1,4.487416E1,3.547328E0,4.3109028E1,1.7651359E0,1.3474047E0,4.176162E1],"tree_param":{"num_deleted":"0","num_feature":"15","num_nodes":"9","size_leaf_vector":"1"}},{"base_weights":[-9.13244E-2,-9.966932E-2,9.5625144E-1,1.1099972E0,-7.868545E-2,1.1826817E0,-8.073833E-2,-6.0853433E-2,1.253016E0,1.2908536E-1,3.4028612E-2],"categories":[],"categories_nodes":[],"categories_segments":[],"categories_sizes":[],"default_left":[0,0,0,0,0,0,0,0,0,0,0],"id":12,"left_children":[1,-1,3,5,-1,7,-1,-1,9,-1,-1],"loss_changes":[9.576836E1,0E0,1.3430401E1,7.013359E0,0E0,6.090412E0,0E0,0E0,9.773712E-1,0E0,0E0],"parents":[2147483647,0,0,2,2,3,3,5,5,8,8],"right_children":[2,-1,4,6,-1,8,-1,-1,10,-1,-1],"split_conditions":[1E4,-9.966932E-2,2E0,3E0,-7.868545E-2,1E4,-8.073833E-2,-6.0853433E-2,4.3E1,1.2908536E-1,3.4028612E-2],"split_indices":[8,0,3,14,0,1,0,0,7,0,0],"split_type":[0,0,0,0,0,0,0,0,0,0,0],"sum_hessian":[9.8969444E1,5.3114094E1,4.5855354E1,4.2472404E1,3.38295E0,4.1290337E1,1.1820655E0,1.270945E0,4.0019394E1,3.8028618E1,1.9907749E0],"tree_param":{"num_deleted":"0","num_feature":"15","num_nodes":"11","size_leaf_vector":"1"}},{"base_weights":[-9.178074E-2,-9.933885E-2,9.094323E-1,1.0590991E0,-7.826679E-2,1.1498852E0,-6.86721E-2,-5.9229117E-2,1.2201825E0,1.24331474E-1,4.6120487E-2],"categories":[],"categories_nodes":[],"categories_segments":[],"categories_sizes":[],"default_left":[0,0,0,0,0,0,0,0,0,0,0],"id":13,"left_children":[1,-1,3,5,-1,7,-1,-1,9,-1,-1],"loss_changes":[8.451604E1,0E0,1.2075867E1,7.323868E0,0E0,5.567913E0,0E0,0E0,9.997177E-2,0E0,0E0],"parents":[2147483647,0,0,2,2,3,3,5,5,8,8],"right_children":[2,-1,4,6,-1,8,-1,-1,10,-1,-1],"split_conditions":[1E4,-9.933885E-2,2E0,4E1,-7.826679E-2,1E4,-6.86721E-2,-5.9229117E-2,4.3E1,1.24331474E-1,4.6120487E-2],"split_indices":[8,0,9,4,0,1,0,0,7,0,0],"split_type":[0,0,0,0,0,0,0,0,0,0,0],"sum_hessian":[9.162489E1,4.8214664E1,4.341023E1,4.0226295E1,3.1839356E0,3.8562325E1,1.6639687E0,1.2076504E0,3.7354675E1,3.5630573E1,1.7241005E0],"tree_param":{"num_deleted":"0","num_feature":"15","num_nodes":"11","size_leaf_vector":"1"}},{"base_weights":[-9.212995E-2,-9.900492E-2,8.696304E-1,1.0164766E0,-7.647736E-2,1.0904533E0,-8.059412E-2,1.1583289E0,-6.81825E-2,1.1947375E-1,3.901048E-2],"categories":[],"categories_nodes":[],"categories_segments":[],"categories_sizes":[],"default_left":[0,0,0,0,0,0,0,0,0,0,0],"id":14,"left_children":[1,-1,3,5,-1,7,-1,9,-1,-1,-1],"loss_changes":[7.483799E1,0E0,1.083206E1,6.1190224E0,0E0,5.334244E0,0E0,5.619621E-1,0E0,0E0,0E0],"parents":[2147483647,0,0,2,2,3,3,5,5,7,7],"right_children":[2,-1,4,6,-1,8,-1,10,-1,-1,-1],"split_conditions":[1E4,-9.900492E-2,2E0,3E0,-7.647736E-2,4.5E1,-8.059412E-2,3.9E1,-6.81825E-2,1.1947375E-1,3.901048E-2],"split_indices":[8,0,3,14,0,7,0,4,0,0,0],"split_type":[0,0,0,0,0,0,0,0,0,0,0],"sum_hessian":[8.466287E1,4.3769424E1,4.0893448E1,3.78691E1,3.0243504E0,3.677784E1,1.0912602E0,3.5754898E1,1.022942E0,3.3606964E1,2.1479328E0],"tree_param":{"num_deleted":"0","num_feature":"15","num_nodes":"11","size_leaf_vector":"1"}},{"base_weights":[-9.280535E-2,-9.8664545E-2,8.290581E-1,9.738063E-1,-7.614853E-2,1.064162E0,-6.647565E-2,-5.835041E-2,1.1376431E0,1.162702E-1,4.0235687E-2],"categories":[],"categories_nodes":[],"categories_segments":[],"categories_sizes":[],"default_left":[0,0,0,0,0,0,0,0,0,0,0],"id":15,"left_children":[1,-1,3,5,-1,7,-1,-1,9,-1,-1],"loss_changes":[6.6191505E1,0E0,9.85849E0,6.1461945E0,0E0,4.925556E0,0E0,0E0,1.593132E-1,0E0,0E0],"parents":[2147483647,0,0,2,2,3,3,5,5,8,8],"right_children":[2,-1,4,6,-1,8,-1,-1,10,-1,-1],"split_conditions":[1E4,-9.8664545E-2,2E0,4E1,-7.614853E-2,1E4,-6.647565E-2,-5.835041E-2,4.3E1,1.162702E-1,4.0235687E-2],"split_indices":[8,0,9,4,0,1,0,0,7,0,0],"split_type":[0,0,0,0,0,0,0,0,0,0,0],"sum_hessian":[7.833694E1,3.9737312E1,3.8599625E1,3.573527E1,2.8643541E0,3.419993E1,1.5353451E0,1.1637728E0,3.3036156E1,3.1385239E1,1.6509147E0],"tree_param":{"num_deleted":"0","num_feature":"15","num_nodes":"11","size_leaf_vector":"1"}},{"base_weights":[-1.02481484E-1,-9.849444E-2,1.1513773E-1],"categories":[],"categories_nodes":[],"categories_segments":[],"categories_sizes":[],"default_left":[0,0,0],"id":16,"left_children":[1,-1,-1],"loss_changes":[7.4957504E1,0E0,0E0],"parents":[2147483647,0,0],"right_children":[2,-1,-1],"split_conditions":[1E4,-9.849444E-2,1.1513773E-1],"split_indices":[8,0,0],"split_type":[0,0,0],"sum_hessian":[6.571897E1,3.8697926E1,2.702104E1],"tree_param":{"num_deleted":"0","num_feature":"15","num_nodes":"3","size_leaf_vector":"1"}},{"base_weights":[-1.0141586E-1,-9.8148726E-2,1.1277684E-1],"categories":[],"categories_nodes":[],"categories_segments":[],"categories_sizes":[],"default_left":[0,0,0],"id":17,"left_children":[1,-1,-1],"loss_changes":[6.719324E1,0E0,0E0],"parents":[2147483647,0,0],"right_children":[2,-1,-1],"split_conditions":[1E4,-9.8148726E-2,1.1277684E-1],"split_indices":[8,0,0],"split_type":[0,0,0],"sum_hessian":[6.009095E1,3.5135876E1,2.4955074E1],"tree_param":{"num_deleted":"0","num_feature":"15","num_nodes":"3","size_leaf_vector":"1"}},{"base_weights":[-1.0036097E-1,-9.778922E-2,1.10648565E-1],"categories":[],"categories_nodes":[],"categories_segments":[],"categories_sizes":[],"default_left":[0,0,0],"id":18,"left_children":[1,-1,-1],"loss_changes":[6.030113E1,0E0,0E0],"parents":[2147483647,0,0],"right_children":[2,-1,-1],"split_conditions":[1E4,-9.778922E-2,1.10648565E-1],"split_indices":[8,0,0],"split_type":[0,0,0],"sum_hessian":[5.4917427E1,3.190682E1,2.3010609E1],"tree_param":{"num_deleted":"0","num_feature":"15","num_nodes":"3","size_leaf_vector":"1"}},{"base_weights":[-9.930966E-2,-9.7413115E-2,1.0871234E-1],"categories":[],"categories_nodes":[],"categories_segments":[],"categories_sizes":[],"default_left":[0,0,0],"id":19,"left_children":[1,-1,-1],"loss_changes":[5.416894E1,0E0,0E0],"parents":[2147483647,0,0],"right_children":[2,-1,-1],"split_conditions":[1E4,-9.7413115E-2,1.0871234E-1],"split_indices":[8,0,0],"split_type":[0,0,0],"sum_hessian":[5.016973E1,2.8980083E1,2.1189646E1],"tree_param":{"num_deleted":"0","num_feature":"15","num_nodes":"3","size_leaf_vector":"1"}},{"base_weights":[-9.8256126E-2,-9.701761E-2,1.0693448E-1],"categories":[],"categories_nodes":[],"categories_segments":[],"categories_sizes":[],"default_left":[0,0,0],"id":20,"left_children":[1,-1,-1],"loss_changes":[4.8701958E1,0E0,0E0],"parents":[2147483647,0,0],"right_children":[2,-1,-1],"split_conditions":[1E4,-9.701761E-2,1.0693448E-1],"split_indices":[8,0,0],"split_type":[0,0,0],"sum_hessian":[4.5819206E1,2.6327738E1,1.9491468E1],"tree_param":{"num_deleted":"0","num_feature":"15","num_nodes":"3","size_leaf_vector":"1"}},{"base_weights":[-9.719291E-2,-9.6599914E-2,1.0528673E-1],"categories":[],"categories_nodes":[],"categories_segments":[],"categories_sizes":[],"default_left":[0,0,0],"id":21,"left_children":[1,-1,-1],"loss_changes":[4.3819695E1,0E0,0E0],"parents":[2147483647,0,0],"right_children":[2,-1,-1],"split_conditions":[1E4,-9.6599914E-2,1.0528673E-1],"split_indices":[8,0,0],"split_type":[0,0,0],"sum_hessian":[4.183778E1,2.392433E1,1.791345E1],"tree_param":{"num_deleted":"0","num_feature":"15","num_nodes":"3","size_leaf_vector":"1"}},{"base_weights":[-9.61156E-2,-9.615724E-2,1.03745066E-1],"categories":[],"categories_nodes":[],"categories_segments":[],"categories_sizes":[],"default_left":[0,0,0],"id":22,"left_children":[1,-1,-1],"loss_changes":[3.9453087E1,0E0,0E0],"parents":[2147483647,0,0],"right_children":[2,-1,-1],"split_conditions":[1E4,-9.615724E-2,1.03745066E-1],"split_indices":[8,0,0],"split_type":[0,0,0],"sum_hessian":[3.8198208E1,2.1746721E1,1.6451488E1],"tree_param":{"num_deleted":"0","num_feature":"15","num_nodes":"3","size_leaf_vector":"1"}},{"base_weights":[-9.501777E-2,-9.568681E-2,1.0228902E-1],"categories":[],"categories_nodes":[],"categories_segments":[],"categories_sizes":[],"default_left":[0,0,0],"id":23,"left_children":[1,-1,-1],"loss_changes":[3.554273E1,0E0,0E0],"parents":[2147483647,0,0],"right_children":[2,-1,-1],"split_conditions":[1E4,-9.568681E-2,1.0228902E-1],"split_indices":[8,0,0],"split_type":[0,0,0],"sum_hessian":[3.4874474E1,1.9773874E1,1.5100597E1],"tree_param":{"num_deleted":"0","num_feature":"15","num_nodes":"3","size_leaf_vector":"1"}},{"base_weights":[-9.389465E-2,-9.518584E-2,1.0090088E-1],"categories":[],"categories_nodes":[],"categories_segments":[],"categories_sizes":[],"default_left":[0,0,0],"id":24,"left_children":[1,-1,-1],"loss_changes":[3.203698E1,0E0,0E0],"parents":[2147483647,0,0],"right_children":[2,-1,-1],"split_conditions":[1E4,-9.518584E-2,1.0090088E-1],"split_indices":[8,0,0],"split_type":[0,0,0],"sum_hessian":[3.1841753E1,1.7986645E1,1.3855106E1],"tree_param":{"num_deleted":"0","num_feature":"15","num_nodes":"3","size_leaf_vector":"1"}},{"base_weights":[-9.274053E-2,-9.465163E-2,9.956529E-2],"categories":[],"categories_nodes":[],"categories_segments":[],"categories_sizes":[],"default_left":[0,0,0],"id":25,"left_children":[1,-1,-1],"loss_changes":[2.8891E1,0E0,0E0],"parents":[2147483647,0,0],"right_children":[2,-1,-1],"split_conditions":[1E4,-9.465163E-2,9.956529E-2],"split_indices":[8,0,0],"split_type":[0,0,0],"sum_hessian":[2.9076708E1,1.6367664E1,1.2709043E1],"tree_param":{"num_deleted":"0","num_feature":"15","num_nodes":"3","size_leaf_vector":"1"}},{"base_weights":[-9.155115E-2,-9.408152E-2,9.826889E-2],"categories":[],"categories_nodes":[],"categories_segments":[],"categories_sizes":[],"default_left":[0,0,0],"id":26,"left_children":[1,-1,-1],"loss_changes":[2.6065474E1,0E0,0E0],"parents":[2147483647,0,0],"right_children":[2,-1,-1],"split_conditions":[1E4,-9.408152E-2,9.826889E-2],"split_indices":[8,0,0],"split_type":[0,0,0],"sum_hessian":[2.6557356E1,1.4901137E1,1.1656219E1],"tree_param":{"num_deleted":"0","num_feature":"15","num_nodes":"3","size_leaf_vector":"1"}},{"base_weights":[-1.0140206E0,-1.9591849E-1,-1.4296547E0,6.041228E-1,-8.1591994E-1,-1.7951634E0,-1.0139143E-1,7.9457045E-1,-1.0358292E-1,-2.5196522E-1,-1.1218673E0,-2.4687235E0,-1.1567018E-1,9.327522E-2,3.108891E-1,1.2923446E-1,-7.9827845E-2,-1.3912684E0,-1.5030439E-1,-3.394353E0,-9.640571E-2,-4.0871523E-2,7.490206E-2,-4.495782E-1,5.4027814E-1,-1.824257E0,-9.1456495E-2,3.8862742E-2,-6.9189005E-2,-9.698925E-2,-4.356989E-1,-1.1704935E-1,4.721196E-2,6.392362E-2,1.6220536E-2,-2.2568996E-1,-6.646907E-2],"categories":[],"categories_nodes":[],"categories_segments":[],"categories_sizes":[],"default_left":[0,0,0,0,0,0,0,0,0,0,0,0,0,0,0,0,0,0,0,0,0,0,0,0,0,0,0,0,0,0,0,0,0,0,0,0,0],"id":27,"left_children":[1,3,5,7,9,11,-1,13,-1,15,17,19,-1,-1,21,23,-1,25,27,29,-1,-1,-1,31,33,35,-1,-1,-1,-1,-1,-1,-1,-1,-1,-1,-1],"loss_changes":[3.7733948E1,1.9749537E1,9.420685E0,6.2963595E0,3.5645123E0,1.3514984E1,0E0,7.972355E-1,0E0,2.0048776E0,3.498598E0,2.1300003E1,0E0,0E0,1.9186587E0,1.7273353E0,0E0,5.9573746E-1,1.4937041E0,2.0341774E1,0E0,0E0,0E0,2.6368585E0,4.9803734E-2,8.7924004E-1,0E0,0E0,0E0,0E0,0E0,0E0,0E0,0E0,0E0,0E0,0E0],"parents":[2147483647,0,0,1,1,2,2,3,3,4,4,5,5,7,7,9,9,10,10,11,11,14,14,15,15,17,17,18,18,19,19,23,23,24,24,25,25],"right_children":[2,4,6,8,10,12,-1,14,-1,16,18,20,-1,-1,22,24,-1,26,28,30,-1,-1,-1,32,34,36,-1,-1,-1,-1,-1,-1,-1,-1,-1,-1,-1],"split_conditions":[4.5E1,1E0,2E0,2E0,1E0,3.9E1,-1.0139143E-1,1.683E5,-1.0358292E-1,2E0,2E0,2E0,-1.1567018E-1,9.327522E-2,2.35E4,1.35E4,-7.9827845E-2,2E0,3.6E1,1E4,-9.640571E-2,-4.0871523E-2,7.490206E-2,5E4,3.4E1,2E0,-9.1456495E-2,3.8862742E-2,-6.9189005E-2,-9.698925E-2,-4.356989E-1,-1.1704935E-1,4.721196E-2,6.392362E-2,1.6220536E-2,-2.2568996E-1,-6.646907E-2],"split_indices":[7,9,3,0,2,4,0,10,0,9,2,9,0,0,8,8,0,9,4,1,0,0,0,1,4,3,0,0,0,0,0,0,0,0,0,0,0],"split_type":[0,0,0,0,0,0,0,0,0,0,0,0,0,0,0,0,0,0,0,0,0,0,0,0,0,0,0,0,0,0,0,0,0,0,0,0,0],"sum_hessian":[1.1079573E2,3.782173E1,7.2974E1,1.6524439E1,2.1297295E1,3.706733E1,3.5906673E1,1.5266976E1,1.2574626E0,8.131678E0,1.3165617E1,1.664287E1,2.0424458E1,1.1152424E1,4.114552E0,5.2393036E0,2.8923743E0,9.969281E0,3.196335E0,9.526527E0,7.1163425E0,1.5825124E0,2.5320396E0,2.1367223E0,3.1025815E0,3.7428465E0,6.226435E0,1.7436529E0,1.4526821E0,3.2780602E0,6.248467E0,1.0474874E0,1.089235E0,1.9114867E0,1.1910948E0,2.036633E0,1.7062135E0],"tree_param":{"num_deleted":"0","num_feature":"15","num_nodes":"37","size_leaf_vector":"1"}},{"base_weights":[-9.7618926E-1,-1.9775262E-1,-1.3738924E0,5.7444686E-1,-7.941791E-1,-1.6691294E0,-1.00733034E-1,7.6098514E-1,-1.0130938E-1,-2.4408102E-1,-1.0942358E0,-2.15972E0,-1.1328947E-1,9.1327024E-1,3.1887504E-1,1.2097213E-1,-7.798826E-2,-1.365964E0,-1.4543794E-1,-2.7577837E0,-9.4650105E-2,9.5287964E-2,2.733239E-2,-6.607614E-2,6.902531E-2,-4.3472525E-1,5.1772046E-1,-1.7507132E0,-8.995835E-2,3.679185E-2,-6.647727E-2,-9.382746E-2,-3.2997498E-1,-1.1284081E-1,4.527345E-2,6.164776E-2,1.5360558E-2,-2.124205E-1,-6.477569E-2],"categories":[],"categories_nodes":[],"categories_segments":[],"categories_sizes":[],"default_left":[0,0,0,0,0,0,0,0,0,0,0,0,0,0,0,0,0,0,0,0,0,0,0,0,0,0,0,0,0,0,0,0,0,0,0,0,0,0,0],"id":28,"left_children":[1,3,5,7,9,11,-1,13,-1,15,17,19,-1,21,23,25,-1,27,29,31,-1,-1,-1,-1,-1,33,35,37,-1,-1,-1,-1,-1,-1,-1,-1,-1,-1,-1],"loss_changes":[3.2494835E1,1.7477135E1,5.881485E0,5.7121687E0,3.243991E0,7.3355713E0,0E0,7.524929E-1,0E0,1.8145549E0,3.2758408E0,1.0679237E1,0E0,1.8230438E-2,2.4600458E0,1.5691843E0,0E0,2.8357697E-1,1.342859E0,8.486282E0,0E0,0E0,0E0,0E0,0E0,2.4088936E0,4.9623847E-2,5.2653694E-1,0E0,0E0,0E0,0E0,0E0,0E0,0E0,0E0,0E0,0E0,0E0],"parents":[2147483647,0,0,1,1,2,2,3,3,4,4,5,5,7,7,9,9,10,10,11,11,13,13,14,14,15,15,17,17,18,18,19,19,25,25,26,26,27,27],"right_children":[2,4,6,8,10,12,-1,14,-1,16,18,20,-1,22,24,26,-1,28,30,32,-1,-1,-1,-1,-1,34,36,38,-1,-1,-1,-1,-1,-1,-1,-1,-1,-1,-1],"split_conditions":[4.5E1,1E0,2E0,2E0,1E0,3.9E1,-1.00733034E-1,1.547E5,-1.0130938E-1,2E0,2E0,2E0,-1.1328947E-1,1.4E1,1.8E4,1.35E4,-7.798826E-2,2E0,3.6E1,1E4,-9.4650105E-2,9.5287964E-2,2.733239E-2,-6.607614E-2,6.902531E-2,5E4,3.4E1,2E0,-8.995835E-2,3.679185E-2,-6.647727E-2,-9.382746E-2,-3.2997498E-1,-1.1284081E-1,4.527345E-2,6.164776E-2,1.5360558E-2,-2.124205E-1,-6.477569E-2],"split_indices":[7,9,3,0,2,4,0,10,0,9,2,9,0,13,8,8,0,9,4,1,0,0,0,0,0,1,4,3,0,0,0,0,0,0,0,0,0,0,0],"split_type":[0,0,0,0,0,0,0,0,0,0,0,0,0,0,0,0,0,0,0,0,0,0,0,0,0,0,0,0,0,0,0,0,0,0,0,0,0,0,0],"sum_hessian":[1.04839485E2,3.5956993E1,6.8882484E1,1.5685575E1,2.0271421E1,3.6184914E1,3.2697575E1,1.4502196E1,1.1833775E0,7.794713E0,1.2476708E1,1.7315626E1,1.8869287E1,9.994037E0,4.5081596E0,5.0965476E0,2.6981654E0,9.3572E0,3.1195085E0,1.074547E1,6.570157E0,8.951016E0,1.0430212E0,1.0250431E0,3.4831164E0,2.0831318E0,3.0134158E0,3.6183484E0,5.738851E0,1.7154067E0,1.4041017E0,3.0929492E0,7.6525207E0,1.0168263E0,1.0663055E0,1.825271E0,1.1881447E0,2.0113351E0,1.6070131E0],"tree_param":{"num_deleted":"0","num_feature":"15","num_nodes":"39","size_leaf_vector":"1"}},{"base_weights":[-9.42733E-1,-1.9921553E-1,-1.32681E0,5.461184E-1,-7.71977E-1,-1.5686352E0,-1.0009058E-1,7.290716E-1,-9.908694E-2,-2.3635884E-1,-1.0656312E0,-1.9381464E0,-1.11081414E-1,9.5619075E-2,3.809274E-1,3.2468054E-2,-9.49914E-2,-1.3392242E0,-1.4067426E-1,-2.3532856E0,-9.293427E-2,-3.7249827E-1,7.8513555E-2,3.523723E-1,-6.809714E-2,-1.67677E0,-8.845717E-2,3.481317E-2,-6.379262E-2,-9.087061E-2,-2.6978508E-1,3.0859932E-2,-8.3267234E-2,5.831339E-2,-2.0143365E-2,-1.9952771E-1,-6.311764E-2],"categories":[],"categories_nodes":[],"categories_segments":[],"categories_sizes":[],"default_left":[0,0,0,0,0,0,0,0,0,0,0,0,0,0,0,0,0,0,0,0,0,0,0,0,0,0,0,0,0,0,0,0,0,0,0,0,0],"id":29,"left_children":[1,3,5,7,9,11,-1,13,-1,15,17,19,-1,-1,21,23,-1,25,27,29,-1,31,-1,33,-1,35,-1,-1,-1,-1,-1,-1,-1,-1,-1,-1,-1],"loss_changes":[2.8290604E1,1.5463816E1,3.6123962E0,5.192616E0,2.9471788E0,3.9346542E0,0E0,8.0458975E-1,0E0,1.6588953E0,3.0638895E0,5.5901337E0,0E0,0E0,2.576003E0,1.8676395E0,0E0,2.0849228E-2,1.2067257E0,3.7721634E0,0E0,1.2901282E0,0E0,8.3093566E-1,0E0,2.4196911E-1,0E0,0E0,0E0,0E0,0E0,0E0,0E0,0E0,0E0,0E0,0E0],"parents":[2147483647,0,0,1,1,2,2,3,3,4,4,5,5,7,7,9,9,10,10,11,11,14,14,15,15,17,17,18,18,19,19,21,21,23,23,25,25],"right_children":[2,4,6,8,10,12,-1,14,-1,16,18,20,-1,-1,22,24,-1,26,28,30,-1,32,-1,34,-1,36,-1,-1,-1,-1,-1,-1,-1,-1,-1,-1,-1],"split_conditions":[4.5E1,1E0,2E0,2E0,1E0,3.9E1,-1.0009058E-1,5E0,-9.908694E-2,2E0,2E0,2E0,-1.11081414E-1,9.5619075E-2,2.1E1,4E1,-9.49914E-2,2E0,3.6E1,1E4,-9.293427E-2,1.481E5,7.8513555E-2,1E0,-6.809714E-2,2E0,-8.845717E-2,3.481317E-2,-6.379262E-2,-9.087061E-2,-2.6978508E-1,3.0859932E-2,-8.3267234E-2,5.831339E-2,-2.0143365E-2,-1.9952771E-1,-6.311764E-2],"split_indices":[7,9,3,0,2,4,0,5,0,0,2,9,0,0,5,4,0,9,4,1,0,10,0,12,0,3,0,0,0,0,0,0,0,0,0,0,0],"split_type":[0,0,0,0,0,0,0,0,0,0,0,0,0,0,0,0,0,0,0,0,0,0,0,0,0,0,0,0,0,0,0,0,0,0,0,0,0],"sum_hessian":[9.899342E1,3.423606E1,6.475736E1,1.4897056E1,1.9339005E1,3.498492E1,2.9772444E1,1.3782164E1,1.1148916E0,7.487277E0,1.1851728E1,1.7570337E1,1.7414581E1,7.283854E0,6.49831E0,6.1317E0,1.3555768E0,8.800693E0,3.0510354E0,1.1503649E1,6.066689E0,2.2963908E0,4.201919E0,4.5828543E0,1.5488456E0,3.508137E0,5.292556E0,1.689813E0,1.3612223E0,2.9159331E0,8.587715E0,1.0587438E0,1.2376469E0,3.1975372E0,1.3853172E0,1.9928162E0,1.5153209E0],"tree_param":{"num_deleted":"0","num_feature":"15","num_nodes":"37","size_leaf_vector":"1"}},{"base_weights":[-9.1364735E-1,-2.0220006E-1,-1.2865837E0,5.208088E-1,-7.5175744E-1,-1.4868206E0,-9.9458E-2,7.012514E-1,-9.6905634E-2,-2.3533458E-1,-1.0362242E0,-1.772023E0,-1.09022714E-1,9.320014E-2,3.5824522E-1,2.56228E-2,-9.339167E-2,-1.3112037E-1,-1.3601054E-1,-2.0745614E0,-9.1247894E-2,-3.5001227E-1,7.568316E-2,3.297052E-1,-6.624028E-2,3.2925025E-2,-6.1146468E-2,-8.808777E-2,-2.3107632E-1,2.9456316E-2,-7.7928886E-2,5.5135038E-2,-1.8952731E-2],"categories":[],"categories_nodes":[],"categories_segments":[],"categories_sizes":[],"default_left":[0,0,0,0,0,0,0,0,0,0,0,0,0,0,0,0,0,0,0,0,0,0,0,0,0,0,0,0,0,0,0,0,0],"id":30,"left_children":[1,3,5,7,9,11,-1,13,-1,15,17,19,-1,-1,21,23,-1,-1,25,27,-1,29,-1,31,-1,-1,-1,-1,-1,-1,-1,-1,-1],"loss_changes":[2.4755943E1,1.3746937E1,2.1272125E0,4.740651E0,2.621704E0,1.9776459E0,0E0,7.785115E-1,0E0,1.5228418E0,2.862442E0,2.9195747E0,0E0,0E0,2.3191414E0,1.6744175E0,0E0,0E0,1.0839583E0,1.602623E0,0E0,1.1438291E0,0E0,7.367753E-1,0E0,0E0,0E0,0E0,0E0,0E0,0E0,0E0,0E0],"parents":[2147483647,0,0,1,1,2,2,3,3,4,4,5,5,7,7,9,9,10,10,11,11,14,14,15,15,18,18,19,19,21,21,23,23],"right_children":[2,4,6,8,10,12,-1,14,-1,16,18,20,-1,-1,22,24,-1,-1,26,28,-1,30,-1,32,-1,-1,-1,-1,-1,-1,-1,-1,-1],"split_conditions":[4.5E1,1E0,2E0,2E0,1E0,3.9E1,-9.9458E-2,5E0,-9.6905634E-2,2E0,2E0,2E0,-1.09022714E-1,9.320014E-2,2.1E1,4E1,-9.339167E-2,-1.3112037E-1,3.6E1,1E4,-9.1247894E-2,1.481E5,7.568316E-2,1E0,-6.624028E-2,3.2925025E-2,-6.1146468E-2,-8.808777E-2,-2.3107632E-1,2.9456316E-2,-7.7928886E-2,5.5135038E-2,-1.8952731E-2],"split_indices":[7,9,3,0,2,4,0,5,0,0,2,9,0,0,5,4,0,0,4,1,0,10,0,12,0,0,0,0,0,0,0,0,0],"split_type":[0,0,0,0,0,0,0,0,0,0,0,0,0,0,0,0,0,0,0,0,0,0,0,0,0,0,0,0,0,0,0,0,0],"sum_hessian":[9.328486E1,3.261249E1,6.0672367E1,1.4106286E1,1.8506205E1,3.356436E1,2.7108006E1,1.3054527E1,1.0517586E0,7.222221E0,1.1283983E1,1.7506672E1,1.6057692E1,6.777772E0,6.276756E0,5.959394E0,1.262827E0,8.293962E0,2.9900217E0,1.1903407E1,5.603266E0,2.3042126E0,3.9725435E0,4.4940023E0,1.4653913E0,1.6666282E0,1.3233933E0,2.7475536E0,9.155853E0,1.0465668E0,1.2576456E0,3.1062E0,1.3878024E0],"tree_param":{"num_deleted":"0","num_feature":"15","num_nodes":"33","size_leaf_vector":"1"}},{"base_weights":[-8.877272E-1,-2.0085666E-1,-1.2518115E0,4.9592552E-1,-7.320248E-1,-1.418942E0,-9.882961E-2,6.594135E-1,-6.683477E-2,-2.3418497E-1,-1.0137519E0,-1.5772072E0,-9.581786E-2,8.5444614E-2,8.966537E-2,1.9128941E-2,-9.176289E-2,-1.3006309E-1,-1.3144548E-1,-1.8949494E0,-1.10940896E-1,-9.814073E-2,6.9133304E-2,3.081643E-1,-6.4434946E-2,3.1125445E-2,-5.8549054E-2,-8.500645E-2,-2.0770179E-1,6.1456926E-2,-9.173422E-3],"categories":[],"categories_nodes":[],"categories_segments":[],"categories_sizes":[],"default_left":[0,0,0,0,0,0,0,0,0,0,0,0,0,0,0,0,0,0,0,0,0,0,0,0,0,0,0,0,0,0,0],"id":31,"left_children":[1,3,5,7,9,11,-1,13,-1,15,17,19,-1,-1,21,23,-1,-1,25,27,-1,-1,-1,29,-1,-1,-1,-1,-1,-1,-1],"loss_changes":[2.1894539E1,1.2158289E1,1.1382446E0,3.1782284E0,2.35561E0,8.954849E-1,0E0,1.3806481E0,0E0,1.3993957E0,2.7414188E0,1.3190842E0,0E0,0E0,3.5536938E0,1.5031526E0,0E0,0E0,9.733244E-1,5.734329E-1,0E0,0E0,0E0,7.1989185E-1,0E0,0E0,0E0,0E0,0E0,0E0,0E0],"parents":[2147483647,0,0,1,1,2,2,3,3,4,4,5,5,7,7,9,9,10,10,11,11,14,14,15,15,18,18,19,19,23,23],"right_children":[2,4,6,8,10,12,-1,14,-1,16,18,20,-1,-1,22,24,-1,-1,26,28,-1,-1,-1,30,-1,-1,-1,-1,-1,-1,-1],"split_conditions":[4.5E1,1E0,2E0,4E1,1E0,2E0,-9.882961E-2,1.683E5,-6.683477E-2,2E0,2E0,3.8E1,-9.581786E-2,8.5444614E-2,2.156E5,4E1,-9.176289E-2,-1.3006309E-1,3.6E1,1E4,-1.10940896E-1,-9.814073E-2,6.9133304E-2,5E0,-6.4434946E-2,3.1125445E-2,-5.8549054E-2,-8.500645E-2,-2.0770179E-1,6.1456926E-2,-9.173422E-3],"split_indices":[7,9,3,4,2,9,0,10,0,0,2,4,0,0,10,4,0,0,4,1,0,0,0,5,0,0,0,0,0,0,0],"split_type":[0,0,0,0,0,0,0,0,0,0,0,0,0,0,0,0,0,0,0,0,0,0,0,0,0,0,0,0,0,0,0],"sum_hessian":[8.755598E1,3.0869734E1,5.668624E1,1.3381861E1,1.7487871E1,3.2003723E1,2.468252E1,1.2114379E1,1.2674822E0,6.981722E0,1.050615E1,2.2017883E1,9.98584E0,8.652738E0,3.4616416E0,5.8029194E0,1.1788024E0,7.570501E0,2.9356492E0,1.1295122E1,1.0722762E1,1.0181006E0,2.443541E0,4.4150815E0,1.387838E0,1.6456269E0,1.2900223E0,2.5173056E0,8.777816E0,2.195818E0,2.2192636E0],"tree_param":{"num_deleted":"0","num_feature":"15","num_nodes":"31","size_leaf_vector":"1"}},{"base_weights":[-8.6351895E-1,-1.9960834E-1,-1.2212439E0,4.6781343E-1,-7.1105313E-1,-1.3612972E0,-9.820007E-2,6.2704337E-1,-6.48702E-2,-9.0021145E-1,-2.4523267E-3,-1.489876E0,-9.45993E-2,8.232613E-2,7.68698E-2,-3.2804722E-1,-1.1800736E0,3.6892477E-1,-5.748331E-2,-1.7147891E-1,-1.0595774E-1,-9.0229355E-2,6.672641E-2,3.578817E-2,-6.7813677E-1,-9.921173E-3,-1.317382E-1,5.9064638E-2,-5.0038337E-3,-1.7606061E-2,-8.204093E-2],"categories":[],"categories_nodes":[],"categories_segments":[],"categories_sizes":[],"default_left":[0,0,0,0,0,0,0,0,0,0,0,0,0,0,0,0,0,0,0,0,0,0,0,0,0,0,0,0,0,0,0],"id":32,"left_children":[1,3,5,7,9,11,-1,13,-1,15,17,19,-1,-1,21,23,25,27,-1,-1,-1,-1,-1,-1,29,-1,-1,-1,-1,-1,-1],"loss_changes":[1.9510784E1,1.06823845E1,4.6781158E-1,2.8525867E0,2.351861E0,2.6637268E-1,0E0,1.2914033E0,0E0,1.8321638E0,1.2118266E0,3.338623E-1,0E0,0E0,3.1467822E0,1.6684811E0,1.1934423E0,3.5110858E-1,0E0,0E0,0E0,0E0,0E0,0E0,1.6103494E-1,0E0,0E0,0E0,0E0,0E0,0E0],"parents":[2147483647,0,0,1,1,2,2,3,3,4,4,5,5,7,7,9,9,10,10,11,11,14,14,15,15,16,16,17,17,24,24],"right_children":[2,4,6,8,10,12,-1,14,-1,16,18,20,-1,-1,22,24,26,28,-1,-1,-1,-1,-1,-1,30,-1,-1,-1,-1,-1,-1],"split_conditions":[4.5E1,1E0,2E0,4E1,2E1,2E0,-9.820007E-2,1.683E5,-6.48702E-2,1E0,2E0,3.9E1,-9.45993E-2,8.232613E-2,2.156E5,3E0,2.3E1,3.6E1,-5.748331E-2,-1.7147891E-1,-1.0595774E-1,-9.0229355E-2,6.672641E-2,3.578817E-2,9E0,-9.921173E-3,-1.317382E-1,5.9064638E-2,-5.0038337E-3,-1.7606061E-2,-8.204093E-2],"split_indices":[7,9,3,4,5,9,0,10,0,2,9,4,0,0,10,5,4,4,0,0,0,0,0,0,13,0,0,0,0,0,0],"split_type":[0,0,0,0,0,0,0,0,0,0,0,0,0,0,0,0,0,0,0,0,0,0,0,0,0,0,0,0,0,0,0],"sum_hessian":[8.2178E1,2.9320093E1,5.285791E1,1.2757373E1,1.6562721E1,3.0382135E1,2.2475773E1,1.15487585E1,1.2086136E0,1.2859514E1,3.703206E0,2.1223785E1,9.15835E0,8.146843E0,3.4019158E0,4.937407E0,7.922107E0,2.4615424E0,1.2416637E0,1.1977925E1,9.245861E0,1.080924E0,2.3209918E0,1.660919E0,3.2764883E0,1.0871155E0,6.834992E0,1.3417087E0,1.1198337E0,1.2174888E0,2.0589995E0],"tree_param":{"num_deleted":"0","num_feature":"15","num_nodes":"31","size_leaf_vector":"1"}},{"base_weights":[-8.3952916E-1,-1.9554524E-1,-1.1961067E0,4.4045094E-1,-6.824913E-1,-1.3156661E-1,-9.75643E-2,5.9530395E-1,-6.2980525E-2,-8.6576533E-1,-3.0239532E-3,9.005839E-2,1.9499661E-1,4.5555183E-3,-1.0037459E0,-4.9508948E-2,4.28829E-2,5.663988E-1,-5.837643E-2,2.3583851E-3,-1.1136199E0,1.6499782E-2,6.606842E-2,-4.9706295E-2,-1.3474786E-1],"categories":[],"categories_nodes":[],"categories_segments":[],"categories_sizes":[],"default_left":[0,0,0,0,0,0,0,0,0,0,0,0,0,0,0,0,0,0,0,0,0,0,0,0,0],"id":33,"left_children":[1,3,5,7,9,-1,-1,11,-1,13,15,-1,17,-1,19,-1,-1,21,-1,-1,23,-1,-1,-1,-1],"loss_changes":[1.7693577E1,9.287418E0,3.5690308E-2,2.5611098E0,2.092845E0,0E0,0E0,1.2954774E0,0E0,1.7117157E0,1.1851615E0,0E0,2.206219E0,0E0,1.3300171E0,0E0,0E0,7.6367736E-2,0E0,0E0,8.376951E-1,0E0,0E0,0E0,0E0],"parents":[2147483647,0,0,1,1,2,2,3,3,4,4,7,7,9,9,10,10,12,12,14,14,17,17,20,20],"right_children":[2,4,6,8,10,-1,-1,12,-1,14,16,-1,18,-1,20,-1,-1,22,-1,-1,24,-1,-1,-1,-1],"split_conditions":[4.5E1,1E0,2E0,4E1,2E1,-1.3156661E-1,-9.75643E-2,5E0,-6.2980525E-2,1.5E1,2E0,9.005839E-2,1.683E5,4.5555183E-3,2.1E1,-4.9508948E-2,4.28829E-2,2E4,-5.837643E-2,2.3583851E-3,1E0,1.6499782E-2,6.606842E-2,-4.9706295E-2,-1.3474786E-1],"split_indices":[7,9,3,4,5,0,0,5,0,7,11,0,10,0,4,0,0,1,0,0,2,0,0,0,0],"split_type":[0,0,0,0,0,0,0,0,0,0,0,0,0,0,0,0,0,0,0,0,0,0,0,0,0],"sum_hessian":[7.707106E1,2.8018196E1,4.9052864E1,1.21910515E1,1.5827146E1,2.858385E1,2.0469015E1,1.1037792E1,1.1532593E0,1.2249014E1,3.5781317E0,5.5531507E0,5.484641E0,1.6987985E0,1.0550216E1,1.604027E0,1.9741046E0,3.898218E0,1.5864233E0,1.0952175E0,9.454998E0,1.2645661E0,2.633652E0,3.4595494E0,5.9954486E0],"tree_param":{"num_deleted":"0","num_feature":"15","num_nodes":"25","size_leaf_vector":"1"}},{"base_weights":[-8.152155E-1,-1.8764423E-1,-1.17820464E-1,8.98127E-2,-1.25086E-1,6.018344E-1,-4.0267843E-1,8.6140074E-2,2.6161093E-1,4.2956285E-2,-7.6166034E-1,-1.1779572E-1,7.43598E-2,3.2449833E-1,-5.941332E-2,-1.1842978E-1,6.861531E-2,6.2752366E-2,-2.4837997E-2,4.6646643E-2,-4.084523E-2],"categories":[],"categories_nodes":[],"categories_segments":[],"categories_sizes":[],"default_left":[0,0,0,0,0,0,0,0,0,0,0,0,0,0,0,0,0,0,0,0,0],"id":34,"left_children":[1,3,-1,5,-1,7,9,-1,11,13,15,-1,-1,17,-1,-1,19,-1,-1,-1,-1],"loss_changes":[1.6430676E1,8.365148E0,0E0,6.072232E0,0E0,8.1103706E-1,2.0137649E0,0E0,5.396345E0,1.3535795E0,2.5067043E0,0E0,0E0,1.0472664E0,0E0,0E0,8.124724E-1,0E0,0E0,0E0,0E0],"parents":[2147483647,0,0,1,1,3,3,5,5,6,6,8,8,9,9,10,10,13,13,16,16],"right_children":[2,4,-1,6,-1,8,10,-1,12,14,16,-1,-1,18,-1,-1,20,-1,-1,-1,-1],"split_conditions":[4.5E1,2E0,-1.17820464E-1,1E0,-1.25086E-1,5E0,1E0,8.6140074E-2,2E1,2E0,2E0,-1.1779572E-1,7.43598E-2,3.6E1,-5.941332E-2,-1.1842978E-1,3.4E1,6.2752366E-2,-2.4837997E-2,4.6646643E-2,-4.084523E-2],"split_indices":[7,0,0,9,0,5,2,0,5,3,2,0,0,4,0,0,4,0,0,0,0],"split_type":[0,0,0,0,0,0,0,0,0,0,0,0,0,0,0,0,0,0,0,0,0],"sum_hessian":[7.209764E1,2.6975935E1,4.5121704E1,2.2119225E1,4.8567095E0,1.073573E1,1.1383495E1,5.2207804E0,5.51495E0,5.471543E0,5.9119525E0,1.0211334E0,4.4938164E0,4.1349044E0,1.3366385E0,3.6351507E0,2.2768016E0,2.6420162E0,1.492888E0,1.2535901E0,1.0232115E0],"tree_param":{"num_deleted":"0","num_feature":"15","num_nodes":"21","size_leaf_vector":"1"}},{"base_weights":[-7.996889E-1,-1.8732716E-1,-1.1637819E-1,8.1125215E-2,-1.2349421E-1,5.780395E-1,-3.895912E-1,8.382033E-2,2.4016497E-1,-8.740582E-1,-6.4667754E-2,-3.477463E-1,6.293546E-1,-1.1108987E0,-1.0529299E-3,3.319346E-1,-7.292064E-2,1.6171189E-2,-6.796158E-2,1.8588936E-2,7.158131E-2,-3.3858176E-2,-1.2750442E-1,5.04467E-2,-2.0422235E-2],"categories":[],"categories_nodes":[],"categories_segments":[],"categories_sizes":[],"default_left":[0,0,0,0,0,0,0,0,0,0,0,0,0,0,0,0,0,0,0,0,0,0,0,0,0],"id":35,"left_children":[1,3,-1,5,-1,7,9,-1,11,13,15,17,19,21,-1,23,-1,-1,-1,-1,-1,-1,-1,-1,-1],"loss_changes":[1.4895855E1,7.5439763E0,0E0,5.372902E0,0E0,7.751601E-1,1.8165685E0,0E0,1.6452744E0,9.489076E-1,2.403799E0,6.386312E-1,2.4401546E-2,3.4356594E-2,0E0,6.417515E-1,0E0,0E0,0E0,0E0,0E0,0E0,0E0,0E0,0E0],"parents":[2147483647,0,0,1,1,3,3,5,5,6,6,8,8,9,9,10,10,11,11,12,12,13,13,15,15],"right_children":[2,4,-1,6,-1,8,10,-1,12,14,16,18,20,22,-1,24,-1,-1,-1,-1,-1,-1,-1,-1,-1],"split_conditions":[4.5E1,2E0,-1.1637819E-1,1E0,-1.2349421E-1,5E0,7E0,8.382033E-2,2.1E1,1.55E4,2E0,1.683E5,2E4,7E0,-1.0529299E-3,3.9E1,-7.292064E-2,1.6171189E-2,-6.796158E-2,1.8588936E-2,7.158131E-2,-3.3858176E-2,-1.2750442E-1,5.04467E-2,-2.0422235E-2],"split_indices":[7,0,0,9,0,5,13,0,5,8,9,10,1,5,0,4,0,0,0,0,0,0,0,0,0],"split_type":[0,0,0,0,0,0,0,0,0,0,0,0,0,0,0,0,0,0,0,0,0,0,0,0,0],"sum_hessian":[6.678836E1,2.5468252E1,4.1320107E1,2.1007597E1,4.4606557E0,1.0108502E1,1.0899095E1,4.874399E0,5.234103E0,3.696901E0,7.2021933E0,2.1272135E0,3.10689E0,2.676384E0,1.0205173E0,4.8238072E0,2.378386E0,1.0413479E0,1.0858655E0,1.0208354E0,2.0860546E0,1.0059594E0,1.6704245E0,3.6941543E0,1.1296532E0],"tree_param":{"num_deleted":"0","num_feature":"15","num_nodes":"25","size_leaf_vector":"1"}},{"base_weights":[-7.8028333E-1,-1.8439394E-1,-1.14945166E-1,7.223767E-2,-1.2171101E-1,5.541429E-1,-3.784042E-1,8.147603E-2,2.2712995E-1,4.8154302E-2,-7.2810364E-1,-3.2725978E-1,6.085487E-1,3.1461465E-1,-5.6812804E-2,-1.14771366E-1,6.495206E-2,1.5374799E-2,-6.36883E-2,1.7752146E-2,6.9537826E-2,5.9944917E-2,-2.1145074E-2,4.2586107E-2,-3.3530083E-2],"categories":[],"categories_nodes":[],"categories_segments":[],"categories_sizes":[],"default_left":[0,0,0,0,0,0,0,0,0,0,0,0,0,0,0,0,0,0,0,0,0,0,0,0,0],"id":36,"left_children":[1,3,-1,5,-1,7,9,-1,11,13,15,17,19,21,-1,-1,23,-1,-1,-1,-1,-1,-1,-1,-1],"loss_changes":[1.3694477E1,6.8125525E0,0E0,4.828172E0,0E0,7.253871E-1,1.7630459E0,0E0,1.4941858E0,1.1897429E0,2.213494E0,5.665294E-1,2.5432229E-2,8.6723804E-1,0E0,0E0,6.007921E-1,0E0,0E0,0E0,0E0,0E0,0E0,0E0,0E0],"parents":[2147483647,0,0,1,1,3,3,5,5,6,6,8,8,9,9,10,10,11,11,12,12,13,13,16,16],"right_children":[2,4,-1,6,-1,8,10,-1,12,14,16,18,20,22,-1,-1,24,-1,-1,-1,-1,-1,-1,-1,-1],"split_conditions":[4.5E1,2E0,-1.14945166E-1,1E0,-1.2171101E-1,5E0,1E0,8.147603E-2,2.1E1,2E0,2E0,1.683E5,2E4,3.6E1,-5.6812804E-2,-1.14771366E-1,3.3E1,1.5374799E-2,-6.36883E-2,1.7752146E-2,6.9537826E-2,5.9944917E-2,-2.1145074E-2,4.2586107E-2,-3.3530083E-2],"split_indices":[7,0,0,9,0,5,2,0,5,3,2,10,1,4,0,0,4,0,0,0,0,0,0,0,0],"split_type":[0,0,0,0,0,0,0,0,0,0,0,0,0,0,0,0,0,0,0,0,0,0,0,0,0],"sum_hessian":[6.221581E1,2.4373325E1,3.7842484E1,2.0266996E1,4.1063304E0,9.682789E0,1.0584208E1,4.5583916E0,5.1243973E0,5.1565804E0,5.427627E0,2.1464863E0,2.9779108E0,3.9417799E0,1.2148007E0,3.2570827E0,2.1705441E0,1.0377499E0,1.1087365E0,1.0097804E0,1.9681304E0,2.4667041E0,1.4750757E0,1.1077254E0,1.0628188E0],"tree_param":{"num_deleted":"0","num_feature":"15","num_nodes":"25","size_leaf_vector":"1"}},{"base_weights":[-7.609434E-1,-1.7931983E-1,-1.1352696E-1,6.7653656E-2,-1.19731784E-1,5.3082794E-1,-3.6513764E-1,7.910338E-2,2.1505712E-1,-5.7302403E-1,2.912679E-1,-3.077932E-1,5.8825433E-1,-1.0481041E-1,-1.4454667E-1,4.3666165E-2,2.482408E-3,1.46164475E-2,-5.9674926E-2,6.688829E-2,1.8181019E-2,5.7645626E-2,-5.4563385E-2],"categories":[],"categories_nodes":[],"categories_segments":[],"categories_sizes":[],"default_left":[0,0,0,0,0,0,0,0,0,0,0,0,0,0,0,0,0,0,0,0,0,0,0],"id":37,"left_children":[1,3,-1,5,-1,7,9,-1,11,13,15,17,19,-1,21,-1,-1,-1,-1,-1,-1,-1,-1],"loss_changes":[1.2623791E1,6.1799803E0,0E0,4.2969136E0,0E0,6.757574E-1,1.6916574E0,0E0,1.3565391E0,1.6445603E0,1.1896062E-1,5.0245833E-1,4.842639E-3,0E0,1.9915503E0,0E0,0E0,0E0,0E0,0E0,0E0,0E0,0E0],"parents":[2147483647,0,0,1,1,3,3,5,5,6,6,8,8,9,9,10,10,11,11,12,12,14,14],"right_children":[2,4,-1,6,-1,8,10,-1,12,14,16,18,20,-1,22,-1,-1,-1,-1,-1,-1,-1,-1],"split_conditions":[4.5E1,2E0,-1.1352696E-1,1E0,-1.19731784E-1,5E0,5E4,7.910338E-2,2.1E1,1.45E4,1E0,1.683E5,3.4E1,-1.0481041E-1,1.488E5,4.3666165E-2,2.482408E-3,1.46164475E-2,-5.9674926E-2,6.688829E-2,1.8181019E-2,5.7645626E-2,-5.4563385E-2],"split_indices":[7,0,0,9,0,5,1,0,5,8,2,10,4,0,10,0,0,0,0,0,0,0,0],"split_type":[0,0,0,0,0,0,0,0,0,0,0,0,0,0,0,0,0,0,0,0,0,0,0],"sum_hessian":[5.7917633E1,2.3258266E1,3.465937E1,1.9468592E1,3.7896748E0,9.294777E0,1.0173815E1,4.270583E0,5.024194E0,7.8232007E0,2.3506136E0,2.1655312E0,2.8586624E0,3.024089E0,4.799112E0,1.1074476E0,1.2431659E0,1.0344875E0,1.1310438E0,1.8466399E0,1.0120224E0,1.5591377E0,3.2399743E0],"tree_param":{"num_deleted":"0","num_feature":"15","num_nodes":"23","size_leaf_vector":"1"}},{"base_weights":[-7.3872244E-1,-1.704835E-1,-1.1212852E-1,6.645275E-2,-1.1756114E-1,2.8935173E-1,-7.938433E-2,6.0648805E-1,-1.5201533E-1,8.212455E-2,1.5451512E-2,-1.377837E-1,6.2630045E-1,-4.168837E-2,5.550452E-2,1.0457648E-2,8.0008276E-2],"categories":[],"categories_nodes":[],"categories_segments":[],"categories_sizes":[],"default_left":[0,0,0,0,0,0,0,0,0,0,0,0,0,0,0,0,0],"id":38,"left_children":[1,3,-1,5,-1,7,-1,9,11,-1,13,-1,15,-1,-1,-1,-1],"loss_changes":[1.1784534E1,5.637744E0,0E0,4.033844E0,0E0,2.4001822E0,0E0,1.2305946E0,8.203278E0,0E0,1.0781512E0,0E0,4.0532017E-1,0E0,0E0,0E0,0E0],"parents":[2147483647,0,0,1,1,3,3,5,5,7,7,8,8,10,10,12,12],"right_children":[2,4,-1,6,-1,8,-1,10,12,-1,14,-1,16,-1,-1,-1,-1],"split_conditions":[4.5E1,2E0,-1.1212852E-1,2E0,-1.1756114E-1,1E0,-7.938433E-2,3.8E1,2E0,8.212455E-2,2E0,-1.377837E-1,2E4,-4.168837E-2,5.550452E-2,1.0457648E-2,8.0008276E-2],"split_indices":[7,0,0,3,0,2,0,4,2,0,11,0,1,0,0,0,0],"split_type":[0,0,0,0,0,0,0,0,0,0,0,0,0,0,0,0,0],"sum_hessian":[5.4089283E1,2.2344921E1,3.1744364E1,1.883814E1,3.506781E0,1.5488736E1,3.349404E0,8.795078E0,6.6936574E0,6.1653523E0,2.6297262E0,2.30037E0,4.3932877E0,1.5862205E0,1.0435055E0,1.497951E0,2.8953364E0],"tree_param":{"num_deleted":"0","num_feature":"15","num_nodes":"17","size_leaf_vector":"1"}},{"base_weights":[-7.2303706E-1,-1.686034E-1,-1.1075369E-1,6.160597E-2,-1.152121E-1,2.760548E-1,-7.781913E-2,6.08577E-1,-1.3123168E-1,7.712464E-2,1.5421905E-1,-7.113083E-1,2.5176972E-1,-3.4700386E-2,5.945126E-2,-1.07194245E-1,-2.7906294E-3,3.9950788E-2,-1.9396497E-2],"categories":[],"categories_nodes":[],"categories_segments":[],"categories_sizes":[],"default_left":[0,0,0,0,0,0,0,0,0,0,0,0,0,0,0,0,0,0,0],"id":39,"left_children":[1,3,-1,5,-1,7,-1,9,11,-1,13,15,17,-1,-1,-1,-1,-1,-1],"loss_changes":[1.0735357E1,5.0884075E0,0E0,3.6197424E0,0E0,2.219512E0,0E0,5.3701425E-1,1.939488E0,0E0,9.984919E-1,8.1113505E-1,4.404092E-1,0E0,0E0,0E0,0E0,0E0,0E0],"parents":[2147483647,0,0,1,1,3,3,5,5,7,7,8,8,10,10,11,11,12,12],"right_children":[2,4,-1,6,-1,8,-1,10,12,-1,14,16,18,-1,-1,-1,-1,-1,-1],"split_conditions":[4.5E1,2E0,-1.1075369E-1,2E0,-1.152121E-1,1E0,-7.781913E-2,1.683E5,7E0,7.712464E-2,2.35E4,1.45E4,2.208E5,-3.4700386E-2,5.945126E-2,-1.07194245E-1,-2.7906294E-3,3.9950788E-2,-1.9396497E-2],"split_indices":[7,0,0,3,0,9,0,10,13,0,8,8,10,0,0,0,0,0,0],"split_type":[0,0,0,0,0,0,0,0,0,0,0,0,0,0,0,0,0,0,0],"sum_hessian":[5.0234188E1,2.1160328E1,2.907386E1,1.7906387E1,3.2539399E0,1.4798706E1,3.1076818E0,7.8750396E0,6.923667E0,5.285339E0,2.5897005E0,2.412543E0,4.5111237E0,1.3101395E0,1.2795608E0,1.2070427E0,1.2055004E0,3.4660242E0,1.0450999E0],"tree_param":{"num_deleted":"0","num_feature":"15","num_nodes":"19","size_leaf_vector":"1"}},{"base_weights":[-7.0459646E-1,-1.6658728E-1,-1.0940515E-1,5.414108E-2,-1.1270472E-1,2.568033E-1,-7.6243386E-2,5.6594497E-1,-1.6586383E-1,7.8671746E-2,-7.2625E-4,-1.2911232E-1,5.862497E-1,-3.5706494E-2,4.0432204E-2,8.020155E-3,7.688027E-2],"categories":[],"categories_nodes":[],"categories_segments":[],"categories_sizes":[],"default_left":[0,0,0,0,0,0,0,0,0,0,0,0,0,0,0,0,0],"id":40,"left_children":[1,3,-1,5,-1,7,-1,9,11,-1,13,-1,15,-1,-1,-1,-1],"loss_changes":[9.861561E0,4.57836E0,0E0,3.2210073E0,0E0,2.1052675E0,0E0,1.1412191E0,6.9149117E0,0E0,6.575231E-1,0E0,4.0476286E-1,0E0,0E0,0E0,0E0],"parents":[2147483647,0,0,1,1,3,3,5,5,7,7,8,8,10,10,12,12],"right_children":[2,4,-1,6,-1,8,-1,10,12,-1,14,-1,16,-1,-1,-1,-1],"split_conditions":[4.5E1,2E0,-1.0940515E-1,2E0,-1.1270472E-1,1E0,-7.6243386E-2,3.8E1,2E0,7.8671746E-2,2E0,-1.2911232E-1,2E4,-3.5706494E-2,4.0432204E-2,8.020155E-3,7.688027E-2],"split_indices":[7,0,0,3,0,2,0,4,2,0,14,0,1,0,0,0,0],"split_type":[0,0,0,0,0,0,0,0,0,0,0,0,0,0,0,0,0],"sum_hessian":[4.693488E1,2.0308134E1,2.6626743E1,1.7280453E1,3.0276816E0,1.4393662E1,2.8867898E0,8.11749E0,6.276173E0,5.5621767E0,2.5553126E0,2.2272532E0,4.0489197E0,1.4224151E0,1.1328975E0,1.454974E0,2.5939457E0],"tree_param":{"num_deleted":"0","num_feature":"15","num_nodes":"17","size_leaf_vector":"1"}},{"base_weights":[-6.8879247E-1,-1.6489796E-1,-1.08084284E-1,4.9215052E-2,-1.1006428E-1,4.7388536E-1,-3.3324823E-1,-4.2484105E-3,6.0230416E-1,-6.480381E-1,8.824617E-2,7.202523E-2,6.9037597E-3,-4.2151928E-2,-1.1515977E-1,4.4059294E-1,-5.7195373E-2,4.295857E-2,-6.0491867E-2,1.0762181E-2,6.337715E-2],"categories":[],"categories_nodes":[],"categories_segments":[],"categories_sizes":[],"default_left":[0,0,0,0,0,0,0,0,0,0,0,0,0,0,0,0,0,0,0,0,0],"id":41,"left_children":[1,3,-1,5,-1,7,9,-1,11,13,15,-1,-1,17,-1,19,-1,-1,-1,-1,-1],"loss_changes":[9.001751E0,4.1235075E0,0E0,2.9979825E0,0E0,6.024065E-1,1.3557767E0,0E0,3.9257526E-1,1.6974401E0,1.4301133E0,0E0,0E0,1.2249886E0,0E0,1.8053252E-1,0E0,0E0,0E0,0E0,0E0],"parents":[2147483647,0,0,1,1,3,3,5,5,6,6,8,8,9,9,10,10,13,13,15,15],"right_children":[2,4,-1,6,-1,8,10,-1,12,14,16,-1,-1,18,-1,20,-1,-1,-1,-1,-1],"split_conditions":[4.5E1,2E0,-1.08084284E-1,1E0,-1.1006428E-1,1.25E4,2E0,-4.2484105E-3,3.8E1,1E0,2E0,7.202523E-2,6.9037597E-3,3.6E1,-1.1515977E-1,1.9E1,-5.7195373E-2,4.295857E-2,-6.0491867E-2,1.0762181E-2,6.337715E-2],"split_indices":[7,0,0,9,0,8,11,0,4,11,9,0,0,4,0,5,0,0,0,0,0],"split_type":[0,0,0,0,0,0,0,0,0,0,0,0,0,0,0,0,0,0,0,0,0],"sum_hessian":[4.3694702E1,1.931063E1,2.4384073E1,1.6485823E1,2.8248081E0,7.6986012E0,8.787222E0,1.6665627E0,6.0320387E0,4.722661E0,4.064561E0,4.6523805E0,1.379658E0,2.6354177E0,2.0872433E0,2.8670573E0,1.1975033E0,1.5623969E0,1.0730207E0,1.6243558E0,1.2427016E0],"tree_param":{"num_deleted":"0","num_feature":"15","num_nodes":"21","size_leaf_vector":"1"}},{"base_weights":[-6.704933E-1,-1.62198E-1,-1.0679127E-1,4.3540217E-2,-1.0731914E-1,2.3570703E-1,-7.384418E-2,-1.7502217E-1,5.3931826E-1,4.612849E-2,-5.4663527E-1,9.422441E-2,7.170109E-2,-1.2960868E-1,1.0867826E-2,4.528002E-2,-2.9011756E-2],"categories":[],"categories_nodes":[],"categories_segments":[],"categories_sizes":[],"default_left":[0,0,0,0,0,0,0,0,0,0,0,0,0,0,0,0,0],"id":42,"left_children":[1,3,-1,5,-1,7,-1,9,11,-1,13,15,-1,-1,-1,-1,-1],"loss_changes":[8.288416E0,3.712619E0,0E0,2.716147E0,0E0,1.8823264E0,0E0,1.8716273E0,6.038208E-1,0E0,2.48911E0,6.2382436E-1,0E0,0E0,0E0,0E0,0E0],"parents":[2147483647,0,0,1,1,3,3,5,5,7,7,8,8,10,10,11,11],"right_children":[2,4,-1,6,-1,8,-1,10,12,-1,14,16,-1,-1,-1,-1,-1],"split_conditions":[4.5E1,2E0,-1.0679127E-1,2E0,-1.0731914E-1,9E0,-7.384418E-2,1E0,2E4,4.612849E-2,2E0,3.3E1,7.170109E-2,-1.2960868E-1,1.0867826E-2,4.528002E-2,-2.9011756E-2],"split_indices":[7,0,0,3,0,13,0,11,1,0,11,4,0,0,0,0,0],"split_type":[0,0,0,0,0,0,0,0,0,0,0,0,0,0,0,0,0],"sum_hessian":[4.0887928E1,1.8559128E1,2.2328802E1,1.5916712E1,2.642415E0,1.3337651E1,2.5790608E0,5.848822E0,7.488829E0,2.0674524E0,3.7813694E0,2.5733159E0,4.9155135E0,1.3078408E0,2.4735286E0,1.2391346E0,1.3341813E0],"tree_param":{"num_deleted":"0","num_feature":"15","num_nodes":"17","size_leaf_vector":"1"}},{"base_weights":[-6.5262294E-1,-1.603555E-1,-1.0552511E-1,3.7165176E-2,-1.0449884E-1,1.9207542E-1,-8.9320466E-2,3.636277E-1,-6.681722E-2,-6.1991017E-2,6.641611E-1,-7.990822E-2,4.3898854E-2,8.151808E-2,7.4306764E-3],"categories":[],"categories_nodes":[],"categories_segments":[],"categories_sizes":[],"default_left":[0,0,0,0,0,0,0,0,0,0,0,0,0,0,0],"id":43,"left_children":[1,3,-1,5,-1,7,-1,9,-1,11,13,-1,-1,-1,-1],"loss_changes":[7.6223907E0,3.335384E0,0E0,2.5335016E0,0E0,2.4377468E0,0E0,1.7100397E0,0E0,2.682484E0,6.2823963E-1,0E0,0E0,0E0,0E0],"parents":[2147483647,0,0,1,1,3,3,5,5,7,7,9,9,10,10],"right_children":[2,4,-1,6,-1,8,-1,10,-1,12,14,-1,-1,-1,-1],"split_conditions":[4.5E1,2E0,-1.0552511E-1,3E0,-1.0449884E-1,2E0,-8.9320466E-2,1.45E4,-6.681722E-2,7E0,3.8E1,-7.990822E-2,4.3898854E-2,8.151808E-2,7.4306764E-3],"split_indices":[7,0,0,14,0,9,0,8,0,13,4,0,0,0,0],"split_type":[0,0,0,0,0,0,0,0,0,0,0,0,0,0,0],"sum_hessian":[3.83117E1,1.7866163E1,2.0445536E1,1.5388263E1,2.4779005E0,1.387206E1,1.5162032E0,1.2046934E1,1.8251253E0,5.31438E0,6.7325544E0,1.9096591E0,3.404721E0,5.056055E0,1.6764992E0],"tree_param":{"num_deleted":"0","num_feature":"15","num_nodes":"15","size_leaf_vector":"1"}},{"base_weights":[-6.373494E-1,-1.6146456E-1,-1.04283825E-1,2.8705902E-2,-1.0163226E-1,4.2363253E-1,-3.2459748E-1,7.134264E-2,1.0053903E-1,-5.083737E-1,2.6817128E-2,-3.4861553E-2,4.732367E-2,-8.5001156E-2,-1.5475214E-1,4.0574353E-2,-5.467093E-2],"categories":[],"categories_nodes":[],"categories_segments":[],"categories_sizes":[],"default_left":[0,0,0,0,0,0,0,0,0,0,0,0,0,0,0,0,0],"id":44,"left_children":[1,3,-1,5,-1,7,9,-1,11,13,-1,-1,-1,-1,15,-1,-1],"loss_changes":[6.944872E0,2.978568E0,0E0,2.343947E0,0E0,6.6802096E-1,1.1072588E0,0E0,9.85193E-1,7.32111E-1,0E0,0E0,0E0,0E0,1.2621409E0,0E0,0E0],"parents":[2147483647,0,0,1,1,3,3,5,5,6,6,8,8,9,9,14,14],"right_children":[2,4,-1,6,-1,8,10,-1,12,14,-1,-1,-1,-1,16,-1,-1],"split_conditions":[4.5E1,2E0,-1.04283825E-1,1E0,-1.0163226E-1,5E0,5E4,7.134264E-2,2.1E1,1.45E4,2.6817128E-2,-3.4861553E-2,4.732367E-2,-8.5001156E-2,1.61E5,4.0574353E-2,-5.467093E-2],"split_indices":[7,0,0,9,0,5,1,0,5,8,0,0,0,0,10,0,0],"split_type":[0,0,0,0,0,0,0,0,0,0,0,0,0,0,0,0,0],"sum_hessian":[3.5862743E1,1.7142437E1,1.8720306E1,1.4813474E1,2.3289633E0,6.900714E0,7.9127603E0,3.0009477E0,3.8997662E0,6.1488156E0,1.7639444E0,1.7977879E0,2.1019783E0,2.4134357E0,3.73538E0,1.5227238E0,2.2126563E0],"tree_param":{"num_deleted":"0","num_feature":"15","num_nodes":"17","size_leaf_vector":"1"}},{"base_weights":[-6.164412E-1,-1.5493393E-1,-1.0306459E-1,2.7498985E-2,-9.874638E-2,1.7812821E-1,-8.538833E-2,3.405211E-1,-6.524678E-2,-4.538913E-2,6.14182E-1,-7.2608575E-2,4.4290066E-2,3.5660755E-2,7.7940375E-2],"categories":[],"categories_nodes":[],"categories_segments":[],"categories_sizes":[],"default_left":[0,0,0,0,0,0,0,0,0,0,0,0,0,0,0],"id":45,"left_children":[1,3,-1,5,-1,7,-1,9,-1,11,13,-1,-1,-1,-1],"loss_changes":[6.484439E0,2.7028039E0,0E0,2.1997113E0,0E0,2.1104655E0,0E0,1.3339446E0,0E0,2.3365774E0,3.2924175E-2,0E0,0E0,0E0,0E0],"parents":[2147483647,0,0,1,1,3,3,5,5,7,7,9,9,10,10],"right_children":[2,4,-1,6,-1,8,-1,10,-1,12,14,-1,-1,-1,-1],"split_conditions":[4.5E1,2E0,-1.0306459E-1,3E0,-9.874638E-2,4E1,-8.538833E-2,1.45E4,-6.524678E-2,7E0,1.9E1,-7.2608575E-2,4.4290066E-2,3.5660755E-2,7.7940375E-2],"split_indices":[7,0,0,14,0,4,0,8,0,13,5,0,0,0,0],"split_type":[0,0,0,0,0,0,0,0,0,0,0,0,0,0,0],"sum_hessian":[3.3757133E1,1.6616768E1,1.7140366E1,1.4423175E1,2.1935923E0,1.2999454E1,1.423722E0,1.1367064E1,1.6323884E0,5.06237E0,6.304695E0,1.9111493E0,3.1512206E0,3.6980047E0,2.6066904E0],"tree_param":{"num_deleted":"0","num_feature":"15","num_nodes":"15","size_leaf_vector":"1"}},{"base_weights":[-5.9969354E-1,-1.5395136E-1,-1.0186391E-1,2.317759E-1,-5.185465E-1,5.6244344E-1,-1.1660821E-1,-1.17347956E-1,3.8148305E-1,6.92722E-2,9.251438E-3,-4.2463522E-2,1.9123504E-1,6.1955035E-2,-1.366016E-2,2.2471198E-3,2.8060256E-2],"categories":[],"categories_nodes":[],"categories_segments":[],"categories_sizes":[],"default_left":[0,0,0,0,0,0,0,0,0,0,0,0,0,0,0,0,0],"id":46,"left_children":[1,3,-1,5,7,9,11,-1,13,-1,-1,-1,15,-1,-1,-1,-1],"loss_changes":[5.9552164E0,2.5160103E0,0E0,1.0988221E0,5.7921243E0,2.2814167E-1,5.738952E-1,0E0,6.4871883E-1,0E0,0E0,0E0,4.3286882E-2,0E0,0E0,0E0,0E0],"parents":[2147483647,0,0,1,1,3,3,4,4,5,5,6,6,8,8,12,12],"right_children":[2,4,-1,6,8,10,12,-1,14,-1,-1,-1,16,-1,-1,-1,-1],"split_conditions":[4.5E1,1E0,-1.0186391E-1,1E0,2E0,3.8E1,2E0,-1.17347956E-1,3.5E1,6.92722E-2,9.251438E-3,-4.2463522E-2,1.5E4,6.1955035E-2,-1.366016E-2,2.2471198E-3,2.8060256E-2],"split_indices":[7,2,0,9,2,4,14,0,4,0,0,0,8,0,0,0,0],"split_type":[0,0,0,0,0,0,0,0,0,0,0,0,0,0,0,0,0],"sum_hessian":[3.1729897E1,1.6035843E1,1.5694053E1,7.9691205E0,8.066723E0,3.7732852E0,4.1958356E0,4.493252E0,3.5734708E0,2.5830789E0,1.1902063E0,1.9076544E0,2.288181E0,2.3142104E0,1.2592604E0,1.2254528E0,1.0627283E0],"tree_param":{"num_deleted":"0","num_feature":"15","num_nodes":"17","size_leaf_vector":"1"}},{"base_weights":[-5.7873034E-1,-1.4404014E-1,-1.0067779E-1,2.7887335E-2,-9.32258E-2,1.7296189E-1,-8.1121355E-2,3.2864127E-1,-6.203256E-2,6.720146E-1,1.1529431E-3,1.7191345E-2,7.439226E-2,-1.0678282E-1,5.711171E-2],"categories":[],"categories_nodes":[],"categories_segments":[],"categories_sizes":[],"default_left":[0,0,0,0,0,0,0,0,0,0,0,0,0,0,0],"id":47,"left_children":[1,3,-1,5,-1,7,-1,9,-1,11,13,-1,-1,-1,-1],"loss_changes":[5.59291E0,2.2575622E0,0E0,1.904137E0,0E0,1.8313065E0,0E0,1.3114884E0,0E0,7.69074E-2,4.859415E0,0E0,0E0,0E0,0E0],"parents":[2147483647,0,0,1,1,3,3,5,5,7,7,9,9,10,10],"right_children":[2,4,-1,6,-1,8,-1,10,-1,12,14,-1,-1,-1,-1],"split_conditions":[4.5E1,2E0,-1.0067779E-1,3E0,-9.32258E-2,2E0,-8.1121355E-2,5E0,-6.203256E-2,1.269E5,2E1,1.7191345E-2,7.439226E-2,-1.0678282E-1,5.711171E-2],"split_indices":[7,0,0,14,0,9,0,5,0,10,5,0,0,0,0],"split_type":[0,0,0,0,0,0,0,0,0,0,0,0,0,0,0],"sum_hessian":[2.9837776E1,1.5467128E1,1.4370649E1,1.3489412E1,1.9777149E0,1.2177826E1,1.3115869E0,1.066967E1,1.5081556E0,4.6949563E0,5.974714E0,1.0164634E0,3.6784928E0,1.7740122E0,4.2007017E0],"tree_param":{"num_deleted":"0","num_feature":"15","num_nodes":"15","size_leaf_vector":"1"}},{"base_weights":[-5.679671E-1,-1.4798014E-1,-9.950187E-2,2.1417563E-1,-4.9614623E-1,5.305106E-1,-1.1088957E-1,-1.1222792E-1,3.5401955E-1,6.592667E-2,8.301057E-3,-3.995381E-2,1.8061577E-1,5.8586515E-2,-1.2960578E-2,2.6052961E-2,2.2596107E-3],"categories":[],"categories_nodes":[],"categories_segments":[],"categories_sizes":[],"default_left":[0,0,0,0,0,0,0,0,0,0,0,0,0,0,0,0,0],"id":48,"left_children":[1,3,-1,5,7,9,11,-1,13,-1,-1,-1,15,-1,-1,-1,-1],"loss_changes":[5.0381384E0,2.0922883E0,0E0,9.245273E-1,4.832589E0,2.0107484E-1,4.9112648E-1,0E0,5.5740315E-1,0E0,0E0,0E0,3.409344E-2,0E0,0E0,0E0,0E0],"parents":[2147483647,0,0,1,1,3,3,4,4,5,5,6,6,8,8,12,12],"right_children":[2,4,-1,6,8,10,12,-1,14,-1,-1,-1,16,-1,-1,-1,-1],"split_conditions":[4.5E1,1E0,-9.950187E-2,1E0,2E0,3.8E1,2E0,-1.1222792E-1,3.5E1,6.592667E-2,8.301057E-3,-3.995381E-2,1.471E5,5.8586515E-2,-1.2960578E-2,2.6052961E-2,2.2596107E-3],"split_indices":[7,2,0,9,2,4,14,0,4,0,0,0,10,0,0,0,0],"split_type":[0,0,0,0,0,0,0,0,0,0,0,0,0,0,0,0,0],"sum_hessian":[2.7911093E1,1.4750814E1,1.3160279E1,7.418783E0,7.3320312E0,3.439573E0,3.9792101E0,4.0380235E0,3.2940078E0,2.3035634E0,1.1360098E0,1.8131883E0,2.1660218E0,2.0836985E0,1.2103091E0,1.0076936E0,1.1583282E0],"tree_param":{"num_deleted":"0","num_feature":"15","num_nodes":"17","size_leaf_vector":"1"}},{"base_weights":[-5.4710424E-1,-1.3819599E-1,-9.833159E-2,2.5758447E-2,-8.794703E-2,4.2322752E-1,-2.6509893E-1,6.3312694E-2,-2.2022156E-3,-1.0914085E-1,4.3789703E-1,-1.2267773E-3,6.962099E-2],"categories":[],"categories_nodes":[],"categories_segments":[],"categories_sizes":[],"default_left":[0,0,0,0,0,0,0,0,0,0,0,0,0],"id":49,"left_children":[1,3,-1,5,-1,7,9,-1,-1,-1,11,-1,-1],"loss_changes":[4.736701E0,1.8776958E0,0E0,1.6694739E0,0E0,5.819012E-1,5.353517E0,0E0,0E0,0E0,6.188766E-1,0E0,0E0],"parents":[2147483647,0,0,1,1,3,3,5,5,6,6,10,10],"right_children":[2,4,-1,6,-1,8,10,-1,-1,-1,12,-1,-1],"split_conditions":[4.5E1,2E0,-9.833159E-2,5E0,-8.794703E-2,1E0,2E1,6.3312694E-2,-2.2022156E-3,-1.0914085E-1,1.4E4,-1.2267773E-3,6.962099E-2],"split_indices":[7,0,0,5,0,2,5,0,0,0,8,0,0],"split_type":[0,0,0,0,0,0,0,0,0,0,0,0,0],"sum_hessian":[2.6317238E1,1.4263412E1,1.2053825E1,1.2470458E1,1.7929547E0,5.0771756E0,7.393282E0,3.163759E0,1.9134167E0,3.1445875E0,4.248695E0,1.8963722E0,2.3523226E0],"tree_param":{"num_deleted":"0","num_feature":"15","num_nodes":"13","size_leaf_vector":"1"}},{"base_weights":[-5.3098595E-1,-1.3407834E-1,-9.716233E-2,2.5430864E-2,-8.527709E-2,1.6551457E-1,-7.503692E-2,3.1244293E-1,-5.7638604E-2,6.2874603E-1,3.0976324E-3,1.488618E-2,7.248218E-2,-9.655945E-2,4.898679E-2],"categories":[],"categories_nodes":[],"categories_segments":[],"categories_sizes":[],"default_left":[0,0,0,0,0,0,0,0,0,0,0,0,0,0,0],"id":50,"left_children":[1,3,-1,5,-1,7,-1,9,-1,11,13,-1,-1,-1,-1],"loss_changes":[4.3732653E0,1.7077262E0,0E0,1.5377792E0,0E0,1.4703985E0,0E0,1.0282615E0,0E0,1.3189054E-1,3.456807E0,0E0,0E0,0E0,0E0],"parents":[2147483647,0,0,1,1,3,3,5,5,7,7,9,9,10,10],"right_children":[2,4,-1,6,-1,8,-1,10,-1,12,14,-1,-1,-1,-1],"split_conditions":[4.5E1,2E0,-9.716233E-2,3E0,-8.527709E-2,2E0,-7.503692E-2,5E0,-5.7638604E-2,4E0,2E1,1.488618E-2,7.248218E-2,-9.655945E-2,4.898679E-2],"split_indices":[7,0,0,14,0,3,0,5,0,13,5,0,0,0,0],"split_type":[0,0,0,0,0,0,0,0,0,0,0,0,0,0,0],"sum_hessian":[2.4750355E1,1.37074995E1,1.1042855E1,1.20071945E1,1.7003049E0,1.0837038E1,1.1701561E0,9.528789E0,1.3082498E0,4.2008977E0,5.327891E0,1.1260192E0,3.0748787E0,1.4528953E0,3.8749955E0],"tree_param":{"num_deleted":"0","num_feature":"15","num_nodes":"15","size_leaf_vector":"1"}},{"base_weights":[-5.2053297E-1,-1.3818072E-1,-9.59895E-2,1.9021618E-1,-4.5666245E-1,4.947697E-1,-1.154267E-1,-1.0538607E-1,3.3636588E-1,6.1671942E-2,7.911215E-3,-3.76004E-2,1.5829874E-2,5.5420786E-2,-1.1093616E-2],"categories":[],"categories_nodes":[],"categories_segments":[],"categories_sizes":[],"default_left":[0,0,0,0,0,0,0,0,0,0,0,0,0,0,0],"id":51,"left_children":[1,3,-1,5,7,9,11,-1,13,-1,-1,-1,-1,-1,-1],"loss_changes":[3.9425693E0,1.5656316E0,0E0,7.707939E-1,3.8931243E0,1.5546423E-1,3.902994E-1,0E0,4.4810227E-1,0E0,0E0,0E0,0E0,0E0,0E0],"parents":[2147483647,0,0,1,1,3,3,4,4,5,5,6,6,8,8],"right_children":[2,4,-1,6,8,10,12,-1,14,-1,-1,-1,-1,-1,-1],"split_conditions":[4.5E1,1E0,-9.59895E-2,1E0,2E0,3.8E1,2E0,-1.0538607E-1,3.5E1,6.1671942E-2,7.911215E-3,-3.76004E-2,1.5829874E-2,5.5420786E-2,-1.1093616E-2],"split_indices":[7,2,0,9,2,4,14,0,4,0,0,0,0,0,0],"split_type":[0,0,0,0,0,0,0,0,0,0,0,0,0,0,0],"sum_hessian":[2.3258482E1,1.3138918E1,1.0119564E1,6.667048E0,6.4718704E0,3.029531E0,3.637517E0,3.5041368E0,2.9677336E0,1.9683245E0,1.0612065E0,1.6720899E0,1.9654269E0,1.8350422E0,1.1326915E0],"tree_param":{"num_deleted":"0","num_feature":"15","num_nodes":"15","size_leaf_vector":"1"}},{"base_weights":[-5.005866E-1,-1.2940216E-1,-9.480869E-2,2.2301706E-2,-8.040484E-2,1.5903926E-1,-7.142676E-2,3.0185208E-1,-5.606031E-2,-4.8691377E-2,5.70176E-1,-5.8184296E-2,3.6968853E-2,7.168587E-2,5.277047E-3],"categories":[],"categories_nodes":[],"categories_segments":[],"categories_sizes":[],"default_left":[0,0,0,0,0,0,0,0,0,0,0,0,0,0,0],"id":52,"left_children":[1,3,-1,5,-1,7,-1,9,-1,11,13,-1,-1,-1,-1],"loss_changes":[3.70022E0,1.423992E0,0E0,1.3412468E0,0E0,1.309861E0,0E0,9.599592E-1,0E0,1.3791051E0,3.9419246E-1,0E0,0E0,0E0,0E0],"parents":[2147483647,0,0,1,1,3,3,5,5,7,7,9,9,10,10],"right_children":[2,4,-1,6,-1,8,-1,10,-1,12,14,-1,-1,-1,-1],"split_conditions":[4.5E1,2E0,-9.480869E-2,3E0,-8.040484E-2,2E0,-7.142676E-2,1.45E4,-5.606031E-2,7E0,3.8E1,-5.8184296E-2,3.6968853E-2,7.168587E-2,5.277047E-3],"split_indices":[7,0,0,14,0,9,0,8,0,13,4,0,0,0,0],"split_type":[0,0,0,0,0,0,0,0,0,0,0,0,0,0,0],"sum_hessian":[2.2014967E1,1.2738244E1,9.276723E0,1.1189147E1,1.5490968E0,1.0098526E1,1.0906208E0,8.910744E0,1.1877822E0,4.2183485E0,4.692395E0,1.6829807E0,2.5353677E0,3.3556058E0,1.3367896E0],"tree_param":{"num_deleted":"0","num_feature":"15","num_nodes":"15","size_leaf_vector":"1"}},{"base_weights":[-4.8810348E-1,-1.3148515E-1,-9.361573E-2,1.7525855E-1,-4.3677124E-1,4.6481493E-1,-1.1050579E-1,-1.0078674E-1,3.133958E-1,5.856039E-2,7.3742927E-3,-3.5194796E-2,1.4624528E-2,5.5965006E-2,-6.4563057E-3],"categories":[],"categories_nodes":[],"categories_segments":[],"categories_sizes":[],"default_left":[0,0,0,0,0,0,0,0,0,0,0,0,0,0,0],"id":53,"left_children":[1,3,-1,5,7,9,11,-1,13,-1,-1,-1,-1,-1,-1],"loss_changes":[3.3636756E0,1.3233385E0,0E0,6.5993875E-1,3.2973237E0,1.3845468E-1,3.310216E-1,0E0,3.8709927E-1,0E0,0E0,0E0,0E0,0E0,0E0],"parents":[2147483647,0,0,1,1,3,3,4,4,5,5,6,6,8,8],"right_children":[2,4,-1,6,8,10,12,-1,14,-1,-1,-1,-1,-1,-1],"split_conditions":[4.5E1,1E0,-9.361573E-2,1E0,2E0,3.8E1,2E0,-1.0078674E-1,1E0,5.856039E-2,7.3742927E-3,-3.5194796E-2,1.4624528E-2,5.5965006E-2,-6.4563057E-3],"split_indices":[7,2,0,9,2,4,14,0,9,0,0,0,0,0,0],"split_type":[0,0,0,0,0,0,0,0,0,0,0,0,0,0,0],"sum_hessian":[2.0821716E1,1.231407E1,8.507647E0,6.3548245E0,5.9592457E0,2.8452506E0,3.5095737E0,3.1884108E0,2.7708347E0,1.7937801E0,1.0514705E0,1.617625E0,1.8919488E0,1.3866585E0,1.3841763E0],"tree_param":{"num_deleted":"0","num_feature":"15","num_nodes":"15","size_leaf_vector":"1"}},{"base_weights":[-4.682381E-1,-1.2242501E-1,-9.24068E-2,2.1222029E-2,-7.585687E-2,3.9147428E-1,-2.5453714E-1,5.7044696E-2,-9.592801E-4,-9.967691E-2,3.817558E-1,-3.3577282E-3,6.402228E-2],"categories":[],"categories_nodes":[],"categories_segments":[],"categories_sizes":[],"default_left":[0,0,0,0,0,0,0,0,0,0,0,0,0],"id":54,"left_children":[1,3,-1,5,-1,7,9,-1,-1,-1,11,-1,-1],"loss_changes":[3.1605535E0,1.2005446E0,0E0,1.27858E0,0E0,3.8755292E-1,3.7921944E0,0E0,0E0,0E0,5.166575E-1,0E0,0E0],"parents":[2147483647,0,0,1,1,3,3,5,5,6,6,10,10],"right_children":[2,4,-1,6,-1,8,10,-1,-1,-1,12,-1,-1],"split_conditions":[4.5E1,2E0,-9.24068E-2,5E0,-7.585687E-2,1E0,2E1,5.7044696E-2,-9.592801E-4,-9.967691E-2,1.4E4,-3.3577282E-3,6.402228E-2],"split_indices":[7,0,0,5,0,2,5,0,0,0,8,0,0],"split_type":[0,0,0,0,0,0,0,0,0,0,0,0,0],"sum_hessian":[1.9767889E1,1.1961746E1,7.806143E0,1.0546818E1,1.4149281E0,4.322937E0,6.223881E0,2.6970696E0,1.6258672E0,2.6112952E0,3.6125858E0,1.7195367E0,1.8930492E0],"tree_param":{"num_deleted":"0","num_feature":"15","num_nodes":"13","size_leaf_vector":"1"}},{"base_weights":[-4.5342332E-1,-1.1886797E-1,-9.117847E-2,2.1545129E-1,-3.664627E-1,5.9369475E-2,-1.07227206E-1,-5.133038E-1,1.4378749E-2,2.4247518E-2,-4.86714E-2,-7.595606E-2,-1.9050099E-1,3.2171853E-2,-4.8945315E-2],"categories":[],"categories_nodes":[],"categories_segments":[],"categories_sizes":[],"default_left":[0,0,0,0,0,0,0,0,0,0,0,0,0,0,0],"id":55,"left_children":[1,3,-1,5,7,-1,9,11,-1,-1,-1,-1,13,-1,-1],"loss_changes":[2.9141502E0,1.117284E0,0E0,7.9193515E-1,6.415129E-1,0E0,6.5773964E-1,3.4040678E-1,0E0,0E0,0E0,0E0,7.6624465E-1,0E0,0E0],"parents":[2147483647,0,0,1,1,3,3,4,4,6,6,7,7,12,12],"right_children":[2,4,-1,6,8,-1,10,12,-1,-1,-1,-1,14,-1,-1],"split_conditions":[4.5E1,1E0,-9.117847E-2,5E0,5E4,5.9369475E-2,1.683E5,1.45E4,1.4378749E-2,2.4247518E-2,-4.86714E-2,-7.595606E-2,1.61E5,3.2171853E-2,-4.8945315E-2],"split_indices":[7,9,0,5,1,0,10,8,0,0,0,0,10,0,0],"split_type":[0,0,0,0,0,0,0,0,0,0,0,0,0,0,0],"sum_hessian":[1.8710379E1,1.1543891E1,7.166488E0,4.9669714E0,6.57692E0,1.8999527E0,3.0670185E0,5.102519E0,1.4744009E0,1.7840426E0,1.2829758E0,2.1269298E0,2.9755893E0,1.0685683E0,1.9070208E0],"tree_param":{"num_deleted":"0","num_feature":"15","num_nodes":"15","size_leaf_vector":"1"}},{"base_weights":[-4.343172E-1,-1.1258683E-1,-8.9927815E-2,2.645823E-2,-7.2220385E-2,1.7312232E-1,-5.8469135E-2,-1.6237733E-1,4.6010706E-1,4.0024273E-2,-4.321501E-1,2.7356786E-3,6.256177E-2,-8.8703E-2,7.1202577E-3],"categories":[],"categories_nodes":[],"categories_segments":[],"categories_sizes":[],"default_left":[0,0,0,0,0,0,0,0,0,0,0,0,0,0,0],"id":56,"left_children":[1,3,-1,5,-1,7,-1,9,11,-1,13,-1,-1,-1,-1],"loss_changes":[2.724961E0,1.0625032E0,0E0,1.0861074E0,0E0,1.0021963E0,0E0,9.592144E-1,3.734318E-1,0E0,9.749364E-1,0E0,0E0,0E0,0E0],"parents":[2147483647,0,0,1,1,3,3,5,5,7,7,8,8,10,10],"right_children":[2,4,-1,6,-1,8,-1,10,12,-1,14,-1,-1,-1,-1],"split_conditions":[4.5E1,2E0,-8.9927815E-2,2E0,-7.2220385E-2,9E0,-5.8469135E-2,1E0,2E4,4.0024273E-2,2E0,2.7356786E-3,6.256177E-2,-8.8703E-2,7.1202577E-3],"split_indices":[7,0,0,3,0,13,0,11,1,0,11,0,0,0,0],"split_type":[0,0,0,0,0,0,0,0,0,0,0,0,0,0,0],"sum_hessian":[1.7892773E1,1.1309377E1,6.583397E0,9.98788E0,1.3214964E0,8.632882E0,1.354998E0,4.180206E0,4.4526763E0,1.198035E0,2.9821708E0,1.5542258E0,2.8984501E0,1.166112E0,1.816059E0],"tree_param":{"num_deleted":"0","num_feature":"15","num_nodes":"15","size_leaf_vector":"1"}},{"base_weights":[-4.2182216E-1,-1.131086E-1,-8.865242E-2,1.6552858E-1,-3.944388E-1,4.2738467E-1,-9.023583E-2,-9.408063E-2,3.0568612E-1,1.3063935E-2,5.3280182E-2,-2.5891128E-1,2.0927463E-2,5.0377663E-2,-9.27174E-3,-6.531525E-4,-3.7762042E-2],"categories":[],"categories_nodes":[],"categories_segments":[],"categories_sizes":[],"default_left":[0,0,0,0,0,0,0,0,0,0,0,0,0,0,0,0,0],"id":57,"left_children":[1,3,-1,5,7,9,11,-1,13,-1,-1,15,-1,-1,-1,-1,-1],"loss_changes":[2.4868283E0,1.0045208E0,0E0,4.8889711E-1,2.6812885E0,3.9781332E-2,2.6774463E-1,0E0,3.2274127E-1,0E0,0E0,9.194501E-2,0E0,0E0,0E0,0E0,0E0],"parents":[2147483647,0,0,1,1,3,3,4,4,5,5,6,6,8,8,11,11],"right_children":[2,4,-1,6,8,10,12,-1,14,-1,-1,16,-1,-1,-1,-1,-1],"split_conditions":[4.5E1,1E0,-8.865242E-2,1E0,2E0,9E0,1.5E4,-9.408063E-2,3.5E1,1.3063935E-2,5.3280182E-2,2.2E1,2.0927463E-2,5.0377663E-2,-9.27174E-3,-6.531525E-4,-3.7762042E-2],"split_indices":[7,2,0,9,2,13,8,0,4,0,0,7,0,0,0,0,0],"split_type":[0,0,0,0,0,0,0,0,0,0,0,0,0,0,0,0,0],"sum_hessian":[1.7033636E1,1.0981646E1,6.051991E0,5.7240305E0,5.2576156E0,2.496777E0,3.2272532E0,2.75999E0,2.4976256E0,1.2414376E0,1.2553396E0,2.151272E0,1.0759813E0,1.4915315E0,1.006094E0,1.0256743E0,1.1255977E0],"tree_param":{"num_deleted":"0","num_feature":"15","num_nodes":"17","size_leaf_vector":"1"}},{"base_weights":[-4.0384278E-1,-1.0519159E-1,-8.735048E-2,1.6035868E-1,-3.7826928E-1,-1.2639888E-1,6.0507286E-2,-6.114736E-1,2.5698239E-2,-5.402601E-1,4.867054E-2,-2.5831237E-3,-9.200705E-2,-6.544214E-2,-1.6664054E-2],"categories":[],"categories_nodes":[],"categories_segments":[],"categories_sizes":[],"default_left":[0,0,0,0,0,0,0,0,0,0,0,0,0,0,0],"id":58,"left_children":[1,3,-1,5,7,9,-1,11,-1,13,-1,-1,-1,-1,-1],"loss_changes":[2.3274841E0,9.076998E-1,0E0,9.2124397E-1,1.0543659E0,1.494749E0,0E0,8.303615E-1,0E0,3.4778297E-2,0E0,0E0,0E0,0E0,0E0],"parents":[2147483647,0,0,1,1,3,3,4,4,5,5,7,7,9,9],"right_children":[2,4,-1,6,8,10,-1,12,-1,14,-1,-1,-1,-1,-1],"split_conditions":[4.5E1,1.488E5,-8.735048E-2,1.4E4,2E1,5E4,6.0507286E-2,5E0,2.5698239E-2,1.25E4,4.867054E-2,-2.5831237E-3,-9.200705E-2,-6.544214E-2,-1.6664054E-2],"split_indices":[7,10,0,8,5,1,0,5,0,8,0,0,0,0,0],"split_type":[0,0,0,0,0,0,0,0,0,0,0,0,0,0,0],"sum_hessian":[1.6248543E1,1.0680771E1,5.5677724E0,5.624289E0,5.056482E0,3.85458E0,1.7697089E0,3.726057E0,1.3304249E0,2.372138E0,1.4824421E0,1.6598215E0,2.0662355E0,1.2412853E0,1.1308526E0],"tree_param":{"num_deleted":"0","num_feature":"15","num_nodes":"15","size_leaf_vector":"1"}},{"base_weights":[-3.8936895E-1,-1.0125048E-1,-8.6020775E-2,3.1991232E-2,-6.765327E-2,3.6279827E-1,-2.195725E-1,5.2351125E-2,-1.0269657E-3,-9.013082E-2,3.5332537E-1,-3.857099E-3,5.9872475E-2],"categories":[],"categories_nodes":[],"categories_segments":[],"categories_sizes":[],"default_left":[0,0,0,0,0,0,0,0,0,0,0,0,0],"id":59,"left_children":[1,3,-1,5,-1,7,9,-1,-1,-1,11,-1,-1],"loss_changes":[2.1498969E0,8.926674E-1,0E0,9.269402E-1,0E0,2.916705E-1,2.8205366E0,0E0,0E0,0E0,4.2695528E-1,0E0,0E0],"parents":[2147483647,0,0,1,1,3,3,5,5,6,6,10,10],"right_children":[2,4,-1,6,-1,8,10,-1,-1,-1,12,-1,-1],"split_conditions":[4.5E1,2E0,-8.6020775E-2,5E0,-6.765327E-2,1E0,2E1,5.2351125E-2,-1.0269657E-3,-9.013082E-2,1.4E4,-3.857099E-3,5.9872475E-2],"split_indices":[7,0,0,5,0,2,5,0,0,0,8,0,0],"split_type":[0,0,0,0,0,0,0,0,0,0,0,0,0],"sum_hessian":[1.5490026E1,1.0363421E1,5.126604E0,9.181317E0,1.1821041E0,3.775004E0,5.406314E0,2.3565655E0,1.4184384E0,2.2069037E0,3.1994102E0,1.5565169E0,1.6428932E0],"tree_param":{"num_deleted":"0","num_feature":"15","num_nodes":"13","size_leaf_vector":"1"}},{"base_weights":[-3.7673694E-1,-9.870963E-2,-8.466271E-2,3.1239029E-2,-6.564711E-2,1.6833277E-1,-5.423333E-2,-1.381589E-1,4.3595913E-1,3.8068127E-2,-3.8487545E-1,2.1619084E-3,5.9225995E-2,-7.8778915E-2,6.6914647E-3],"categories":[],"categories_nodes":[],"categories_segments":[],"categories_sizes":[],"default_left":[0,0,0,0,0,0,0,0,0,0,0,0,0,0,0],"id":60,"left_children":[1,3,-1,5,-1,7,-1,9,11,-1,13,-1,-1,-1,-1],"loss_changes":[1.9746883E0,8.1998295E-1,0E0,8.698047E-1,0E0,7.7826285E-1,0E0,7.6605976E-1,3.054242E-1,0E0,7.403305E-1,0E0,0E0,0E0,0E0],"parents":[2147483647,0,0,1,1,3,3,5,5,7,7,8,8,10,10],"right_children":[2,4,-1,6,-1,8,-1,10,12,-1,14,-1,-1,-1,-1],"split_conditions":[4.5E1,2E0,-8.466271E-2,2E0,-6.564711E-2,9E0,-5.423333E-2,1E0,2E4,3.8068127E-2,2E0,2.1619084E-3,5.9225995E-2,-7.8778915E-2,6.6914647E-3],"split_indices":[7,0,0,3,0,13,0,11,1,0,11,0,0,0,0],"split_type":[0,0,0,0,0,0,0,0,0,0,0,0,0,0,0],"sum_hessian":[1.4754916E1,1.0030237E1,4.7246785E0,8.900556E0,1.1296817E0,7.753785E0,1.1467706E0,3.8399503E0,3.913835E0,1.0625137E0,2.7774365E0,1.3838049E0,2.53003E0,1.0750148E0,1.7024217E0],"tree_param":{"num_deleted":"0","num_feature":"15","num_nodes":"15","size_leaf_vector":"1"}},{"base_weights":[-3.662419E-1,-9.977605E-2,-8.3276354E-2,1.5265702E-1,-3.5877088E-1,4.0454668E-1,-9.14277E-2,-8.7818585E-2,2.9710844E-1,1.3012703E-2,4.9111154E-2,-2.858766E-2,1.2118063E-2,4.9363993E-2,-3.2584344E-3],"categories":[],"categories_nodes":[],"categories_segments":[],"categories_sizes":[],"default_left":[0,0,0,0,0,0,0,0,0,0,0,0,0,0,0],"id":61,"left_children":[1,3,-1,5,7,9,11,-1,13,-1,-1,-1,-1,-1,-1],"loss_changes":[1.7958212E0,7.579819E-1,0E0,4.1501102E-1,2.1712344E0,1.235193E-2,1.9745713E-1,0E0,2.2507468E-1,0E0,0E0,0E0,0E0,0E0,0E0],"parents":[2147483647,0,0,1,1,3,3,4,4,5,5,6,6,8,8],"right_children":[2,4,-1,6,8,10,12,-1,14,-1,-1,-1,-1,-1,-1],"split_conditions":[4.5E1,1E0,-8.3276354E-2,1E0,2E0,9E0,2E0,-8.7818585E-2,1E0,1.3012703E-2,4.9111154E-2,-2.858766E-2,1.2118063E-2,4.9363993E-2,-3.2584344E-3],"split_indices":[7,2,0,9,2,13,14,0,9,0,0,0,0,0,0],"split_type":[0,0,0,0,0,0,0,0,0,0,0,0,0,0,0],"sum_hessian":[1.4114468E1,9.755967E0,4.3585E0,5.148493E0,4.6074743E0,2.2102077E0,2.938285E0,2.3820763E0,2.2253983E0,1.1302929E0,1.0799149E0,1.3546883E0,1.583597E0,1.0827144E0,1.1426839E0],"tree_param":{"num_deleted":"0","num_feature":"15","num_nodes":"15","size_leaf_vector":"1"}}]},"name":"gbtree"},"learner_model_param":{"base_score":"5E-2","boost_from_average":"1","num_class":"0","num_feature":"15","num_target":"1"},"objective":{"name":"binary:logistic","reg_loss_param":{"scale_pos_weight":"1"}}},"version":[3,0,5]}