{"learner":{"attributes":{"best_iteration":"149","best_score":"35395.760931049386"},"feature_names":["insured_education_level","policy_deductable","incident_severity","police_report_available","claimant_age","incident_hour_of_the_day","claimant_gender","claim_duration_days","policy_annual_premium","witnesses","claim_amount","incident_type","bodily_injuries","county","insured_occupation"],"feature_types":["int","int","int","int","int","int","int","int","int","int","int","int","int","int","int"],"gradient_booster":{"model":{"gbtree_model_param":{"num_parallel_tree":"1","num_trees":"150"},"iteration_indptr":[0,1,2,3,4,5,6,7,8,9,10,11,12,13,14,15,16,17,18,19,20,21,22,23,24,25,26,27,28,29,30,31,32,33,34,35,36,37,38,39,40,41,42,43,44,45,46,47,48,49,50,51,52,53,54,55,56,57,58,59,60,61,62,63,64,65,66,67,68,69,70,71,72,73,74,75,76,77,78,79,80,81,82,83,84,85,86,87,88,89,90,91,92,93,94,95,96,97,98,99,100,101,102,103,104,105,106,107,108,109,110,111,112,113,114,115,116,117,118,119,120,121,122,123,124,125,126,127,128,129,130,131,132,133,134,135,136,137,138,139,140,141,142,143,144,145,146,147,148,149,150],"tree_info":[0,0,0,0,0,0,0,0,0,0,0,0,0,0,0,0,0,0,0,0,0,0,0,0,0,0,0,0,0,0,0,0,0,0,0,0,0,0,0,0,0,0,0,0,0,0,0,0,0,0,0,0,0,0,0,0,0,0,0,0,0,0,0,0,0,0,0,0,0,0,0,0,0,0,0,0,0,0,0,0,0,0,0,0,0,0,0,0,0,0,0,0,0,0,0,0,0,0,0,0,0,0,0,0,0,0,0,0,0,0,0,0,0,0,0,0,0,0,0,0,0,0,0,0,0,0,0,0,0,0,0,0,0,0,0,0,0,0,0,0,0,0,0,0,0,0,0,0,0,0],"trees":[{"base_weights":[3.0148714E-3,-1.6662652E4,8.672331E4,-2.4223463E4,1.3470698E4,6.8386836E4,2.0354364E5,-2.7026355E4,1.6808326E3,6.0488496E3,3.8492207E4,5.9189195E4,1.06687234E5,2.8080175E5,1.6786212E5,-1.8321486E4,-3.1324494E4,-3.978587E3,8.998855E3,2.8205217E3,3.9323527E4,3.1928285E4,8.345016E3,5.314609E4,9.444426E4,9.4585E4,1.8032455E4,1.783866E4,3.0914488E5,1.3317328E5,2.2089217E4,-1.9963941E4,-4.3958677E3,-3.475905E4,-2.6314494E4,-5.0338184E3,1.52491E4,6.489457E3,2.663884E4,1.6708842E4,-4.739537E3,3.1129887E4,6.570765E3,2.6350232E4,5.8187836E4,4.2588598E4,7.061809E4,5.9413315E3,1.0659626E5,1.2328377E4,7.988426E4,3.2222172E4,1.3199455E4,6.999346E3,1.38249E4,-2.108475E3,-7.087695E2,-7.180063E2,1.3371676E3,-3.5926277E3,-2.630852E3,-2.7557905E3,-1.5558761E3,-7.7660614E2,-3.2172736E2,2.0693464E3,4.6313712E2,-3.796153E2,7.405213E2,6.427885E2,2.9471677E3,4.970625E2,2.4446365E3,-1.00444495E3,5.0863986E2,2.2110918E3,4.436741E3,4.198124E3,1.8597701E3,1.5720914E3,5.9403564E3,5.0155234E3,2.7755454E3,8.912706E3,5.797057E3,2.7570916E3,1.0771483E4,6.1550156E3,9.384063E3],"categories":[],"categories_nodes":[],"categories_segments":[],"categories_sizes":[],"default_left":[0,0,0,0,0,0,0,0,0,0,0,0,0,0,0,0,0,0,0,0,0,0,0,0,0,0,0,0,0,0,0,0,0,0,0,0,0,0,0,0,0,0,0,0,0,0,0,0,0,0,0,0,0,0,0,0,0,0,0,0,0,0,0,0,0,0,0,0,0,0,0,0,0,0,0,0,0,0,0,0,0,0,0,0,0,0,0,0,0],"id":0,"left_children":[1,3,5,7,9,11,13,15,17,19,21,23,25,27,29,31,33,35,37,39,41,43,-1,45,47,49,-1,-1,51,53,-1,55,57,59,61,63,65,67,69,71,73,75,-1,77,79,81,83,-1,85,-1,87,-1,-1,-1,-1,-1,-1,-1,-1,-1,-1,-1,-1,-1,-1,-1,-1,-1,-1,-1,-1,-1,-1,-1,-1,-1,-1,-1,-1,-1,-1,-1,-1,-1,-1,-1,-1,-1,-1],"loss_changes":[5.783053E12,7.6516026E11,1.3677174E12,1.9492255E11,1.249329E11,1.9060569E11,1.926955E11,9.00445E10,1.0928148E10,5.585572E10,4.2781032E10,9.149232E10,7.829979E10,2.032468E10,8.463529E10,1.8278597E10,2.6960855E10,3.0999214E9,4.9176893E9,5.0057527E10,7.8989066E9,1.8387632E10,0E0,6.874759E10,2.1337014E10,2.9809443E10,0E0,0E0,1.4833418E9,3.1508398E9,0E0,1.0212606E10,4.350284E9,8.5042135E9,8.438055E9,6.797947E8,3.6661504E8,9.888599E8,6.1211955E8,1.5137042E10,1.615794E10,3.4363802E9,0E0,1.3033751E10,2.5357517E8,2.6106003E10,2.877666E10,0E0,1.1847926E9,0E0,1.0856169E10,0E0,0E0,0E0,0E0,0E0,0E0,0E0,0E0,0E0,0E0,0E0,0E0,0E0,0E0,0E0,0E0,0E0,0E0,0E0,0E0,0E0,0E0,0E0,0E0,0E0,0E0,0E0,0E0,0E0,0E0,0E0,0E0,0E0,0E0,0E0,0E0,0E0,0E0],"parents":[2147483647,0,0,1,1,2,2,3,3,4,4,5,5,6,6,7,7,8,8,9,9,10,10,11,11,12,12,13,13,14,14,15,15,16,16,17,17,18,18,19,19,20,20,21,21,23,23,24,24,25,25,28,28,29,29,31,31,32,32,33,33,34,34,35,35,36,36,37,37,38,38,39,39,40,40,41,41,43,43,44,44,45,45,46,46,48,48,50,50],"right_children":[2,4,6,8,10,12,14,16,18,20,22,24,26,28,30,32,34,36,38,40,42,44,-1,46,48,50,-1,-1,52,54,-1,56,58,60,62,64,66,68,70,72,74,76,-1,78,80,82,84,-1,86,-1,88,-1,-1,-1,-1,-1,-1,-1,-1,-1,-1,-1,-1,-1,-1,-1,-1,-1,-1,-1,-1,-1,-1,-1,-1,-1,-1,-1,-1,-1,-1,-1,-1,-1,-1,-1,-1,-1,-1],"split_conditions":[8.5E3,6.19E4,1.4E4,2E0,8.45E4,1.15E4,1E0,1E0,1E0,2E0,2E0,2E0,2E0,1.496E5,1.7E4,2E0,1E0,5.79E4,5.39E4,1E0,7.7E4,1.041E5,8.345016E3,1.031E5,7.04E4,1E0,1.8032455E4,1.783866E4,2E0,1E0,2.2089217E4,5.48E4,5.41E4,5.3E4,5.48E4,2E0,3E1,8E0,2.1E1,6.92E4,7.51E4,1E0,6.570765E3,1E0,2E1,1E0,1E0,5.9413315E3,2E1,1.2328377E4,1.358E5,3.2222172E4,1.3199455E4,6.999346E3,1.38249E4,-2.108475E3,-7.087695E2,-7.180063E2,1.3371676E3,-3.5926277E3,-2.630852E3,-2.7557905E3,-1.5558761E3,-7.7660614E2,-3.2172736E2,2.0693464E3,4.6313712E2,-3.796153E2,7.405213E2,6.427885E2,2.9471677E3,4.970625E2,2.4446365E3,-1.00444495E3,5.0863986E2,2.2110918E3,4.436741E3,4.198124E3,1.8597701E3,1.5720914E3,5.9403564E3,5.0155234E3,2.7755454E3,8.912706E3,5.797057E3,2.7570916E3,1.0771483E4,6.1550156E3,9.384063E3],"split_indices":[8,10,8,2,10,8,9,2,12,2,2,2,2,10,8,12,12,10,10,2,10,10,0,10,10,2,0,0,3,3,0,10,10,10,10,9,4,7,4,10,10,12,0,2,4,2,2,0,4,0,10,0,0,0,0,0,0,0,0,0,0,0,0,0,0,0,0,0,0,0,0,0,0,0,0,0,0,0,0,0,0,0,0,0,0,0,0,0,0],"split_type":[0,0,0,0,0,0,0,0,0,0,0,0,0,0,0,0,0,0,0,0,0,0,0,0,0,0,0,0,0,0,0,0,0,0,0,0,0,0,0,0,0,0,0,0,0,0,0,0,0,0,0,0,0,0,0,0,0,0,0,0,0,0,0,0,0,0,0,0,0,0,0,0,0,0,0,0,0,0,0,0,0,0,0,0,0,0,0,0,0],"sum_hessian":[4E3,3.356E3,6.44E2,2.683E3,6.73E2,5.58E2,8.6E1,2.421E3,2.62E2,5.2E2,1.53E2,4.52E2,1.06E2,2.5E1,6.1E1,8.02E2,1.619E3,1.48E2,1.14E2,4.75E2,4.5E1,1.35E2,1.8E1,3.88E2,6.4E1,9.3E1,1.3E1,7E0,1.8E1,3.9E1,2.2E1,7.17E2,8.5E1,9.57E2,6.62E2,1.41E2,7E0,1.01E2,1.3E1,1.67E2,3.08E2,3.6E1,9E0,1.13E2,2.2E1,2.44E2,1.44E2,1.8E1,4.6E1,2.9E1,6.4E1,1.6E1,2E0,4E0,3.5E1,6.59E2,5.8E1,7.4E1,1.1E1,8.38E2,1.19E2,5.92E2,7E1,5.5E1,8.6E1,4E0,3E0,8E0,9.3E1,2E0,1.1E1,6.7E1,1E2,2E2,1.08E2,2.3E1,1.3E1,3.6E1,7.7E1,1E0,2.1E1,1.6E2,8.4E1,5.6E1,8.8E1,1E0,4.5E1,3E1,3.4E1],"tree_param":{"num_deleted":"0","num_feature":"15","num_nodes":"89","size_leaf_vector":"1"}},{"base_weights":[5.6057304E1,-1.4987383E4,7.835183E4,-2.1546414E4,1.3272249E4,6.1705344E4,1.8440967E5,-2.4090822E4,1.8703958E3,6.342498E3,3.478529E4,4.9338613E4,8.584746E4,1.5991828E5,2.8309534E5,-1.615619E4,-2.8031371E4,-1.5107605E2,1.9202693E4,3.4118513E3,3.763865E4,2.8835236E4,7.554435E3,4.239485E4,8.337363E4,7.8336664E4,1.5678917E4,2.1344245E5,1.3949367E5,3.0528982E4,1.4018945E4,-1.7689186E4,-1.9894463E3,-3.1067713E4,-2.3573385E4,-4.517873E3,5.844048E3,1.093078E4,2.5642965E4,1.6352597E4,-3.4747666E3,2.9538906E4,5.979396E3,2.3881678E4,5.341814E4,4.9686273E4,3.037529E4,5.3784684E4,9.425583E4,1.02815734E5,6.626306E4,2.1899771E4,5.9501587E3,1.2353522E5,2.1780766E4,-2.0619631E3,-1.2380808E3,-4.689003E2,1.2492006E3,-3.2337937E3,-2.2943386E3,-2.4672888E3,-1.2605571E3,-7.010989E2,-2.8709055E2,-3.4587155E2,6.672568E2,-3.9726694E2,1.3745746E3,5.99936E2,2.820357E3,8.8762354E2,2.581664E3,-8.334539E2,4.5824243E2,2.1359197E3,3.9850847E3,3.786776E3,1.6761771E3,1.4934867E3,5.453949E3,3.1958381E3,6.029281E3,2.115362E3,4.0196548E3,3.2300417E3,5.9150464E3,9.613608E3,3.6513562E3,9.210666E3,1.3727872E4,5.181522E3,8.422758E3,1.6076065E4,9.793544E3],"categories":[],"categories_nodes":[],"categories_segments":[],"categories_sizes":[],"default_left":[0,0,0,0,0,0,0,0,0,0,0,0,0,0,0,0,0,0,0,0,0,0,0,0,0,0,0,0,0,0,0,0,0,0,0,0,0,0,0,0,0,0,0,0,0,0,0,0,0,0,0,0,0,0,0,0,0,0,0,0,0,0,0,0,0,0,0,0,0,0,0,0,0,0,0,0,0,0,0,0,0,0,0,0,0,0,0,0,0,0,0,0,0,0,0],"id":1,"left_children":[1,3,5,7,9,11,13,15,17,19,21,23,25,27,29,31,33,35,37,39,41,43,-1,45,47,49,-1,51,53,-1,-1,55,57,59,61,63,65,67,69,71,73,75,-1,77,79,81,83,85,87,89,91,-1,-1,93,-1,-1,-1,-1,-1,-1,-1,-1,-1,-1,-1,-1,-1,-1,-1,-1,-1,-1,-1,-1,-1,-1,-1,-1,-1,-1,-1,-1,-1,-1,-1,-1,-1,-1,-1,-1,-1,-1,-1,-1,-1],"loss_changes":[4.713703E12,6.225254E11,1.1273621E12,1.6240594E11,9.414704E10,1.6265891E11,1.6500261E11,7.640082E10,9.39275E9,4.389621E10,3.5169518E10,8.438055E10,8.788928E10,4.8937173E10,7.9492547E9,1.7729765E10,2.148021E10,6.33566E9,1.2113582E9,3.926873E10,5.591294E9,1.5285395E10,0E0,2.5746735E10,1.4894039E10,4.4021907E10,0E0,2.3625728E9,4.183045E10,0E0,0E0,1.1224957E10,3.2251487E9,9.2991E9,7.756546E9,5.547231E8,8.092457E8,6.4194445E8,5.852877E8,1.0596606E10,1.1315153E10,1.847976E9,0E0,1.0816918E10,1.3483213E8,3.417519E10,1.0017907E10,2.7973222E8,1.2668436E9,7.654408E9,2.626247E10,0E0,0E0,2.9998055E10,0E0,0E0,0E0,0E0,0E0,0E0,0E0,0E0,0E0,0E0,0E0,0E0,0E0,0E0,0E0,0E0,0E0,0E0,0E0,0E0,0E0,0E0,0E0,0E0,0E0,0E0,0E0,0E0,0E0,0E0,0E0,0E0,0E0,0E0,0E0,0E0,0E0,0E0,0E0,0E0,0E0],"parents":[2147483647,0,0,1,1,2,2,3,3,4,4,5,5,6,6,7,7,8,8,9,9,10,10,11,11,12,12,13,13,14,14,15,15,16,16,17,17,18,18,19,19,20,20,21,21,23,23,24,24,25,25,27,27,28,28,31,31,32,32,33,33,34,34,35,35,36,36,37,37,38,38,39,39,40,40,41,41,43,43,44,44,45,45,46,46,47,47,48,48,49,49,50,50,53,53],"right_children":[2,4,6,8,10,12,14,16,18,20,22,24,26,28,30,32,34,36,38,40,42,44,-1,46,48,50,-1,52,54,-1,-1,56,58,60,62,64,66,68,70,72,74,76,-1,78,80,82,84,86,88,90,92,-1,-1,94,-1,-1,-1,-1,-1,-1,-1,-1,-1,-1,-1,-1,-1,-1,-1,-1,-1,-1,-1,-1,-1,-1,-1,-1,-1,-1,-1,-1,-1,-1,-1,-1,-1,-1,-1,-1,-1,-1,-1,-1,-1],"split_conditions":[8.5E3,6.36E4,1.4E4,2E0,8.45E4,1.133E5,1.95E4,1E0,5.61E4,2E0,2E0,2E0,2E0,1E0,3.5E1,5.55E4,1E0,1E0,1E0,1E0,7.7E4,1.045E5,7.554435E3,1E0,7.04E4,1E0,1.5678917E4,4.3E1,2E0,3.0528982E4,1.4018945E4,1E0,2E0,5.3E4,5.63E4,2E0,8E0,5.79E4,2.1E1,7.4E4,7.51E4,1E0,5.979396E3,1E0,2E1,7.06E4,1E0,2E0,5.9E1,1.372E5,1.33E5,2.1899771E4,5.9501587E3,1E0,2.1780766E4,-2.0619631E3,-1.2380808E3,-4.689003E2,1.2492006E3,-3.2337937E3,-2.2943386E3,-2.4672888E3,-1.2605571E3,-7.010989E2,-2.8709055E2,-3.4587155E2,6.672568E2,-3.9726694E2,1.3745746E3,5.99936E2,2.820357E3,8.8762354E2,2.581664E3,-8.334539E2,4.5824243E2,2.1359197E3,3.9850847E3,3.786776E3,1.6761771E3,1.4934867E3,5.453949E3,3.1958381E3,6.029281E3,2.115362E3,4.0196548E3,3.2300417E3,5.9150464E3,9.613608E3,3.6513562E3,9.210666E3,1.3727872E4,5.181522E3,8.422758E3,1.6076065E4,9.793544E3],"split_indices":[8,10,8,2,10,10,8,2,10,2,2,2,2,9,4,10,12,12,12,2,10,10,0,2,10,2,0,7,2,0,0,12,12,10,10,9,7,10,4,10,10,12,0,2,4,10,12,5,7,10,10,0,0,2,0,0,0,0,0,0,0,0,0,0,0,0,0,0,0,0,0,0,0,0,0,0,0,0,0,0,0,0,0,0,0,0,0,0,0,0,0,0,0,0,0],"split_type":[0,0,0,0,0,0,0,0,0,0,0,0,0,0,0,0,0,0,0,0,0,0,0,0,0,0,0,0,0,0,0,0,0,0,0,0,0,0,0,0,0,0,0,0,0,0,0,0,0,0,0,0,0,0,0,0,0,0,0,0,0,0,0,0,0,0,0,0,0,0,0,0,0,0,0,0,0,0,0,0,0,0,0,0,0,0,0,0,0,0,0,0,0,0,0],"sum_hessian":[4E3,3.356E3,6.44E2,2.724E3,6.32E2,5.58E2,8.6E1,2.457E3,2.67E2,4.79E2,1.53E2,3.71E2,1.87E2,7.1E1,1.5E1,8.17E2,1.64E3,2.4E2,2.7E1,4.39E2,4E1,1.35E2,1.8E1,3.1E2,6.1E1,1.71E2,1.6E1,1.7E1,5.4E1,1.2E1,3E0,7.37E2,8E1,9.72E2,6.68E2,1.39E2,1.01E2,1.3E1,1.4E1,1.52E2,2.87E2,3.1E1,9E0,1.14E2,2.1E1,1.91E2,1.19E2,1.8E1,4.3E1,5.4E1,1.17E2,1.6E1,1E0,4.7E1,7E0,4.73E2,2.64E2,6.8E1,1.2E1,8.38E2,1.34E2,6.06E2,6.2E1,5.4E1,8.5E1,8E0,9.3E1,2E0,1.1E1,2E0,1.2E1,8.6E1,6.6E1,1.79E2,1.08E2,1.9E1,1.2E1,3.7E1,7.7E1,1E0,2E1,7.3E1,1.18E2,6.3E1,5.6E1,5E0,1.3E1,4.1E1,2E0,4.4E1,1E1,6.7E1,5E1,1.7E1,3E1],"tree_param":{"num_deleted":"0","num_feature":"15","num_nodes":"95","size_leaf_vector":"1"}},{"base_weights":[1.0972544E2,-1.3480567E4,7.084229E4,-1.9914795E4,1.0029273E4,5.5695797E4,1.6734856E5,-2.2153617E4,8.9575305E2,3.2855066E3,2.8627768E4,4.800209E4,8.77477E4,1.2924951E5,2.1773197E5,-1.516962E4,-2.5594443E4,-3.719747E3,6.8103706E3,6.8664716E2,2.8835783E4,2.3301133E4,6.8728984E4,4.3085414E4,7.6688E4,7.749481E4,1.5032085E4,1.8455479E4,1.08044055E5,2.5303108E5,1.5779364E4,-1.6575326E4,-3.1911335E3,-2.8332064E4,-2.1599914E4,-4.0941074E3,1.049998E4,5.099368E3,1.854536E4,1.16527705E4,-5.252613E3,2.0283781E4,4.0222E4,1.6648041E4,3.7799566E4,7.702613E3,4.4580737E3,3.4255445E4,5.770788E4,4.8887535E4,8.629483E4,1.0157624E5,6.5188082E4,1.33532E4,9.235166E4,2.6719172E5,7.90034E3,-1.7156562E3,-7.875532E2,-5.250058E2,1.2569916E3,-2.9171494E3,-2.2103262E3,-2.335425E3,-1.6013485E3,-7.529753E2,-3.0667673E2,2.1020547E2,1.2598605E3,3.565201E2,9.809015E2,1.0995508E2,1.9802764E3,3.4713553E2,1.9236917E3,-9.4820636E2,2.4601648E2,9.403582E2,2.381278E3,1.234E3,4.441647E3,3.0279001E3,9.3630096E2,3.0088035E3,5.112265E3,4.0463757E3,2.209316E3,4.8047256E3,7.565426E3,5.140543E3,1.8323635E3,2.1385564E3,8.7241E3,7.3299688E3,1.14089E4,5.0265645E3,7.654258E3,3.6261704E3,9.763198E3,5.8251704E3,2.7556328E4],"categories":[],"categories_nodes":[],"categories_segments":[],"categories_sizes":[],"default_left":[0,0,0,0,0,0,0,0,0,0,0,0,0,0,0,0,0,0,0,0,0,0,0,0,0,0,0,0,0,0,0,0,0,0,0,0,0,0,0,0,0,0,0,0,0,0,0,0,0,0,0,0,0,0,0,0,0,0,0,0,0,0,0,0,0,0,0,0,0,0,0,0,0,0,0,0,0,0,0,0,0,0,0,0,0,0,0,0,0,0,0,0,0,0,0,0,0,0,0,0,0],"id":2,"left_children":[1,3,5,7,9,11,13,15,17,19,21,23,25,27,29,31,33,35,37,39,41,43,45,47,49,51,-1,-1,53,55,-1,57,59,61,63,65,67,69,71,73,75,77,79,81,83,-1,-1,85,87,89,91,93,95,-1,97,99,-1,-1,-1,-1,-1,-1,-1,-1,-1,-1,-1,-1,-1,-1,-1,-1,-1,-1,-1,-1,-1,-1,-1,-1,-1,-1,-1,-1,-1,-1,-1,-1,-1,-1,-1,-1,-1,-1,-1,-1,-1,-1,-1,-1,-1],"loss_changes":[3.8470211E12,5.0800532E11,9.334961E11,1.2283399E11,9.046201E10,1.3363629E11,1.3886004E11,5.68049E10,7.0411546E9,3.5239436E10,3.9410614E10,6.0586656E10,5.699738E10,4.1044214E10,3.6240884E10,1.3215613E10,1.680828E10,8.148668E8,2.1743114E9,3.1519316E10,3.9555154E9,1.5865274E10,9.7406976E8,4.824924E10,1.3141082E10,2.1236613E10,0E0,0E0,3.666772E9,3.0642143E10,0E0,3.4298102E9,2.791861E9,4.2804838E9,6.01591E9,4.781079E8,4.4013376E7,6.8756736E8,2.8533658E8,1.048156E10,1.0266262E10,9.279621E8,1.7909043E9,1.1533431E10,3.9071089E9,0E0,0E0,1.7605329E10,2.1504131E10,5.2024115E8,1.0208215E9,2.2518497E9,7.1659356E9,0E0,4.752556E9,1.7181835E10,0E0,0E0,0E0,0E0,0E0,0E0,0E0,0E0,0E0,0E0,0E0,0E0,0E0,0E0,0E0,0E0,0E0,0E0,0E0,0E0,0E0,0E0,0E0,0E0,0E0,0E0,0E0,0E0,0E0,0E0,0E0,0E0,0E0,0E0,0E0,0E0,0E0,0E0,0E0,0E0,0E0,0E0,0E0,0E0,0E0],"parents":[2147483647,0,0,1,1,2,2,3,3,4,4,5,5,6,6,7,7,8,8,9,9,10,10,11,11,12,12,13,13,14,14,15,15,16,16,17,17,18,18,19,19,20,20,21,21,22,22,23,23,24,24,25,25,28,28,29,29,31,31,32,32,33,33,34,34,35,35,36,36,37,37,38,38,39,39,40,40,41,41,42,42,43,43,44,44,47,47,48,48,49,49,50,50,51,51,52,52,54,54,55,55],"right_children":[2,4,6,8,10,12,14,16,18,20,22,24,26,28,30,32,34,36,38,40,42,44,46,48,50,52,-1,-1,54,56,-1,58,60,62,64,66,68,70,72,74,76,78,80,82,84,-1,-1,86,88,90,92,94,96,-1,98,100,-1,-1,-1,-1,-1,-1,-1,-1,-1,-1,-1,-1,-1,-1,-1,-1,-1,-1,-1,-1,-1,-1,-1,-1,-1,-1,-1,-1,-1,-1,-1,-1,-1,-1,-1,-1,-1,-1,-1,-1,-1,-1,-1,-1,-1],"split_conditions":[8.5E3,6.05E4,1.4E4,2E0,8.22E4,1.15E4,1.7E4,1E0,1E0,2E0,2E0,2E0,2E0,1E0,2E0,2E0,1E0,5.79E4,5.36E4,1E0,1E0,9.34E4,2E0,1.031E5,7.04E4,1E0,1.5032085E4,1.8455479E4,1E0,2E0,1.5779364E4,5.48E4,5.41E4,5.23E4,2E0,7E0,1E0,2E0,2E1,6.92E4,7.31E4,1E0,3.2E1,1E0,1.059E5,7.702613E3,4.4580737E3,1E0,5E4,2.1E1,2E1,1.2E4,1.358E5,1.33532E4,1E0,1.496E5,7.90034E3,-1.7156562E3,-7.875532E2,-5.250058E2,1.2569916E3,-2.9171494E3,-2.2103262E3,-2.335425E3,-1.6013485E3,-7.529753E2,-3.0667673E2,2.1020547E2,1.2598605E3,3.565201E2,9.809015E2,1.0995508E2,1.9802764E3,3.4713553E2,1.9236917E3,-9.4820636E2,2.4601648E2,9.403582E2,2.381278E3,1.234E3,4.441647E3,3.0279001E3,9.3630096E2,3.0088035E3,5.112265E3,4.0463757E3,2.209316E3,4.8047256E3,7.565426E3,5.140543E3,1.8323635E3,2.1385564E3,8.7241E3,7.3299688E3,1.14089E4,5.0265645E3,7.654258E3,3.6261704E3,9.763198E3,5.8251704E3,2.7556328E4],"split_indices":[8,10,8,2,10,8,8,2,12,2,2,2,2,9,3,12,12,10,10,2,12,10,11,10,10,2,0,0,2,0,0,10,10,10,12,5,0,12,4,10,10,14,4,2,10,0,0,2,1,5,4,8,10,0,3,10,0,0,0,0,0,0,0,0,0,0,0,0,0,0,0,0,0,0,0,0,0,0,0,0,0,0,0,0,0,0,0,0,0,0,0,0,0,0,0,0,0,0,0,0,0],"split_type":[0,0,0,0,0,0,0,0,0,0,0,0,0,0,0,0,0,0,0,0,0,0,0,0,0,0,0,0,0,0,0,0,0,0,0,0,0,0,0,0,0,0,0,0,0,0,0,0,0,0,0,0,0,0,0,0,0,0,0,0,0,0,0,0,0,0,0,0,0,0,0,0,0,0,0,0,0,0,0,0,0,0,0,0,0,0,0,0,0,0,0,0,0,0,0,0,0,0,0,0,0],"sum_hessian":[4E3,3.356E3,6.44E2,2.635E3,7.21E2,5.58E2,8.6E1,2.379E3,2.56E2,5.3E2,1.91E2,4.52E2,1.06E2,5.1E1,3.5E1,7.87E2,1.592E3,1.44E2,1.12E2,4.82E2,4.8E1,1.7E2,2.1E1,3.88E2,6.4E1,9.3E1,1.3E1,1.2E1,3.9E1,2E1,1.5E1,7.04E2,8.3E1,9.41E2,6.51E2,1.41E2,3E0,9.9E1,1.3E1,1.69E2,3.13E2,2.9E1,1.9E1,1.18E2,5.2E1,1.4E1,7E0,2.44E2,1.44E2,1.8E1,4.6E1,2.9E1,6.4E1,1.2E1,2.7E1,1.8E1,2E0,6.59E2,4.5E1,7.4E1,9E0,8.26E2,1.15E2,4.93E2,1.58E2,3.1E1,1.1E2,1E0,2E0,7.6E1,2.3E1,1E0,1.2E1,8.2E1,8.7E1,2.02E2,1.11E2,8E0,2.1E1,3E0,1.6E1,4E1,7.8E1,3.5E1,1.7E1,1.6E2,8.4E1,9.6E1,4.8E1,1.6E1,2E0,1E0,4.5E1,1.1E1,1.8E1,3E1,3.4E1,3E0,2.4E1,1E0,1.7E1],"tree_param":{"num_deleted":"0","num_feature":"15","num_nodes":"101","size_leaf_vector":"1"}},{"base_weights":[1.5198587E2,-1.3101922E4,5.935981E4,-1.826589E4,5.6780796E3,4.682001E4,1.5178911E5,-2.0226791E4,1.3585399E2,2.4253599E3,3.384995E4,3.385301E4,6.498297E4,1.3098767E5,2.3590873E5,-1.4026612E4,-2.3289828E4,-3.6921565E3,5.2147476E3,-3.766551E3,1.4013711E4,2.2097473E4,6.008989E4,2.7850498E4,6.351878E4,5.928754E4,1.2597332E5,1.1721662E5,1.900749E4,2.5439037E4,1.1686624E4,-1.6623756E4,-9.327281E3,-2.571078E4,-1.9751498E4,-5.3754575E3,-1.6723633E3,-3.5375557E3,5.9577373E3,5.886886E3,-8.882154E3,2.5735463E4,7.3112188E3,1.5513964E4,3.0369807E4,7.1786336E4,4.186742E3,3.579242E4,1.6878479E4,2.7545383E3,6.68222E4,7.591669E4,4.9770965E4,1.3006573E4,2.0016317E3,1.5413353E5,7.8944E4,-1.7102479E3,-1.2030656E3,-1.1457452E3,-3.965143E2,-2.6291018E3,-2.065092E3,-2.128581E3,-1.4788812E3,-8.631715E2,-2.9933777E2,-6.966542E2,-1.1303561E1,-8.4169025E2,3.049349E1,9.777199E2,3.4181186E2,8.638221E0,1.2551848E3,-1.2661168E3,-2.8802814E2,1.8679642E3,3.3840369E3,3.9246747E2,2.6637275E3,-1.888586E2,1.6157002E3,1.2810406E3,3.3560208E3,3.1692146E3,8.162971E3,1.7773713E3,4.0084258E3,1.0174101E3,2.4157175E3,6.771047E3,2.8263257E3,7.086612E3,1.3313011E4,4.0568735E3,6.864302E3,8.0835913E3,1.6908977E4,3.3542075E3,8.248413E3],"categories":[],"categories_nodes":[],"categories_segments":[],"categories_sizes":[],"default_left":[0,0,0,0,0,0,0,0,0,0,0,0,0,0,0,0,0,0,0,0,0,0,0,0,0,0,0,0,0,0,0,0,0,0,0,0,0,0,0,0,0,0,0,0,0,0,0,0,0,0,0,0,0,0,0,0,0,0,0,0,0,0,0,0,0,0,0,0,0,0,0,0,0,0,0,0,0,0,0,0,0,0,0,0,0,0,0,0,0,0,0,0,0,0,0,0,0,0,0,0,0],"id":3,"left_children":[1,3,5,7,9,11,13,15,17,19,21,23,25,27,29,31,33,35,37,39,41,43,45,47,49,51,53,55,-1,-1,-1,57,59,61,63,65,67,69,71,73,75,77,79,81,83,85,-1,87,89,-1,91,93,95,-1,-1,97,99,-1,-1,-1,-1,-1,-1,-1,-1,-1,-1,-1,-1,-1,-1,-1,-1,-1,-1,-1,-1,-1,-1,-1,-1,-1,-1,-1,-1,-1,-1,-1,-1,-1,-1,-1,-1,-1,-1,-1,-1,-1,-1,-1,-1],"loss_changes":[3.1405022E12,3.1722616E11,8.4131394E11,9.255813E10,6.461235E10,1.4994532E11,1.2133217E11,4.369534E10,4.840884E9,4.554484E10,2.1184217E10,6.571924E10,8.562554E10,3.6306026E10,5.4719283E9,9.230451E9,1.276969E10,4.737989E8,7.168832E8,2.0496912E10,1.7174696E10,2.3608177E9,1.6835297E9,2.701892E10,5.6459756E9,3.5309945E10,6.9361664E9,7.401944E10,0E0,0E0,0E0,8.804598E8,3.107117E9,2.1493187E9,4.512678E9,5.714253E8,5.440662E8,1.713062E8,9.2687846E8,5.565975E9,6.110126E9,3.9428096E9,9.189151E9,3.7741926E8,8.0255386E8,2.1489295E9,0E0,1.3439533E10,6.342107E9,0E0,3.855155E7,1.5994094E10,2.500159E10,0E0,0E0,1.9219153E10,2.376614E9,0E0,0E0,0E0,0E0,0E0,0E0,0E0,0E0,0E0,0E0,0E0,0E0,0E0,0E0,0E0,0E0,0E0,0E0,0E0,0E0,0E0,0E0,0E0,0E0,0E0,0E0,0E0,0E0,0E0,0E0,0E0,0E0,0E0,0E0,0E0,0E0,0E0,0E0,0E0,0E0,0E0,0E0,0E0,0E0],"parents":[2147483647,0,0,1,1,2,2,3,3,4,4,5,5,6,6,7,7,8,8,9,9,10,10,11,11,12,12,13,13,14,14,15,15,16,16,17,17,18,18,19,19,20,20,21,21,22,22,23,23,24,24,25,25,26,26,27,27,31,31,32,32,33,33,34,34,35,35,36,36,37,37,38,38,39,39,40,40,41,41,42,42,43,43,44,44,45,45,47,47,48,48,50,50,51,51,52,52,55,55,56,56],"right_children":[2,4,6,8,10,12,14,16,18,20,22,24,26,28,30,32,34,36,38,40,42,44,46,48,50,52,54,56,-1,-1,-1,58,60,62,64,66,68,70,72,74,76,78,80,82,84,86,-1,88,90,-1,92,94,96,-1,-1,98,100,-1,-1,-1,-1,-1,-1,-1,-1,-1,-1,-1,-1,-1,-1,-1,-1,-1,-1,-1,-1,-1,-1,-1,-1,-1,-1,-1,-1,-1,-1,-1,-1,-1,-1,-1,-1,-1,-1,-1,-1,-1,-1,-1,-1],"split_conditions":[8E3,5.88E4,1.4E4,2E0,2E0,1.036E5,1.95E4,1E0,1E0,7.51E4,7.7E4,2E0,2E0,2E0,3.5E1,1E0,1E0,2E0,8E0,1E0,1E0,1E0,2E0,1E0,6.16E4,1E0,2.3E1,1E0,1.900749E4,2.5439037E4,1.1686624E4,5.19E4,2E0,5.18E4,2E0,3.1E1,7E0,1E1,3E1,1E0,1E0,1E0,2E0,7E0,3.2E1,1E0,4.186742E3,6.61E4,1E0,2.7545383E3,5.9E1,1.422E5,1.33E5,1.3006573E4,2.0016317E3,2.5E1,1E0,-1.7102479E3,-1.2030656E3,-1.1457452E3,-3.965143E2,-2.6291018E3,-2.065092E3,-2.128581E3,-1.4788812E3,-8.631715E2,-2.9933777E2,-6.966542E2,-1.1303561E1,-8.4169025E2,3.049349E1,9.777199E2,3.4181186E2,8.638221E0,1.2551848E3,-1.2661168E3,-2.8802814E2,1.8679642E3,3.3840369E3,3.9246747E2,2.6637275E3,-1.888586E2,1.6157002E3,1.2810406E3,3.3560208E3,3.1692146E3,8.162971E3,1.7773713E3,4.0084258E3,1.0174101E3,2.4157175E3,6.771047E3,2.8263257E3,7.086612E3,1.3313011E4,4.0568735E3,6.864302E3,8.0835913E3,1.6908977E4,3.3542075E3,8.248413E3],"split_indices":[8,10,8,2,2,10,8,2,12,10,10,2,2,2,4,12,12,14,7,2,2,12,11,2,10,2,5,2,0,0,0,10,12,10,12,7,5,5,7,12,12,12,12,7,4,12,0,10,12,0,7,10,10,0,0,4,3,0,0,0,0,0,0,0,0,0,0,0,0,0,0,0,0,0,0,0,0,0,0,0,0,0,0,0,0,0,0,0,0,0,0,0,0,0,0,0,0,0,0,0,0],"split_type":[0,0,0,0,0,0,0,0,0,0,0,0,0,0,0,0,0,0,0,0,0,0,0,0,0,0,0,0,0,0,0,0,0,0,0,0,0,0,0,0,0,0,0,0,0,0,0,0,0,0,0,0,0,0,0,0,0,0,0,0,0,0,0,0,0,0,0,0,0,0,0,0,0,0,0,0,0,0,0,0,0,0,0,0,0,0,0,0,0,0,0,0,0,0,0,0,0,0,0,0,0],"sum_hessian":[4E3,3.269E3,7.31E2,2.564E3,7.05E2,6.45E2,8.6E1,2.317E3,2.47E2,6.33E2,7.2E1,3.78E2,2.67E2,7.1E1,1.5E1,7.68E2,1.549E3,1.41E2,1.06E2,4.13E2,2.2E2,5.1E1,2.1E1,3.16E2,6.2E1,2.46E2,2.1E1,6E1,1.1E1,1.2E1,3E0,4.93E2,2.75E2,9.16E2,6.33E2,7.6E1,6.5E1,8E0,9.8E1,1.43E2,2.7E2,7.9E1,1.41E2,3E1,2.1E1,1.1E1,1E1,1.82E2,1.34E2,6E0,5.6E1,8.7E1,1.59E2,2E1,1E0,2.9E1,3.1E1,4.44E2,4.9E1,1.96E2,7.9E1,8.18E2,9.8E1,4.81E2,1.52E2,3.1E1,4.5E1,1.4E1,5.1E1,3E0,5E0,3.8E1,6E1,7.7E1,6.6E1,1.65E2,1.05E2,4.4E1,3.5E1,1.21E2,2E1,1E0,2.9E1,4E0,1.7E1,3E0,8E0,3.6E1,1.46E2,7.1E1,6.3E1,5.4E1,2E0,8.2E1,5E0,1.09E2,5E1,6E0,2.3E1,3E0,2.8E1],"tree_param":{"num_deleted":"0","num_feature":"15","num_nodes":"101","size_leaf_vector":"1"}},{"base_weights":[1.8080339E2,-1.092363E4,5.7975223E4,-1.5750337E4,9.872107E3,4.6249016E4,1.438744E5,-1.7607191E4,1.3388315E3,5.4579927E3,2.9292838E4,3.900707E4,7.389305E4,1.2329222E5,2.1463822E5,-1.181655E4,-2.048296E4,-1.378135E2,1.4000711E4,3.0048064E3,3.0511164E4,2.495948E4,5.939115E4,3.4993812E4,6.2424773E4,6.458976E4,1.2858317E5,1.1100768E5,1.7607105E4,2.6821498E4,1.5567067E4,-1.29579E4,-1.8216326E3,-2.1380273E4,-1.2381046E4,-3.3149458E3,4.224307E3,7.6262397E3,1.9016836E4,1.2582854E4,-2.0410858E3,2.219935E4,4.620896E3,2.0511434E4,4.060623E4,3.3984197E3,7.4198345E3,2.8005516E4,4.656029E4,4.059015E4,7.122705E4,8.73857E4,5.2920395E4,1.5971858E4,9.393007E3,1.4222133E5,7.568263E4,-1.5221542E3,-8.8702765E2,-3.8778952E2,9.865197E2,-2.2210237E3,-1.591107E3,-1.4325687E3,-2.2851106E2,-5.493845E2,-1.8829175E2,8.292507E2,2.8662393E2,-3.2118802E2,9.70025E2,8.73668E1,2.0250374E3,6.4435474E2,1.9356058E3,-6.5423553E2,4.948923E2,9.280667E2,2.6118884E3,1.7115283E3,3.7481833E3,1.4649708E3,4.2469395E3,3.2957856E3,1.8295725E3,3.8232656E3,6.2095386E3,2.2360068E3,4.4889546E3,7.269954E3,2.6379038E3,5.956562E3,9.858822E3,3.5511965E3,5.917353E3,1.5400877E4,7.529716E3,3.1026416E3,7.997189E3],"categories":[],"categories_nodes":[],"categories_segments":[],"categories_sizes":[],"default_left":[0,0,0,0,0,0,0,0,0,0,0,0,0,0,0,0,0,0,0,0,0,0,0,0,0,0,0,0,0,0,0,0,0,0,0,0,0,0,0,0,0,0,0,0,0,0,0,0,0,0,0,0,0,0,0,0,0,0,0,0,0,0,0,0,0,0,0,0,0,0,0,0,0,0,0,0,0,0,0,0,0,0,0,0,0,0,0,0,0,0,0,0,0,0,0,0,0,0,0],"id":4,"left_children":[1,3,5,7,9,11,13,15,17,19,21,23,25,27,29,31,33,35,37,39,41,43,45,47,49,51,53,55,-1,-1,-1,57,59,61,63,65,67,69,71,73,75,77,-1,79,81,-1,-1,83,85,87,89,91,93,-1,-1,95,97,-1,-1,-1,-1,-1,-1,-1,-1,-1,-1,-1,-1,-1,-1,-1,-1,-1,-1,-1,-1,-1,-1,-1,-1,-1,-1,-1,-1,-1,-1,-1,-1,-1,-1,-1,-1,-1,-1,-1,-1,-1,-1],"loss_changes":[2.568372E12,3.371142E11,6.430362E11,8.649356E10,5.4104252E10,1.1102952E11,8.5685174E10,4.068986E10,5.012753E9,3.1683187E10,1.377756E10,4.038905E10,5.122425E10,2.0653277E10,8.795455E9,9.307898E9,1.1665342E10,3.3540306E9,7.502771E8,2.2837346E10,4.9761403E9,6.405251E9,2.7453071E9,3.0138892E10,9.601516E9,2.2508962E10,2.2606316E9,4.767541E10,0E0,0E0,0E0,6.6566226E9,2.0809074E9,6.346506E9,3.2263393E9,4.2649E8,5.3977075E8,3.4585312E8,3.180114E8,6.65327E9,9.786191E9,1.3779261E9,0E0,4.1421087E9,4.4178227E8,0E0,0E0,1.1178148E10,1.6384655E10,6.4221184E8,1.05396634E9,4.4121457E9,5.518639E9,0E0,0E0,9.702932E9,2.690384E9,0E0,0E0,0E0,0E0,0E0,0E0,0E0,0E0,0E0,0E0,0E0,0E0,0E0,0E0,0E0,0E0,0E0,0E0,0E0,0E0,0E0,0E0,0E0,0E0,0E0,0E0,0E0,0E0,0E0,0E0,0E0,0E0,0E0,0E0,0E0,0E0,0E0,0E0,0E0,0E0,0E0,0E0],"parents":[2147483647,0,0,1,1,2,2,3,3,4,4,5,5,6,6,7,7,8,8,9,9,10,10,11,11,12,12,13,13,14,14,15,15,16,16,17,17,18,18,19,19,20,20,21,21,22,22,23,23,24,24,25,25,26,26,27,27,31,31,32,32,33,33,34,34,35,35,36,36,37,37,38,38,39,39,40,40,41,41,43,43,44,44,47,47,48,48,49,49,50,50,51,51,52,52,55,55,56,56],"right_children":[2,4,6,8,10,12,14,16,18,20,22,24,26,28,30,32,34,36,38,40,42,44,46,48,50,52,54,56,-1,-1,-1,58,60,62,64,66,68,70,72,74,76,78,-1,80,82,-1,-1,84,86,88,90,92,94,-1,-1,96,98,-1,-1,-1,-1,-1,-1,-1,-1,-1,-1,-1,-1,-1,-1,-1,-1,-1,-1,-1,-1,-1,-1,-1,-1,-1,-1,-1,-1,-1,-1,-1,-1,-1,-1,-1,-1,-1,-1,-1,-1,-1,-1],"split_conditions":[8.5E3,6.36E4,1.45E4,2E0,8.64E4,1.15E4,1.95E4,1E0,5.61E4,2E0,2E0,2E0,2E0,2E0,4E0,5.48E4,2E0,1E0,1E0,1E0,7.7E4,1.045E5,7E0,1.031E5,7.13E4,1E0,1E0,1E0,1.7607105E4,2.6821498E4,1.5567067E4,1E0,2E0,5.3E4,5.35E4,2E0,2E0,5.79E4,2E1,7.4E4,1E0,1E0,4.620896E3,2E0,1.2E1,3.3984197E3,7.4198345E3,1E0,5E4,2E0,5.9E1,1.2E4,1E4,1.5971858E4,9.393007E3,2E0,1E0,-1.5221542E3,-8.8702765E2,-3.8778952E2,9.865197E2,-2.2210237E3,-1.591107E3,-1.4325687E3,-2.2851106E2,-5.493845E2,-1.8829175E2,8.292507E2,2.8662393E2,-3.2118802E2,9.70025E2,8.73668E1,2.0250374E3,6.4435474E2,1.9356058E3,-6.5423553E2,4.948923E2,9.280667E2,2.6118884E3,1.7115283E3,3.7481833E3,1.4649708E3,4.2469395E3,3.2957856E3,1.8295725E3,3.8232656E3,6.2095386E3,2.2360068E3,4.4889546E3,7.269954E3,2.6379038E3,5.956562E3,9.858822E3,3.5511965E3,5.917353E3,1.5400877E4,7.529716E3,3.1026416E3,7.997189E3],"split_indices":[8,10,8,2,10,8,8,2,10,2,2,2,2,2,5,10,12,12,12,2,10,10,13,10,10,2,9,2,0,0,0,12,12,10,10,9,3,10,4,10,12,14,0,12,7,0,0,2,1,5,7,8,1,0,0,0,3,0,0,0,0,0,0,0,0,0,0,0,0,0,0,0,0,0,0,0,0,0,0,0,0,0,0,0,0,0,0,0,0,0,0,0,0,0,0,0,0,0,0],"split_type":[0,0,0,0,0,0,0,0,0,0,0,0,0,0,0,0,0,0,0,0,0,0,0,0,0,0,0,0,0,0,0,0,0,0,0,0,0,0,0,0,0,0,0,0,0,0,0,0,0,0,0,0,0,0,0,0,0,0,0,0,0,0,0,0,0,0,0,0,0,0,0,0,0,0,0,0,0,0,0,0,0,0,0,0,0,0,0,0,0,0,0,0,0,0,0,0,0,0,0],"sum_hessian":[4E3,3.356E3,6.44E2,2.724E3,6.32E2,5.68E2,7.6E1,2.457E3,2.67E2,5.16E2,1.16E2,4.52E2,1.16E2,6.1E1,1.5E1,8.17E2,1.64E3,2.4E2,2.7E1,4.71E2,4.5E1,1.03E2,1.3E1,3.88E2,6.4E1,1.01E2,1.5E1,5.2E1,9E0,6E0,9E0,7.33E2,8.4E1,1.475E3,1.65E2,1.39E2,1.01E2,1.3E1,1.4E1,1.62E2,3.09E2,3.1E1,1.4E1,8.2E1,2.1E1,6E0,7E0,2.44E2,1.44E2,2E1,4.4E1,3.2E1,6.9E1,6E0,9E0,2.6E1,2.6E1,4.7E2,2.63E2,7.2E1,1.2E1,1.278E3,1.97E2,1.38E2,2.7E1,5.4E1,8.5E1,2.4E1,7.7E1,2E0,1.1E1,1E0,1.3E1,8.6E1,7.6E1,1.88E2,1.21E2,8E0,2.3E1,7E1,1.2E1,2E0,1.9E1,1.6E2,8.4E1,9.6E1,4.8E1,5E0,1.5E1,4.2E1,2E0,1.1E1,2.1E1,2E1,4.9E1,2.1E1,5E0,3E0,2.3E1],"tree_param":{"num_deleted":"0","num_feature":"15","num_nodes":"99","size_leaf_vector":"1"}},{"base_weights":[2.1393385E2,-9.822798E3,5.2451293E4,-1.3816938E4,1.0720808E4,4.166701E4,1.30310516E5,-1.5535194E4,1.9577738E3,6.3985054E3,2.6551502E4,3.573084E4,7.084677E4,1.1160383E5,1.9582369E5,-1.0329966E4,-1.809037E4,1.0126802E2,1.7239629E4,4.061173E2,1.4594651E4,2.2570951E4,5.422477E4,3.1857768E4,5.8002387E4,9.920367E4,5.020176E4,1.0012469E5,1.6243081E4,2.3861426E4,1.3602944E4,-1.1470525E4,1.2415698E3,-1.9329586E4,-1.1900362E4,-3.0099607E3,4.229242E3,1.3101469E4,2.8964803E4,-1.00136145E3,1.8602586E4,1.1877229E4,3.6011914E4,1.7839016E4,3.4777668E4,3.1071262E3,6.770599E3,2.549357E4,4.277986E4,3.685137E4,6.588338E4,3.971633E4,1.109754E5,3.7874184E4,6.677844E4,1.3965364E5,7.2764917E3,-1.2467587E3,-2.8147375E2,-3.0192346E2,6.319062E2,-2.1373533E3,-1.631882E3,-1.3153702E3,-2.2240306E2,-4.520065E2,-1.20256676E2,3.1666736E2,1.0074682E3,1.0341132E3,2.1522524E3,1.2752587E3,3.2899172E3,6.380579E2,-4.6859128E2,1.2044011E3,3.324608E3,1.9340719E3,6.599588E2,1.0724385E3,3.9843574E3,2.8502786E3,1.2164073E3,2.0873713E3,3.9295564E3,2.1321033E3,3.9585974E3,3.7355486E3,6.469306E3,3.900401E3,1.0934227E3,4.0435063E3,6.916203E3,1.6272441E3,5.052818E3,1.136628E4,1.3832958E3,2.5763208E3,4.6716943E3,6.9075737E3,2.8437898E3,1.5753069E4,8.1395127E3],"categories":[],"categories_nodes":[],"categories_segments":[],"categories_sizes":[],"default_left":[0,0,0,0,0,0,0,0,0,0,0,0,0,0,0,0,0,0,0,0,0,0,0,0,0,0,0,0,0,0,0,0,0,0,0,0,0,0,0,0,0,0,0,0,0,0,0,0,0,0,0,0,0,0,0,0,0,0,0,0,0,0,0,0,0,0,0,0,0,0,0,0,0,0,0,0,0,0,0,0,0,0,0,0,0,0,0,0,0,0,0,0,0,0,0,0,0,0,0,0,0,0,0],"id":5,"left_children":[1,3,5,7,9,11,13,15,17,19,21,23,25,27,29,31,33,35,37,39,41,43,45,47,49,51,53,55,-1,-1,-1,57,59,61,63,65,67,69,71,73,75,77,79,81,83,-1,-1,85,87,89,91,93,95,97,99,101,-1,-1,-1,-1,-1,-1,-1,-1,-1,-1,-1,-1,-1,-1,-1,-1,-1,-1,-1,-1,-1,-1,-1,-1,-1,-1,-1,-1,-1,-1,-1,-1,-1,-1,-1,-1,-1,-1,-1,-1,-1,-1,-1,-1,-1,-1,-1],"loss_changes":[2.0982091E12,2.756036E11,5.3614805E11,7.622246E10,3.725861E10,9.585531E10,7.373691E10,3.3529332E10,7.8569805E9,2.1162416E10,1.1664212E10,3.903914E10,5.0635506E10,2.049396E10,8.4795064E9,1.1060986E10,1.2802589E10,3.1978115E9,1.076138E9,6.4214134E9,1.0164634E10,5.386785E9,2.2662103E9,2.713056E10,9.073787E9,2.2902931E10,9.11881E9,4.823928E10,0E0,0E0,0E0,6.5412465E9,1.663278E9,8.3527926E9,3.439272E9,3.821326E8,6.32693E8,3.353111E8,2.6944512E7,6.3672986E9,1.3283113E9,6.292869E9,1.510568E9,4.313043E9,9.38623E8,0E0,0E0,1.4385463E10,1.5175451E10,7.451136E8,1.2917965E9,1.2055562E9,6.7816653E9,2.544722E9,6.1464576E7,9.04908E9,0E0,0E0,0E0,0E0,0E0,0E0,0E0,0E0,0E0,0E0,0E0,0E0,0E0,0E0,0E0,0E0,0E0,0E0,0E0,0E0,0E0,0E0,0E0,0E0,0E0,0E0,0E0,0E0,0E0,0E0,0E0,0E0,0E0,0E0,0E0,0E0,0E0,0E0,0E0,0E0,0E0,0E0,0E0,0E0,0E0,0E0,0E0],"parents":[2147483647,0,0,1,1,2,2,3,3,4,4,5,5,6,6,7,7,8,8,9,9,10,10,11,11,12,12,13,13,14,14,15,15,16,16,17,17,18,18,19,19,20,20,21,21,22,22,23,23,24,24,25,25,26,26,27,27,31,31,32,32,33,33,34,34,35,35,36,36,37,37,38,38,39,39,40,40,41,41,42,42,43,43,44,44,47,47,48,48,49,49,50,50,51,51,52,52,53,53,54,54,55,55],"right_children":[2,4,6,8,10,12,14,16,18,20,22,24,26,28,30,32,34,36,38,40,42,44,46,48,50,52,54,56,-1,-1,-1,58,60,62,64,66,68,70,72,74,76,78,80,82,84,-1,-1,86,88,90,92,94,96,98,100,102,-1,-1,-1,-1,-1,-1,-1,-1,-1,-1,-1,-1,-1,-1,-1,-1,-1,-1,-1,-1,-1,-1,-1,-1,-1,-1,-1,-1,-1,-1,-1,-1,-1,-1,-1,-1,-1,-1,-1,-1,-1,-1,-1,-1,-1,-1,-1],"split_conditions":[8.5E3,6.63E4,1.559E5,2E0,8.64E4,1.2E4,1.95E4,1E0,5.84E4,1E0,2E0,2E0,2E0,2E0,5E0,5.79E4,5.3E4,1E0,1.1E1,2E0,2E0,1.001E5,7E0,1E0,7.13E4,1E4,1E0,1E0,1.6243081E4,2.3861426E4,1.3602944E4,2E0,1E0,1E0,2E0,2E0,5.6E1,5.1E1,1E0,1E0,7.7E4,1E0,1E0,1E0,2.1E1,3.1071262E3,6.770599E3,1.143E5,5E4,2.1E1,2E0,1.35E4,4.2E1,8E0,1.2E1,2E0,7.2764917E3,-1.2467587E3,-2.8147375E2,-3.0192346E2,6.319062E2,-2.1373533E3,-1.631882E3,-1.3153702E3,-2.2240306E2,-4.520065E2,-1.20256676E2,3.1666736E2,1.0074682E3,1.0341132E3,2.1522524E3,1.2752587E3,3.2899172E3,6.380579E2,-4.6859128E2,1.2044011E3,3.324608E3,1.9340719E3,6.599588E2,1.0724385E3,3.9843574E3,2.8502786E3,1.2164073E3,2.0873713E3,3.9295564E3,2.1321033E3,3.9585974E3,3.7355486E3,6.469306E3,3.900401E3,1.0934227E3,4.0435063E3,6.916203E3,1.6272441E3,5.052818E3,1.136628E4,1.3832958E3,2.5763208E3,4.6716943E3,6.9075737E3,2.8437898E3,1.5753069E4,8.1395127E3],"split_indices":[8,10,10,2,10,8,8,2,10,12,2,2,3,2,5,10,10,12,13,2,2,10,13,12,10,1,12,2,0,0,0,12,12,12,12,14,4,4,11,2,10,2,9,2,7,0,0,10,1,5,5,8,4,13,13,0,0,0,0,0,0,0,0,0,0,0,0,0,0,0,0,0,0,0,0,0,0,0,0,0,0,0,0,0,0,0,0,0,0,0,0,0,0,0,0,0,0,0,0,0,0,0,0],"split_type":[0,0,0,0,0,0,0,0,0,0,0,0,0,0,0,0,0,0,0,0,0,0,0,0,0,0,0,0,0,0,0,0,0,0,0,0,0,0,0,0,0,0,0,0,0,0,0,0,0,0,0,0,0,0,0,0,0,0,0,0,0,0,0,0,0,0,0,0,0,0,0,0,0,0,0,0,0,0,0,0,0,0,0,0,0,0,0,0,0,0,0,0,0,0,0,0,0,0,0,0,0,0,0],"sum_hessian":[4E3,3.356E3,6.44E2,2.81E3,5.46E2,5.67E2,7.7E1,2.534E3,2.76E2,4.3E2,1.16E2,4.73E2,9.4E1,6.2E1,1.5E1,8.36E2,1.698E3,2.47E2,2.9E1,2.49E2,1.81E2,1.03E2,1.3E1,4.05E2,6.8E1,3.8E1,5.6E1,5.3E1,9E0,7E0,8E0,7.61E2,7.5E1,1.413E3,2.85E2,1.41E2,1.06E2,2.3E1,6E0,2.32E2,1.7E1,1.62E2,1.9E1,7.6E1,2.7E1,6E0,7E0,2.58E2,1.47E2,2E1,4.8E1,7E0,3.1E1,3.4E1,2.2E1,2E1,3.3E1,6.82E2,7.9E1,4.1E1,3.4E1,8.38E2,5.75E2,2.52E2,3.3E1,7.6E1,6.5E1,9.1E1,1.5E1,1.9E1,4E0,2E0,4E0,7.7E1,1.55E2,1.3E1,4E0,6.6E1,9.6E1,3E0,1.6E1,2.5E1,5.1E1,8E0,1.9E1,2.01E2,5.7E1,1.2E2,2.7E1,1.8E1,2E0,7E0,4.1E1,3E0,4E0,3E1,1E0,1.6E1,1.8E1,2E1,2E0,1.4E1,6E0],"tree_param":{"num_deleted":"0","num_feature":"15","num_nodes":"103","size_leaf_vector":"1"}},{"base_weights":[2.3949455E2,-8.830299E3,4.744423E4,-1.2483724E4,9.478765E3,3.7621223E4,1.1836763E5,-1.4046183E4,1.7926967E3,5.604504E3,2.406696E4,3.2225795E4,6.414556E4,1.770934E5,1.0035625E5,-9.357125E3,-1.63560205E4,9.4174835E1,1.5774054E4,3.6232047E2,1.2779031E4,2.0410814E4,4.9507844E4,2.8712129E4,5.243336E4,8.97815E4,4.547982E4,2.0005497E5,5.2454585E3,7.450024E4,1.208206E5,-1.03254795E4,7.407539E2,-1.8370785E4,-1.3412369E4,-2.7129934E3,3.8186956E3,1.1924091E4,2.6720492E4,-8.8656067E2,1.699394E4,1.033576E4,3.266356E4,1.706465E4,3.5450008E4,2.840801E3,6.178172E3,2.2473871E4,3.7969297E4,3.3404035E4,5.9518715E4,3.6579703E4,1.0027628E5,3.429385E4,6.0524565E3,2.0669916E4,5.684017E3,6.2640034E3,1.212733E5,1.4661202E5,9.409999E3,-1.2336757E3,-6.6983276E2,-3.2314145E2,5.508935E2,-1.9312074E3,-1.4034045E3,-1.4756478E3,-7.0336017E2,-4.6632413E2,-1.4264777E2,-3.947238E2,4.4861166E2,-2.7962228E2,1.268568E3,1.1902415E3,3.026724E3,5.906506E2,-4.1937558E2,1.0925642E3,3.058639E3,1.7361149E3,5.503461E2,5.592E2,3.5360845E3,1.4194008E3,3.2313386E3,5.213016E2,3.692201E3,2.697559E3,1.3682689E3,5.167749E3,2.800661E3,1.7246396E3,3.7375398E3,6.149545E3,2.9824373E3,1.5052008E3,4.6485923E3,1.0266317E4,1.3141309E3,2.333843E3,4.229113E3,3.0341345E3,1.3642096E4,1.6430057E4,7.8374805E3],"categories":[],"categories_nodes":[],"categories_segments":[],"categories_sizes":[],"default_left":[0,0,0,0,0,0,0,0,0,0,0,0,0,0,0,0,0,0,0,0,0,0,0,0,0,0,0,0,0,0,0,0,0,0,0,0,0,0,0,0,0,0,0,0,0,0,0,0,0,0,0,0,0,0,0,0,0,0,0,0,0,0,0,0,0,0,0,0,0,0,0,0,0,0,0,0,0,0,0,0,0,0,0,0,0,0,0,0,0,0,0,0,0,0,0,0,0,0,0,0,0,0,0,0,0,0,0],"id":6,"left_children":[1,3,5,7,9,11,13,15,17,19,21,23,25,27,29,31,33,35,37,39,41,43,45,47,49,51,53,55,-1,57,59,61,63,65,67,69,71,73,75,77,79,81,83,85,87,-1,-1,89,91,93,95,97,99,101,-1,-1,-1,-1,103,105,-1,-1,-1,-1,-1,-1,-1,-1,-1,-1,-1,-1,-1,-1,-1,-1,-1,-1,-1,-1,-1,-1,-1,-1,-1,-1,-1,-1,-1,-1,-1,-1,-1,-1,-1,-1,-1,-1,-1,-1,-1,-1,-1,-1,-1,-1,-1],"loss_changes":[1.7133959E12,2.2467073E11,4.449062E11,6.246056E10,3.1458951E10,7.921946E10,6.4730694E10,2.7173454E10,6.5766113E9,1.6656686E10,9.872331E9,3.2149766E10,4.137553E10,3.81585E10,2.3804707E10,8.172544E9,9.770697E9,2.6032883E9,9.45684E8,5.353192E9,8.747477E9,4.6287176E9,1.8705756E9,2.2592618E10,7.315079E9,1.8107204E10,7.5169137E9,1.5727985E9,0E0,9.045574E9,8.946156E9,5.476311E9,1.419363E9,3.8110822E9,5.8120847E9,3.496295E8,5.7230464E8,3.0453197E8,7.638528E6,5.4166093E9,1.1505193E9,5.607846E9,1.2626534E9,3.3496556E9,6.08684E8,0E0,0E0,9.326879E9,2.0677116E10,7.0293504E8,1.0421207E9,1.0063585E9,5.306286E9,2.0794614E9,0E0,0E0,0E0,0E0,2.7478344E9,5.2282327E9,0E0,0E0,0E0,0E0,0E0,0E0,0E0,0E0,0E0,0E0,0E0,0E0,0E0,0E0,0E0,0E0,0E0,0E0,0E0,0E0,0E0,0E0,0E0,0E0,0E0,0E0,0E0,0E0,0E0,0E0,0E0,0E0,0E0,0E0,0E0,0E0,0E0,0E0,0E0,0E0,0E0,0E0,0E0,0E0,0E0,0E0,0E0],"parents":[2147483647,0,0,1,1,2,2,3,3,4,4,5,5,6,6,7,7,8,8,9,9,10,10,11,11,12,12,13,13,14,14,15,15,16,16,17,17,18,18,19,19,20,20,21,21,22,22,23,23,24,24,25,25,26,26,27,27,29,29,30,30,31,31,32,32,33,33,34,34,35,35,36,36,37,37,38,38,39,39,40,40,41,41,42,42,43,43,44,44,47,47,48,48,49,49,50,50,51,51,52,52,53,53,58,58,59,59],"right_children":[2,4,6,8,10,12,14,16,18,20,22,24,26,28,30,32,34,36,38,40,42,44,46,48,50,52,54,56,-1,58,60,62,64,66,68,70,72,74,76,78,80,82,84,86,88,-1,-1,90,92,94,96,98,100,102,-1,-1,-1,-1,104,106,-1,-1,-1,-1,-1,-1,-1,-1,-1,-1,-1,-1,-1,-1,-1,-1,-1,-1,-1,-1,-1,-1,-1,-1,-1,-1,-1,-1,-1,-1,-1,-1,-1,-1,-1,-1,-1,-1,-1,-1,-1,-1,-1,-1,-1,-1,-1],"split_conditions":[8.5E3,6.59E4,1.559E5,2E0,8.64E4,1.2E4,4E0,1E0,5.84E4,1E0,2E0,2E0,2E0,2E0,1.761E5,5.79E4,1E0,1E0,1.1E1,2E0,2E0,1.059E5,7E0,1.031E5,7.13E4,1E4,1E0,2E0,5.2454585E3,1.7E4,2E0,1E0,1E0,5.18E4,5.19E4,2E0,8E0,7E0,1E0,1E0,7.7E4,1E0,1E1,2E0,1.2E1,2.840801E3,6.178172E3,1E0,1E0,2E0,5.2E1,1.35E4,4.2E1,8E0,6.0524565E3,2.0669916E4,5.684017E3,6.2640034E3,2.5E1,3E1,9.409999E3,-1.2336757E3,-6.6983276E2,-3.2314145E2,5.508935E2,-1.9312074E3,-1.4034045E3,-1.4756478E3,-7.0336017E2,-4.6632413E2,-1.4264777E2,-3.947238E2,4.4861166E2,-2.7962228E2,1.268568E3,1.1902415E3,3.026724E3,5.906506E2,-4.1937558E2,1.0925642E3,3.058639E3,1.7361149E3,5.503461E2,5.592E2,3.5360845E3,1.4194008E3,3.2313386E3,5.213016E2,3.692201E3,2.697559E3,1.3682689E3,5.167749E3,2.800661E3,1.7246396E3,3.7375398E3,6.149545E3,2.9824373E3,1.5052008E3,4.6485923E3,1.0266317E4,1.3141309E3,2.333843E3,4.229113E3,3.0341345E3,1.3642096E4,1.6430057E4,7.8374805E3],"split_indices":[8,10,10,2,10,8,5,2,10,12,2,2,3,3,10,10,12,12,13,2,2,10,13,10,10,1,12,0,0,8,9,12,12,10,10,9,7,7,11,2,10,2,7,12,7,0,0,2,2,5,7,8,4,13,0,0,0,0,4,7,0,0,0,0,0,0,0,0,0,0,0,0,0,0,0,0,0,0,0,0,0,0,0,0,0,0,0,0,0,0,0,0,0,0,0,0,0,0,0,0,0,0,0,0,0,0,0],"split_type":[0,0,0,0,0,0,0,0,0,0,0,0,0,0,0,0,0,0,0,0,0,0,0,0,0,0,0,0,0,0,0,0,0,0,0,0,0,0,0,0,0,0,0,0,0,0,0,0,0,0,0,0,0,0,0,0,0,0,0,0,0,0,0,0,0,0,0,0,0,0,0,0,0,0,0,0,0,0,0,0,0,0,0,0,0,0,0,0,0,0,0,0,0,0,0,0,0,0,0,0,0,0,0,0,0,0,0],"sum_hessian":[4E3,3.356E3,6.44E2,2.798E3,5.58E2,5.67E2,7.7E1,2.522E3,2.76E2,4.42E2,1.16E2,4.73E2,9.4E1,1.6E1,6.1E1,8.34E2,1.688E3,2.47E2,2.9E1,2.56E2,1.86E2,1.03E2,1.3E1,4.05E2,6.8E1,3.8E1,5.6E1,1.3E1,3E0,2.9E1,3.2E1,7.61E2,7.3E1,9.99E2,6.89E2,1.41E2,1.06E2,2.3E1,6E0,2.39E2,1.7E1,1.67E2,1.9E1,8.6E1,1.7E1,6E0,7E0,2.44E2,1.61E2,2E1,4.8E1,7E0,3.1E1,3.4E1,2.2E1,1.2E1,1E0,2.5E1,4E0,1.4E1,1.8E1,4.88E2,2.73E2,4E1,3.3E1,8.18E2,1.81E2,5.68E2,1.21E2,5.5E1,8.6E1,8E0,9.8E1,1E0,2.2E1,2E0,4E0,7.8E1,1.61E2,1.3E1,4E0,6.7E1,1E2,2E0,1.7E1,7.4E1,1.2E1,1E0,1.6E1,1.6E2,8.4E1,6.6E1,9.5E1,5E0,1.5E1,4.4E1,4E0,3E0,4E0,3E1,1E0,1.6E1,1.8E1,1E0,3E0,1E1,4E0],"tree_param":{"num_deleted":"0","num_feature":"15","num_nodes":"107","size_leaf_vector":"1"}},{"base_weights":[2.5834613E2,-8.593643E3,3.980171E4,-1.1809451E4,4.7692944E3,2.9343818E4,9.342645E4,-1.3136473E4,5.2565125E2,2.5281606E3,2.4724906E4,2.2252648E4,4.0607418E4,7.341553E4,1.3752344E5,-8.981005E3,-1.5183787E4,-2.225689E3,4.0514805E3,-2.1541975E3,9.974595E3,1.52873E4,4.2047277E4,1.8333543E4,4.161938E4,3.732296E4,7.831234E4,1.1212365E5,5.9567312E4,1.7473623E5,1.0262209E5,-9.914897E3,-1.0360652E3,-1.69176E4,-1.2655511E4,-3.9015546E2,-3.4804138E3,2.9049414E3,1.1951653E4,3.9073674E3,-5.4679756E3,4.789377E3,1.7468752E4,1.0237378E4,2.3169207E4,5.224067E4,2.7104732E4,2.3950906E4,1.058309E4,1.7628495E3,4.383546E4,4.9038547E4,3.036175E4,8.1691753E3,1.0431204E3,1.3423412E5,4.87264E4,5.179851E4,8.3613125E4,3.2780586E3,1.8201456E5,1.06471805E5,4.4033237E3,-1.0453928E3,-5.74946E2,-2.5269893E2,1.0249471E3,-1.7383221E3,-1.3705822E3,-1.3818442E3,-8.9627844E2,-8.74617E2,8.784911E1,-5.582013E2,-1.6177676E2,1.5677155E2,7.074169E2,7.162384E2,1.5717726E3,-2.806523E1,8.3059564E2,-7.943349E2,-1.4396162E2,1.251685E3,7.834031E1,2.4792585E3,1.2357357E3,1.802758E3,7.2933417E2,5.0008203E2,2.6977234E3,2.1891028E3,5.992489E3,1.1435818E3,2.9316067E3,1.3463109E3,3.07886E3,7.755194E2,2.2715627E3,1.7499062E3,4.4474985E3,3.9460527E3,6.7413647E3,2.6101924E3,5.0896426E3,3.0831438E3,1.3941778E4,5.4232646E3,7.844461E2,6.497797E3,4.1199575E3,2.5916072E3,9.106963E3,2.0344186E4,9.847163E3,1.24541045E4,7.2556987E3],"categories":[],"categories_nodes":[],"categories_segments":[],"categories_sizes":[],"default_left":[0,0,0,0,0,0,0,0,0,0,0,0,0,0,0,0,0,0,0,0,0,0,0,0,0,0,0,0,0,0,0,0,0,0,0,0,0,0,0,0,0,0,0,0,0,0,0,0,0,0,0,0,0,0,0,0,0,0,0,0,0,0,0,0,0,0,0,0,0,0,0,0,0,0,0,0,0,0,0,0,0,0,0,0,0,0,0,0,0,0,0,0,0,0,0,0,0,0,0,0,0,0,0,0,0,0,0,0,0,0,0,0,0,0,0,0,0],"id":7,"left_children":[1,3,5,7,9,11,13,15,17,19,21,23,25,27,29,31,33,35,37,39,41,43,45,47,49,51,53,55,57,59,61,63,65,67,69,71,73,75,77,79,81,83,85,87,89,91,93,95,97,-1,99,101,103,-1,-1,105,107,109,111,-1,113,115,-1,-1,-1,-1,-1,-1,-1,-1,-1,-1,-1,-1,-1,-1,-1,-1,-1,-1,-1,-1,-1,-1,-1,-1,-1,-1,-1,-1,-1,-1,-1,-1,-1,-1,-1,-1,-1,-1,-1,-1,-1,-1,-1,-1,-1,-1,-1,-1,-1,-1,-1,-1,-1,-1,-1],"loss_changes":[1.4008418E12,1.4057688E11,4.077654E11,4.3155423E10,2.833672E10,4.8137798E10,9.491166E10,2.0111655E10,2.5021115E9,1.9965336E10,9.820041E9,2.8003172E10,2.6303463E10,3.8348325E10,2.8824175E10,5.836464E9,6.768886E9,3.3259E8,9.8881894E8,7.091877E9,8.50414E9,1.4743378E9,1.9349668E9,1.3547782E10,2.5767035E9,1.6371581E10,3.2770212E9,2.2895886E10,7.624622E9,1.0564665E10,4.825088E7,1.5228273E9,1.439274E9,1.170473E9,2.6760888E9,6.4373325E8,3.276196E8,5.4642944E8,1.3993792E8,2.305003E9,2.2621107E9,4.0763942E9,3.0627779E9,5.106885E8,9.720627E8,1.4867395E9,4.5888E7,1.2708848E10,4.455627E9,0E0,1.817559E8,1.1419582E10,1.0917888E10,0E0,0E0,3.7416305E9,1.1503155E9,4.4470436E9,3.6628808E9,0E0,6.8182016E9,2.6071695E9,0E0,0E0,0E0,0E0,0E0,0E0,0E0,0E0,0E0,0E0,0E0,0E0,0E0,0E0,0E0,0E0,0E0,0E0,0E0,0E0,0E0,0E0,0E0,0E0,0E0,0E0,0E0,0E0,0E0,0E0,0E0,0E0,0E0,0E0,0E0,0E0,0E0,0E0,0E0,0E0,0E0,0E0,0E0,0E0,0E0,0E0,0E0,0E0,0E0,0E0,0E0,0E0,0E0,0E0,0E0],"parents":[2147483647,0,0,1,1,2,2,3,3,4,4,5,5,6,6,7,7,8,8,9,9,10,10,11,11,12,12,13,13,14,14,15,15,16,16,17,17,18,18,19,19,20,20,21,21,22,22,23,23,24,24,25,25,26,26,27,27,28,28,29,29,30,30,31,31,32,32,33,33,34,34,35,35,36,36,37,37,38,38,39,39,40,40,41,41,42,42,43,43,44,44,45,45,46,46,47,47,48,48,50,50,51,51,52,52,55,55,56,56,57,57,58,58,60,60,61,61],"right_children":[2,4,6,8,10,12,14,16,18,20,22,24,26,28,30,32,34,36,38,40,42,44,46,48,50,52,54,56,58,60,62,64,66,68,70,72,74,76,78,80,82,84,86,88,90,92,94,96,98,-1,100,102,104,-1,-1,106,108,110,112,-1,114,116,-1,-1,-1,-1,-1,-1,-1,-1,-1,-1,-1,-1,-1,-1,-1,-1,-1,-1,-1,-1,-1,-1,-1,-1,-1,-1,-1,-1,-1,-1,-1,-1,-1,-1,-1,-1,-1,-1,-1,-1,-1,-1,-1,-1,-1,-1,-1,-1,-1,-1,-1,-1,-1,-1,-1],"split_conditions":[8E3,6.05E4,1.3E4,2E0,2E0,1.036E5,1.7E4,1E0,1E0,7.51E4,7.7E4,2E0,2E0,1E0,1.9E1,2E0,1E0,3.7E1,5.36E4,1E0,1E0,1E0,2E0,1E0,6.16E4,1E0,2.3E1,2E0,1.68E5,1.496E5,4.6E1,5.19E4,5.41E4,5.18E4,2E0,3E0,3.1E1,2E0,2E0,1E0,1E0,1E0,1E0,1E0,3.2E1,1E0,2E0,7.06E4,2E0,1.7628495E3,1E0,5E4,1.372E5,8.1691753E3,1.0431204E3,2.5E1,5.1E1,2E0,2.2E1,3.2780586E3,3.5E1,2E0,4.4033237E3,-1.0453928E3,-5.74946E2,-2.5269893E2,1.0249471E3,-1.7383221E3,-1.3705822E3,-1.3818442E3,-8.9627844E2,-8.74617E2,8.784911E1,-5.582013E2,-1.6177676E2,1.5677155E2,7.074169E2,7.162384E2,1.5717726E3,-2.806523E1,8.3059564E2,-7.943349E2,-1.4396162E2,1.251685E3,7.834031E1,2.4792585E3,1.2357357E3,1.802758E3,7.2933417E2,5.0008203E2,2.6977234E3,2.1891028E3,5.992489E3,1.1435818E3,2.9316067E3,1.3463109E3,3.07886E3,7.755194E2,2.2715627E3,1.7499062E3,4.4474985E3,3.9460527E3,6.7413647E3,2.6101924E3,5.0896426E3,3.0831438E3,1.3941778E4,5.4232646E3,7.844461E2,6.497797E3,4.1199575E3,2.5916072E3,9.106963E3,2.0344186E4,9.847163E3,1.24541045E4,7.2556987E3],"split_indices":[8,10,8,2,2,10,8,2,12,10,10,2,2,9,7,12,12,4,10,2,12,12,11,2,10,2,5,3,10,10,4,10,10,10,12,13,7,12,0,12,12,2,2,0,4,12,14,10,12,0,5,1,10,0,0,4,4,3,4,0,4,9,0,0,0,0,0,0,0,0,0,0,0,0,0,0,0,0,0,0,0,0,0,0,0,0,0,0,0,0,0,0,0,0,0,0,0,0,0,0,0,0,0,0,0,0,0,0,0,0,0,0,0,0,0,0,0],"split_type":[0,0,0,0,0,0,0,0,0,0,0,0,0,0,0,0,0,0,0,0,0,0,0,0,0,0,0,0,0,0,0,0,0,0,0,0,0,0,0,0,0,0,0,0,0,0,0,0,0,0,0,0,0,0,0,0,0,0,0,0,0,0,0,0,0,0,0,0,0,0,0,0,0,0,0,0,0,0,0,0,0,0,0,0,0,0,0,0,0,0,0,0,0,0,0,0,0,0,0,0,0,0,0,0,0,0,0,0,0,0,0,0,0,0,0,0,0],"sum_hessian":[4E3,3.269E3,7.31E2,2.635E3,6.34E2,6.13E2,1.18E2,2.379E3,2.56E2,5.71E2,6.3E1,3.78E2,2.35E2,8.3E1,3.5E1,7.87E2,1.592E3,1.44E2,1.12E2,3.51E2,2.2E2,4.2E1,2.1E1,3.16E2,6.2E1,2.18E2,1.7E1,2E1,6.3E1,1.5E1,2E1,7.04E2,8.3E1,9.41E2,6.51E2,5.9E1,8.5E1,9.9E1,1.3E1,1.24E2,2.27E2,1.31E2,8.9E1,2.7E1,1.5E1,1.1E1,1E1,1.82E2,1.34E2,6E0,5.6E1,7.9E1,1.39E2,1.6E1,1E0,1.4E1,6E0,5E1,1.3E1,1E0,1.4E1,1.8E1,2E0,6.22E2,8.2E1,7.4E1,9E0,8.18E2,1.23E2,4.93E2,1.58E2,7E0,5.2E1,3.9E1,4.6E1,7.6E1,2.3E1,7E0,6E0,6.4E1,6E1,1.4E2,8.7E1,4.4E1,8.7E1,3.5E1,5.4E1,6E0,2.1E1,3E0,1.2E1,3E0,8E0,2E0,8E0,7.3E1,1.09E2,1.1E2,2.4E1,2E0,5.4E1,5.4E1,2.5E1,1.17E2,2.2E1,1E0,1.3E1,5E0,1E0,2E1,3E1,2E0,1.1E1,1E1,4E0,1E1,8E0],"tree_param":{"num_deleted":"0","num_feature":"15","num_nodes":"117","size_leaf_vector":"1"}},{"base_weights":[2.7361816E2,-7.153286E3,3.892764E4,-1.0361367E4,6.6684727E3,3.0694477E4,9.838289E4,-1.158348E4,8.860855E2,3.0365918E3,1.7945318E4,2.6230215E4,5.264569E4,8.345852E4,1.5099864E5,-7.76955E3,-1.3477577E4,-1.2227195E2,9.533517E3,1.4792988E3,1.967494E4,1.4931206E4,3.857553E4,2.0536805E4,3.6290566E4,4.5252723E4,1.0000933E5,1.407384E5,7.609408E4,1.86411E5,1.0274335E5,-9.576738E3,-4.567119E3,-1.4128509E4,-7.608578E3,-2.213724E3,2.7495476E3,4.640913E3,1.3464379E4,7.548417E3,-1.7500565E3,2.925565E4,1.362362E4,9.906647E3,2.2612936E4,2.7353639E4,4.800501E4,1.7660904E4,3.59479E4,3.2254537E4,5.268799E4,6.779912E4,3.276883E4,2.4284797E3,1.0468566E4,1.572415E4,2.9111484E3,6.771753E4,1.1417558E4,1.9971424E4,4.664419E3,1.0803179E4,3.0217937E3,-1.01046844E3,-1.7019695E2,-5.600591E2,3.329172E2,-1.4706907E3,-1.0830028E3,-8.986616E2,-4.9586998E1,-5.0329596E2,-1.3657494E2,-3.3887872E2,3.5287836E2,8.177403E2,9.663702E1,5.409263E2,1.5901761E3,2.898507E2,1.2604503E3,-2.9914264E2,9.8837854E2,1.2405352E2,3.1168123E3,9.1365625E2,2.313831E3,1.8667438E3,5.429302E2,1.8501176E3,3.0231885E3,3.0724358E3,1.3773793E3,8.417547E2,5.190125E3,1.5176472E3,3.2629011E3,2.7389482E3,4.613229E3,2.866115E3,5.344113E3,1.348875E2,5.430058E3,7.1678955E3,1.0280902E3,2.4514316E3,4.5359E3,9.177093E3,5.2545444E3],"categories":[],"categories_nodes":[],"categories_segments":[],"categories_sizes":[],"default_left":[0,0,0,0,0,0,0,0,0,0,0,0,0,0,0,0,0,0,0,0,0,0,0,0,0,0,0,0,0,0,0,0,0,0,0,0,0,0,0,0,0,0,0,0,0,0,0,0,0,0,0,0,0,0,0,0,0,0,0,0,0,0,0,0,0,0,0,0,0,0,0,0,0,0,0,0,0,0,0,0,0,0,0,0,0,0,0,0,0,0,0,0,0,0,0,0,0,0,0,0,0,0,0,0,0,0,0,0,0],"id":8,"left_children":[1,3,5,7,9,11,13,15,17,19,21,23,25,27,29,31,33,35,37,39,41,43,45,47,49,51,53,55,57,59,61,63,65,67,69,71,73,75,77,79,81,83,85,87,89,91,93,95,97,99,101,103,105,-1,-1,-1,-1,107,-1,-1,-1,-1,-1,-1,-1,-1,-1,-1,-1,-1,-1,-1,-1,-1,-1,-1,-1,-1,-1,-1,-1,-1,-1,-1,-1,-1,-1,-1,-1,-1,-1,-1,-1,-1,-1,-1,-1,-1,-1,-1,-1,-1,-1,-1,-1,-1,-1,-1,-1],"loss_changes":[1.1488845E12,1.489229E11,3.1271073E11,3.7467193E10,2.5870758E10,5.428078E10,4.8647963E10,1.7651761E10,2.338046E9,1.2408068E10,9.000018E9,2.6404323E10,2.873929E10,1.58662E10,8.1888215E9,4.690354E9,6.161629E9,1.4535986E9,4.760128E8,8.63692E9,1.9784458E9,5.0252165E9,6.974034E8,1.2882952E10,9.551266E9,2.1421523E10,1.7070899E9,6.475604E9,1.0769826E10,5.5593206E9,1.8741658E8,2.1529928E9,2.4423414E9,2.6566656E9,1.6226058E9,3.2781594E8,4.9984576E8,1.7402736E8,2.084841E8,3.5605463E9,4.188833E9,7.650058E8,9.4130534E8,3.193556E9,1.1010191E9,8.032102E7,9.5129805E8,9.136308E9,2.8330844E9,9.050604E9,2.575999E9,5.734752E9,4.707893E9,0E0,0E0,0E0,0E0,1.3424869E10,0E0,0E0,0E0,0E0,0E0,0E0,0E0,0E0,0E0,0E0,0E0,0E0,0E0,0E0,0E0,0E0,0E0,0E0,0E0,0E0,0E0,0E0,0E0,0E0,0E0,0E0,0E0,0E0,0E0,0E0,0E0,0E0,0E0,0E0,0E0,0E0,0E0,0E0,0E0,0E0,0E0,0E0,0E0,0E0,0E0,0E0,0E0,0E0,0E0,0E0,0E0],"parents":[2147483647,0,0,1,1,2,2,3,3,4,4,5,5,6,6,7,7,8,8,9,9,10,10,11,11,12,12,13,13,14,14,15,15,16,16,17,17,18,18,19,19,20,20,21,21,22,22,23,23,24,24,25,25,26,26,27,27,28,28,29,29,30,30,31,31,32,32,33,33,34,34,35,35,36,36,37,37,38,38,39,39,40,40,41,41,42,42,43,43,44,44,45,45,46,46,47,47,48,48,49,49,50,50,51,51,52,52,57,57],"right_children":[2,4,6,8,10,12,14,16,18,20,22,24,26,28,30,32,34,36,38,40,42,44,46,48,50,52,54,56,58,60,62,64,66,68,70,72,74,76,78,80,82,84,86,88,90,92,94,96,98,100,102,104,106,-1,-1,-1,-1,108,-1,-1,-1,-1,-1,-1,-1,-1,-1,-1,-1,-1,-1,-1,-1,-1,-1,-1,-1,-1,-1,-1,-1,-1,-1,-1,-1,-1,-1,-1,-1,-1,-1,-1,-1,-1,-1,-1,-1,-1,-1,-1,-1,-1,-1,-1,-1,-1,-1,-1,-1],"split_conditions":[8.5E3,6.36E4,1.559E5,2E0,8.45E4,1.2E4,1.95E4,1E0,5.61E4,2E0,2E0,1E0,2E0,1E0,5E0,1E0,2E0,1E0,1E0,1E0,1E0,9.34E4,9.11E4,2E0,5E4,1E0,1E4,2.8E1,2E0,1.2E1,3.6E1,5.79E4,5.47E4,5.18E4,5.35E4,7E0,2E0,3E1,1E0,1E0,2E0,9E0,7.46E4,1E0,8E3,2E0,5E0,1.212E5,8.34E4,2E0,6.15E4,4.9E1,1E0,2.4284797E3,1.0468566E4,1.572415E4,2.9111484E3,1E0,1.1417558E4,1.9971424E4,4.664419E3,1.0803179E4,3.0217937E3,-1.01046844E3,-1.7019695E2,-5.600591E2,3.329172E2,-1.4706907E3,-1.0830028E3,-8.986616E2,-4.9586998E1,-5.0329596E2,-1.3657494E2,-3.3887872E2,3.5287836E2,8.177403E2,9.663702E1,5.409263E2,1.5901761E3,2.898507E2,1.2604503E3,-2.9914264E2,9.8837854E2,1.2405352E2,3.1168123E3,9.1365625E2,2.313831E3,1.8667438E3,5.429302E2,1.8501176E3,3.0231885E3,3.0724358E3,1.3773793E3,8.417547E2,5.190125E3,1.5176472E3,3.2629011E3,2.7389482E3,4.613229E3,2.866115E3,5.344113E3,1.348875E2,5.430058E3,7.1678955E3,1.0280902E3,2.4514316E3,4.5359E3,9.177093E3,5.2545444E3],"split_indices":[8,10,10,2,10,8,8,2,10,2,2,12,2,3,5,12,12,12,12,2,0,10,10,2,1,2,1,4,2,13,7,10,10,10,10,5,13,4,0,12,12,7,10,2,8,0,13,10,10,2,10,7,12,0,0,0,0,2,0,0,0,0,0,0,0,0,0,0,0,0,0,0,0,0,0,0,0,0,0,0,0,0,0,0,0,0,0,0,0,0,0,0,0,0,0,0,0,0,0,0,0,0,0,0,0,0,0,0,0],"split_type":[0,0,0,0,0,0,0,0,0,0,0,0,0,0,0,0,0,0,0,0,0,0,0,0,0,0,0,0,0,0,0,0,0,0,0,0,0,0,0,0,0,0,0,0,0,0,0,0,0,0,0,0,0,0,0,0,0,0,0,0,0,0,0,0,0,0,0,0,0,0,0,0,0,0,0,0,0,0,0,0,0,0,0,0,0,0,0,0,0,0,0,0,0,0,0,0,0,0,0,0,0,0,0,0,0,0,0,0,0],"sum_hessian":[4E3,3.356E3,6.44E2,2.724E3,6.32E2,5.67E2,7.7E1,2.457E3,2.67E2,4.79E2,1.53E2,4.73E2,9.4E1,6.2E1,1.5E1,8.17E2,1.64E3,2.4E2,2.7E1,4.39E2,4E1,1.35E2,1.8E1,3.04E2,1.69E2,8.3E1,1.1E1,5E0,5.7E1,7E0,8E0,5.21E2,2.96E2,1.475E3,1.65E2,1.39E2,1.01E2,1.3E1,1.4E1,1.52E2,2.87E2,1.4E1,2.6E1,8.3E1,5.2E1,1E1,8E0,2.58E2,4.6E1,1.38E2,3.1E1,2.8E1,5.5E1,1E0,1E1,4E0,1E0,4.9E1,8E0,6E0,1E0,7E0,1E0,4.88E2,3.3E1,2.62E2,3.4E1,1.252E3,2.23E2,1.38E2,2.7E1,3.1E1,1.08E2,1.1E1,9E1,6E0,7E0,4E0,1E1,8E1,7.2E1,2.6E2,2.7E1,1E0,1.3E1,1.9E1,7E0,2.7E1,5.6E1,3.6E1,1.6E1,7E0,3E0,1E0,7E0,2.23E2,3.5E1,2.7E1,1.9E1,1.2E2,1.8E1,1E0,3E1,2.6E1,2E0,3.5E1,2E1,1.7E1,3.2E1],"tree_param":{"num_deleted":"0","num_feature":"15","num_nodes":"109","size_leaf_vector":"1"}},{"base_weights":[2.8647433E2,-5.944737E3,3.81136E4,-8.657953E3,1.0904459E4,3.1408535E4,1.02420984E5,-9.788496E3,1.7845938E3,9.059021E3,2.9319826E4,2.6717213E4,5.4771594E4,1.2427059E5,7.297859E4,-1.0920325E4,-3.5917373E3,4.92959E1,1.1751321E4,6.946306E3,2.3836762E4,1.3235794E4,3.318808E4,2.1383172E4,3.66332E4,9.1397875E4,4.4270934E4,1.0470158E5,1.8183488E5,1.1813977E3,7.503488E3,-7.606896E3,-1.2563207E4,1.0421935E3,-5.988904E3,-2.0269353E3,2.8042073E3,4.8995107E3,1.4557122E4,2.464213E3,1.2889186E4,9.294401E3,2.8694229E4,4.981471E3,2.0493822E4,3.9547805E4,2.4502008E4,1.9801945E4,5.0237934E4,3.3182047E4,5.7234035E4,1.0301971E5,2.4966535E4,4.0464473E4,8.413946E3,4.891531E3,1.1680769E5,1.9617229E4,5.507394E3,-8.3043097E2,-1.4830048E2,-1.400694E3,-1.043246E3,-2.0101445E2,4.7936386E2,-8.275739E2,-2.6776706E2,-3.3547845E2,-4.4706676E1,1.862641E2,8.042951E2,-5.6254242E1,9.0663684E2,1.5749986E2,1.7090547E3,7.72615E2,-1.1229825E1,2.0072744E3,8.439963E2,1.7876625E3,1.5866267E2,1.8508895E3,3.3466758E3,-2.2709375E1,6.068603E2,7.5384064E2,2.6617964E3,4.245471E3,1.8759957E3,8.270192E2,2.6114902E3,-3.8191994E1,2.1337449E3,7.0354767E2,5.302001E3,4.270847E3,2.539572E3,8.57768E2,5.9343438E3,1.1050498E4,3.6243638E3,2.9137703E3,6.2265155E2,5.368395E3,3.2759988E3,1.3842713E4,7.7405312E3],"categories":[],"categories_nodes":[],"categories_segments":[],"categories_sizes":[],"default_left":[0,0,0,0,0,0,0,0,0,0,0,0,0,0,0,0,0,0,0,0,0,0,0,0,0,0,0,0,0,0,0,0,0,0,0,0,0,0,0,0,0,0,0,0,0,0,0,0,0,0,0,0,0,0,0,0,0,0,0,0,0,0,0,0,0,0,0,0,0,0,0,0,0,0,0,0,0,0,0,0,0,0,0,0,0,0,0,0,0,0,0,0,0,0,0,0,0,0,0,0,0,0,0,0,0,0,0],"id":9,"left_children":[1,3,5,7,9,11,13,15,17,19,21,23,25,27,29,31,33,35,37,39,41,43,45,47,49,51,53,55,57,-1,-1,59,61,63,65,67,69,71,73,75,77,79,81,83,85,87,89,91,93,95,97,99,101,103,-1,-1,105,-1,-1,-1,-1,-1,-1,-1,-1,-1,-1,-1,-1,-1,-1,-1,-1,-1,-1,-1,-1,-1,-1,-1,-1,-1,-1,-1,-1,-1,-1,-1,-1,-1,-1,-1,-1,-1,-1,-1,-1,-1,-1,-1,-1,-1,-1,-1,-1,-1,-1],"loss_changes":[9.432975E11,1.5717292E11,2.4083399E11,3.4962506E10,1.5944954E10,5.48729E10,2.5026101E10,1.8694259E10,5.015041E9,1.3415625E10,2.2360637E9,2.196036E10,2.8644737E10,1.3629391E10,2.25783E9,1.2196037E10,4.6050796E9,1.4242025E9,7.553444E8,1.0143396E10,3.5478118E9,4.970117E8,9.091932E8,1.1871691E10,8.694252E9,1.1324932E10,6.9148836E9,1.049482E10,1.0056499E8,0E0,0E0,3.1951217E9,4.492837E9,1.6356324E9,2.0450632E9,2.9639168E8,5.128098E8,3.2373456E8,9.5975936E8,2.9699466E9,5.0722345E9,9.638843E8,1.3249597E9,3.535253E7,1.9604698E8,2.912604E8,2.2908826E8,8.345092E9,1.3096755E9,8.558248E9,1.5436882E9,3.4924626E9,1.312448E8,4.759675E9,0E0,0E0,5.47029E9,0E0,0E0,0E0,0E0,0E0,0E0,0E0,0E0,0E0,0E0,0E0,0E0,0E0,0E0,0E0,0E0,0E0,0E0,0E0,0E0,0E0,0E0,0E0,0E0,0E0,0E0,0E0,0E0,0E0,0E0,0E0,0E0,0E0,0E0,0E0,0E0,0E0,0E0,0E0,0E0,0E0,0E0,0E0,0E0,0E0,0E0,0E0,0E0,0E0,0E0],"parents":[2147483647,0,0,1,1,2,2,3,3,4,4,5,5,6,6,7,7,8,8,9,9,10,10,11,11,12,12,13,13,14,14,15,15,16,16,17,17,18,18,19,19,20,20,21,21,22,22,23,23,24,24,25,25,26,26,27,27,28,28,31,31,32,32,33,33,34,34,35,35,36,36,37,37,38,38,39,39,40,40,41,41,42,42,43,43,44,44,45,45,46,46,47,47,48,48,49,49,50,50,51,51,52,52,53,53,56,56],"right_children":[2,4,6,8,10,12,14,16,18,20,22,24,26,28,30,32,34,36,38,40,42,44,46,48,50,52,54,56,58,-1,-1,60,62,64,66,68,70,72,74,76,78,80,82,84,86,88,90,92,94,96,98,100,102,104,-1,-1,106,-1,-1,-1,-1,-1,-1,-1,-1,-1,-1,-1,-1,-1,-1,-1,-1,-1,-1,-1,-1,-1,-1,-1,-1,-1,-1,-1,-1,-1,-1,-1,-1,-1,-1,-1,-1,-1,-1,-1,-1,-1,-1,-1,-1,-1,-1,-1,-1,-1,-1],"split_conditions":[9E3,7.2E4,1.55E4,2E0,2E0,1.25E4,2E0,5.7E4,5.84E4,9.86E4,7.7E4,1E0,1E0,2.1E4,1.9E1,1E0,1E0,1E0,2E0,1E0,2E0,3.4E1,2E0,1.372E5,2E0,4.3E1,1.786E5,2.5E1,2.1E1,1.1813977E3,7.503488E3,2E0,1E0,1E0,1E0,2E0,5.6E1,1.4E1,1.8E1,1E0,1E0,1E0,1.059E5,2.5E1,5.2E1,8.5E3,1E4,6.3E4,1E0,1E0,1.9E1,4E1,1E4,2E0,8.413946E3,4.891531E3,3.2E1,1.9617229E4,5.507394E3,-8.3043097E2,-1.4830048E2,-1.400694E3,-1.043246E3,-2.0101445E2,4.7936386E2,-8.275739E2,-2.6776706E2,-3.3547845E2,-4.4706676E1,1.862641E2,8.042951E2,-5.6254242E1,9.0663684E2,1.5749986E2,1.7090547E3,7.72615E2,-1.1229825E1,2.0072744E3,8.439963E2,1.7876625E3,1.5866267E2,1.8508895E3,3.3466758E3,-2.2709375E1,6.068603E2,7.5384064E2,2.6617964E3,4.245471E3,1.8759957E3,8.270192E2,2.6114902E3,-3.8191994E1,2.1337449E3,7.0354767E2,5.302001E3,4.270847E3,2.539572E3,8.57768E2,5.9343438E3,1.1050498E4,3.6243638E3,2.9137703E3,6.2265155E2,5.368395E3,3.2759988E3,1.3842713E4,7.7405312E3],"split_indices":[8,10,8,2,2,8,3,10,10,10,10,12,9,8,4,2,2,12,3,12,3,7,11,10,2,4,10,4,5,0,0,12,12,12,12,14,4,5,7,2,2,0,10,4,4,8,1,10,5,2,4,7,1,3,0,0,4,0,0,0,0,0,0,0,0,0,0,0,0,0,0,0,0,0,0,0,0,0,0,0,0,0,0,0,0,0,0,0,0,0,0,0,0,0,0,0,0,0,0,0,0,0,0,0,0,0,0],"split_type":[0,0,0,0,0,0,0,0,0,0,0,0,0,0,0,0,0,0,0,0,0,0,0,0,0,0,0,0,0,0,0,0,0,0,0,0,0,0,0,0,0,0,0,0,0,0,0,0,0,0,0,0,0,0,0,0,0,0,0,0,0,0,0,0,0,0,0,0,0,0,0,0,0,0,0,0,0,0,0,0,0,0,0,0,0,0,0,0,0,0,0,0,0,0,0,0,0,0,0,0,0,0,0,0,0,0,0],"sum_hessian":[4E3,3.435E3,5.65E2,2.959E3,4.76E2,5.13E2,5.2E1,2.67E3,2.89E2,4.34E2,4.2E1,4.29E2,8.4E1,2.8E1,2.4E1,2.257E3,4.13E2,2.47E2,4.2E1,3.81E2,5.3E1,9E0,3.3E1,2.81E2,1.48E2,1.7E1,6.7E1,2.3E1,5E0,1E0,2.3E1,7.5E2,1.507E3,1.41E2,2.72E2,1.41E2,1.06E2,1.3E1,2.9E1,2.18E2,1.63E2,1.4E1,3.9E1,5E0,4E0,1.7E1,1.6E1,2.68E2,1.3E1,1.29E2,1.9E1,1.4E1,3E0,6.3E1,4E0,5E0,1.8E1,4E0,1E0,6.73E2,7.7E1,8.95E2,6.12E2,7.8E1,6.3E1,1.6E2,1.12E2,7.6E1,6.5E1,9.1E1,1.5E1,6E0,7E0,5E0,2.4E1,7.1E1,1.47E2,6.1E1,1.02E2,6E0,8E0,1.4E1,2.5E1,1E0,4E0,2E0,2E0,1.4E1,3E0,2E0,1.4E1,1.9E1,2.49E2,1E0,1.2E1,5.6E1,7.3E1,1E0,1.8E1,1.2E1,2E0,2E0,1E0,2.1E1,4.2E1,1E1,8E0],"tree_param":{"num_deleted":"0","num_feature":"15","num_nodes":"107","size_leaf_vector":"1"}},{"base_weights":[2.9298233E2,-4.9859194E3,3.6930492E4,-7.7924673E3,1.0435914E4,3.0237174E4,9.331632E4,-8.811235E3,1.6176061E3,6.643104E3,1.7963559E4,1.0954504E4,3.506756E4,1.1362282E5,6.602813E4,-9.82981E3,-3.234539E3,-1.0520118E2,9.889185E3,2.2730112E3,1.2030529E4,1.5120177E4,3.3516047E4,8.138679E2,1.3942384E4,3.1253898E4,5.5280277E4,9.533454E4,1.6783883E4,1.1223281E3,6.784403E4,-6.847511E3,-1.1308507E4,9.399335E2,-5.3940283E3,-7.7061334E2,5.9433423E3,6.50923E3,1.3573948E4,1.1330978E3,1.7336643E4,1.0287895E4,2.4512969E4,1.3228458E4,3.6403137E4,3.455086E4,3.3054807E2,-7.264453E3,8.1511733E3,7.1481084E3,1.9654568E4,2.7025426E4,5.092895E4,3.898988E4,8.4951586E4,4.483904E3,1.06262875E5,4.0608826E3,7.287388E4,-8.258488E2,-4.303295E2,-1.2607806E3,-9.39092E2,-1.8116734E2,4.3217618E2,-7.453309E2,-2.4122746E2,-6.2091315E2,-2.2015617E1,9.206667E2,-5.3810767E2,7.4151746E2,-3.5120285E2,3.398457E2,1.621167E3,5.672454E2,-1.0035778E2,6.346508E2,2.2737104E3,1.573682E3,6.384665E2,3.574541E3,1.657912E3,2.2475054E3,8.7532355E2,9.102052E2,4.095315E3,3.717548E3,1.9606205E3,2.1132898E3,-1.2217479E3,-8.358219E2,1.0411865E3,-7.245893E2,1.1148253E3,2.435767E3,5.8962585E2,3.5365215E3,2.071439E3,1.7576039E3,6.1329243E3,1.7689218E3,4.2430967E3,9.365918E3,4.183849E3,1.2133179E4,6.309735E3,1.6950016E3,7.50391E3],"categories":[],"categories_nodes":[],"categories_segments":[],"categories_sizes":[],"default_left":[0,0,0,0,0,0,0,0,0,0,0,0,0,0,0,0,0,0,0,0,0,0,0,0,0,0,0,0,0,0,0,0,0,0,0,0,0,0,0,0,0,0,0,0,0,0,0,0,0,0,0,0,0,0,0,0,0,0,0,0,0,0,0,0,0,0,0,0,0,0,0,0,0,0,0,0,0,0,0,0,0,0,0,0,0,0,0,0,0,0,0,0,0,0,0,0,0,0,0,0,0,0,0,0,0,0,0,0,0],"id":10,"left_children":[1,3,5,7,9,11,13,15,17,19,21,23,25,27,29,31,33,35,37,39,41,43,45,47,49,51,53,55,-1,-1,57,59,61,63,65,67,69,71,73,75,77,79,81,83,85,87,-1,89,91,93,95,97,99,101,103,-1,105,-1,107,-1,-1,-1,-1,-1,-1,-1,-1,-1,-1,-1,-1,-1,-1,-1,-1,-1,-1,-1,-1,-1,-1,-1,-1,-1,-1,-1,-1,-1,-1,-1,-1,-1,-1,-1,-1,-1,-1,-1,-1,-1,-1,-1,-1,-1,-1,-1,-1,-1,-1],"loss_changes":[7.740008E11,1.5148217E11,1.8739213E11,2.8390818E10,1.5269609E10,4.171635E10,2.186648E10,1.5140258E10,4.1336374E9,8.448334E9,7.453131E9,2.7761613E9,2.6099745E10,1.2753142E10,1.7265705E9,9.880142E9,3.7371674E9,9.7455066E8,5.343611E8,3.4146035E9,3.2499384E9,5.718692E9,7.298744E8,1.3632221E9,2.6150277E9,2.4081433E10,2.3755768E10,8.4792443E9,0E0,0E0,3.2841728E8,2.6604216E9,3.6388209E9,1.3292054E9,1.6583132E9,6.512533E8,9.3646803E8,2.802459E8,5.622282E8,1.8194304E9,6.86624E8,2.9409085E9,1.100586E9,5.7206927E9,1.1178865E9,2.909532E8,0E0,1.8053714E9,5.348965E8,2.038434E9,2.3152353E9,1.2636144E10,1.7306714E10,2.0347372E9,3.214254E9,0E0,4.7029617E9,0E0,1.028735E9,0E0,0E0,0E0,0E0,0E0,0E0,0E0,0E0,0E0,0E0,0E0,0E0,0E0,0E0,0E0,0E0,0E0,0E0,0E0,0E0,0E0,0E0,0E0,0E0,0E0,0E0,0E0,0E0,0E0,0E0,0E0,0E0,0E0,0E0,0E0,0E0,0E0,0E0,0E0,0E0,0E0,0E0,0E0,0E0,0E0,0E0,0E0,0E0,0E0,0E0],"parents":[2147483647,0,0,1,1,2,2,3,3,4,4,5,5,6,6,7,7,8,8,9,9,10,10,11,11,12,12,13,13,14,14,15,15,16,16,17,17,18,18,19,19,20,20,21,21,22,22,23,23,24,24,25,25,26,26,27,27,30,30,31,31,32,32,33,33,34,34,35,35,36,36,37,37,38,38,39,39,40,40,41,41,42,42,43,43,44,44,45,45,47,47,48,48,49,49,50,50,51,51,52,52,53,53,54,54,56,56,58,58],"right_children":[2,4,6,8,10,12,14,16,18,20,22,24,26,28,30,32,34,36,38,40,42,44,46,48,50,52,54,56,-1,-1,58,60,62,64,66,68,70,72,74,76,78,80,82,84,86,88,-1,90,92,94,96,98,100,102,104,-1,106,-1,108,-1,-1,-1,-1,-1,-1,-1,-1,-1,-1,-1,-1,-1,-1,-1,-1,-1,-1,-1,-1,-1,-1,-1,-1,-1,-1,-1,-1,-1,-1,-1,-1,-1,-1,-1,-1,-1,-1,-1,-1,-1,-1,-1,-1,-1,-1,-1,-1,-1,-1],"split_conditions":[9.5E3,7.2E4,1.55E4,2E0,9.14E4,7.06E4,2E0,5.7E4,5.61E4,1E0,2E0,2E0,2E0,2.1E4,1.9E1,1E0,1E0,2E0,1E0,2E0,2E0,2E0,1.2E1,1E0,2.8E1,5E4,1.1E4,2.5E1,1.6783883E4,1.1223281E3,1.65E4,1E0,1E0,1E0,1E0,1E0,4.1E1,6.85E4,3.1E1,1E0,7.7E4,1E0,1E0,1E0,5E0,3E0,3.3054807E2,6E0,1E0,6.21E4,3.7E1,1E0,8.6E4,3E0,4.6E1,4.483904E3,3.3E1,4.0608826E3,4E0,-8.258488E2,-4.303295E2,-1.2607806E3,-9.39092E2,-1.8116734E2,4.3217618E2,-7.453309E2,-2.4122746E2,-6.2091315E2,-2.2015617E1,9.206667E2,-5.3810767E2,7.4151746E2,-3.5120285E2,3.398457E2,1.621167E3,5.672454E2,-1.0035778E2,6.346508E2,2.2737104E3,1.573682E3,6.384665E2,3.574541E3,1.657912E3,2.2475054E3,8.7532355E2,9.102052E2,4.095315E3,3.717548E3,1.9606205E3,2.1132898E3,-1.2217479E3,-8.358219E2,1.0411865E3,-7.245893E2,1.1148253E3,2.435767E3,5.8962585E2,3.5365215E3,2.071439E3,1.7576039E3,6.1329243E3,1.7689218E3,4.2430967E3,9.365918E3,4.183849E3,1.2133179E4,6.309735E3,1.6950016E3,7.50391E3],"split_indices":[8,10,8,2,10,10,3,10,10,12,12,5,2,8,4,2,2,12,12,2,2,2,13,3,4,1,8,4,0,0,8,12,12,12,12,9,7,10,4,2,10,2,0,2,13,9,0,7,13,10,4,2,10,5,7,0,4,0,5,0,0,0,0,0,0,0,0,0,0,0,0,0,0,0,0,0,0,0,0,0,0,0,0,0,0,0,0,0,0,0,0,0,0,0,0,0,0,0,0,0,0,0,0,0,0,0,0,0,0],"split_type":[0,0,0,0,0,0,0,0,0,0,0,0,0,0,0,0,0,0,0,0,0,0,0,0,0,0,0,0,0,0,0,0,0,0,0,0,0,0,0,0,0,0,0,0,0,0,0,0,0,0,0,0,0,0,0,0,0,0,0,0,0,0,0,0,0,0,0,0,0,0,0,0,0,0,0,0,0,0,0,0,0,0,0,0,0,0,0,0,0,0,0,0,0,0,0,0,0,0,0,0,0,0,0,0,0,0,0,0,0],"sum_hessian":[4E3,3.497E3,5.03E2,2.959E3,5.38E2,4.51E2,5.2E1,2.67E3,2.89E2,3.59E2,1.79E2,9.1E1,3.6E2,2.8E1,2.4E1,2.257E3,4.13E2,2.4E2,4.9E1,1.99E2,1.6E2,1.53E2,2.6E1,2.1E1,7E1,3.05E2,5.5E1,2.3E1,5E0,1E0,2.3E1,7.5E2,1.507E3,1.41E2,2.72E2,2.17E2,2.3E1,2.7E1,2.2E1,1.86E2,1.3E1,1.42E2,1.8E1,1.42E2,1.1E1,2.5E1,1E0,1E1,1.1E1,3.3E1,3.7E1,2.53E2,5.2E1,3.7E1,1.8E1,5E0,1.8E1,5E0,1.8E1,4.81E2,2.69E2,8.95E2,6.12E2,7.8E1,6.3E1,1.6E2,1.12E2,1.9E1,1.98E2,1.8E1,5E0,2.5E1,2E0,5E0,1.7E1,5.9E1,1.27E2,5E0,8E0,5.8E1,8.4E1,6E0,1.2E1,4.5E1,9.7E1,2E0,9E0,2E1,5E0,1E0,9E0,1E0,1E1,7E0,2.6E1,2.7E1,1E1,1.07E2,1.46E2,1.3E1,3.9E1,6E0,3.1E1,1.4E1,4E0,1.2E1,6E0,1E0,1.7E1],"tree_param":{"num_deleted":"0","num_feature":"15","num_nodes":"109","size_leaf_vector":"1"}},{"base_weights":[2.923082E2,-4.4807925E3,3.341932E4,-7.0139297E3,9.438627E3,2.7296584E4,8.500531E4,-7.93168E3,1.4630563E3,6.0088496E3,1.6245743E4,2.287924E4,4.609995E4,1.03629875E5,6.000061E4,-8.773277E3,-2.398477E3,2.7667433E1,9.707553E3,4.612254E3,2.0179824E4,1.3660942E4,3.0386988E4,9.908103E3,2.7104746E4,7.820334E4,3.692405E4,1.3466342E5,7.7183625E4,1.0662118E3,6.1612125E4,-6.082682E3,-1.01025E4,1.3586177E3,-4.404889E3,-1.7736392E3,2.417928E3,3.9171836E3,1.2086141E4,1.02228656E3,9.274573E3,1.1140041E4,2.323278E4,1.1927452E4,3.3179953E4,3.1314164E4,3.1402072E2,7.240902E3,1.9774668E4,2.1409475E4,3.5953223E4,9.796743E4,4.1252305E4,2.0472535E4,4.2885406E4,1.4523858E4,5.4525083E3,4.530267E4,9.335308E4,3.722476E4,6.607066E4,-6.700932E2,-6.7424385E1,-1.0592991E3,-5.554736E2,2.5193264E1,7.4612494E2,-6.442037E2,-1.2570038E2,-2.5328711E2,6.1980938E1,-3.2989377E2,3.1073495E2,-9.938036E1,7.7246497E2,5.3260284E1,1.4375544E3,5.1146652E2,-9.040025E1,1.4189812E3,5.753708E2,3.7107214E2,1.7827216E3,2.3953022E3,3.6937424E2,2.027641E3,7.886845E2,8.49525E2,3.7267368E3,3.288909E3,1.4429794E3,-7.781345E2,9.987347E2,7.801324E2,2.4700725E3,7.0239386E2,2.467072E3,4.2713696E3,2.4897778E3,2.9882104E3,1.0977727E4,1.1922573E3,4.904179E3,-1.3595157E2,2.2973845E3,6.365489E3,3.5927722E3,4.980951E3,6.8773987E2,2.2223037E3,1.0669053E4,4.030927E3,1.0901117E3,1.6102516E3,6.795208E3],"categories":[],"categories_nodes":[],"categories_segments":[],"categories_sizes":[],"default_left":[0,0,0,0,0,0,0,0,0,0,0,0,0,0,0,0,0,0,0,0,0,0,0,0,0,0,0,0,0,0,0,0,0,0,0,0,0,0,0,0,0,0,0,0,0,0,0,0,0,0,0,0,0,0,0,0,0,0,0,0,0,0,0,0,0,0,0,0,0,0,0,0,0,0,0,0,0,0,0,0,0,0,0,0,0,0,0,0,0,0,0,0,0,0,0,0,0,0,0,0,0,0,0,0,0,0,0,0,0,0,0,0,0,0,0],"id":11,"left_children":[1,3,5,7,9,11,13,15,17,19,21,23,25,27,29,31,33,35,37,39,41,43,45,47,49,51,53,55,57,-1,59,61,63,65,67,69,71,73,75,77,79,81,83,85,87,89,-1,91,93,95,97,99,101,103,105,-1,-1,107,109,111,113,-1,-1,-1,-1,-1,-1,-1,-1,-1,-1,-1,-1,-1,-1,-1,-1,-1,-1,-1,-1,-1,-1,-1,-1,-1,-1,-1,-1,-1,-1,-1,-1,-1,-1,-1,-1,-1,-1,-1,-1,-1,-1,-1,-1,-1,-1,-1,-1,-1,-1,-1,-1,-1,-1],"loss_changes":[6.327822E11,1.2340499E11,1.5686677E11,2.3039689E10,1.2486353E10,3.648884E10,1.846431E10,1.2417073E10,3.4316083E9,7.03173E9,6.1643E9,1.9901383E10,2.2151496E10,1.3407093E10,1.3308232E9,8.228651E9,2.6745364E9,1.07207526E9,5.4489114E8,5.4971807E9,6.243236E8,4.8149934E9,5.837558E8,2.2778952E9,1.3189513E10,9.104073E9,5.791015E9,2.2505718E9,5.049811E9,0E0,1.5010202E8,2.5668383E9,3.3986314E9,8.355779E8,1.4732375E9,2.5960982E8,4.319732E8,2.694546E8,7.858642E8,1.478764E9,2.3930993E9,4.306597E8,2.3519744E8,4.6641684E9,8.9416294E8,2.1680128E8,0E0,3.1307914E9,9.279483E8,7.84914E9,6.933725E9,5.564457E9,1.2430019E9,1.1234079E9,4.793893E9,0E0,0E0,1.04285184E9,8.064639E9,4.77568E7,6.92011E8,0E0,0E0,0E0,0E0,0E0,0E0,0E0,0E0,0E0,0E0,0E0,0E0,0E0,0E0,0E0,0E0,0E0,0E0,0E0,0E0,0E0,0E0,0E0,0E0,0E0,0E0,0E0,0E0,0E0,0E0,0E0,0E0,0E0,0E0,0E0,0E0,0E0,0E0,0E0,0E0,0E0,0E0,0E0,0E0,0E0,0E0,0E0,0E0,0E0,0E0,0E0,0E0,0E0,0E0],"parents":[2147483647,0,0,1,1,2,2,3,3,4,4,5,5,6,6,7,7,8,8,9,9,10,10,11,11,12,12,13,13,14,14,15,15,16,16,17,17,18,18,19,19,20,20,21,21,22,22,23,23,24,24,25,25,26,26,27,27,28,28,30,30,31,31,32,32,33,33,34,34,35,35,36,36,37,37,38,38,39,39,40,40,41,41,42,42,43,43,44,44,45,45,47,47,48,48,49,49,50,50,51,51,52,52,53,53,54,54,57,57,58,58,59,59,60,60],"right_children":[2,4,6,8,10,12,14,16,18,20,22,24,26,28,30,32,34,36,38,40,42,44,46,48,50,52,54,56,58,-1,60,62,64,66,68,70,72,74,76,78,80,82,84,86,88,90,-1,92,94,96,98,100,102,104,106,-1,-1,108,110,112,114,-1,-1,-1,-1,-1,-1,-1,-1,-1,-1,-1,-1,-1,-1,-1,-1,-1,-1,-1,-1,-1,-1,-1,-1,-1,-1,-1,-1,-1,-1,-1,-1,-1,-1,-1,-1,-1,-1,-1,-1,-1,-1,-1,-1,-1,-1,-1,-1,-1,-1,-1,-1,-1,-1],"split_conditions":[9.5E3,7.2E4,1.55E4,2E0,9.14E4,1.25E4,2E0,5.88E4,5.84E4,2E0,2E0,7.06E4,1E0,5E0,1.9E1,1E0,1E0,1E0,2E0,1E0,7.7E4,2E0,1.2E1,1E0,1E0,3.5E1,1E4,1.2E1,2E0,1.0662118E3,1.65E4,2E0,2E0,2E0,1E0,4.5E1,1E0,1.4E1,1.8E1,1E0,1E0,3.4E1,1.2E1,1E0,5E0,4.9E1,3.1402072E2,6.21E4,2E4,1E4,4E1,2.3E1,1E0,1E0,1E0,1.4523858E4,5.4525083E3,2E0,2.5E1,9E0,4E0,-6.700932E2,-6.7424385E1,-1.0592991E3,-5.554736E2,2.5193264E1,7.4612494E2,-6.442037E2,-1.2570038E2,-2.5328711E2,6.1980938E1,-3.2989377E2,3.1073495E2,-9.938036E1,7.7246497E2,5.3260284E1,1.4375544E3,5.1146652E2,-9.040025E1,1.4189812E3,5.753708E2,3.7107214E2,1.7827216E3,2.3953022E3,3.6937424E2,2.027641E3,7.886845E2,8.49525E2,3.7267368E3,3.288909E3,1.4429794E3,-7.781345E2,9.987347E2,7.801324E2,2.4700725E3,7.0239386E2,2.467072E3,4.2713696E3,2.4897778E3,2.9882104E3,1.0977727E4,1.1922573E3,4.904179E3,-1.3595157E2,2.2973845E3,6.365489E3,3.5927722E3,4.980951E3,6.8773987E2,2.2223037E3,1.0669053E4,4.030927E3,1.0901117E3,1.6102516E3,6.795208E3],"split_indices":[8,10,8,2,10,8,3,10,10,2,12,10,9,5,4,2,2,12,3,12,10,2,13,2,12,4,1,13,14,0,8,12,12,12,12,7,9,5,7,2,2,7,13,2,13,4,0,10,1,1,4,4,11,13,2,0,0,9,4,5,5,0,0,0,0,0,0,0,0,0,0,0,0,0,0,0,0,0,0,0,0,0,0,0,0,0,0,0,0,0,0,0,0,0,0,0,0,0,0,0,0,0,0,0,0,0,0,0,0,0,0,0,0,0,0],"split_type":[0,0,0,0,0,0,0,0,0,0,0,0,0,0,0,0,0,0,0,0,0,0,0,0,0,0,0,0,0,0,0,0,0,0,0,0,0,0,0,0,0,0,0,0,0,0,0,0,0,0,0,0,0,0,0,0,0,0,0,0,0,0,0,0,0,0,0,0,0,0,0,0,0,0,0,0,0,0,0,0,0,0,0,0,0,0,0,0,0,0,0,0,0,0,0,0,0,0,0,0,0,0,0,0,0,0,0,0,0,0,0,0,0,0,0],"sum_hessian":[4E3,3.497E3,5.03E2,2.959E3,5.38E2,4.51E2,5.2E1,2.67E3,2.89E2,3.59E2,1.79E2,3.67E2,8.4E1,2.8E1,2.4E1,2.317E3,3.53E2,2.47E2,4.2E1,3.28E2,3.1E1,1.53E2,2.6E1,9.1E1,2.76E2,1.7E1,6.7E1,1.1E1,1.7E1,1E0,2.3E1,7.68E2,1.549E3,1.23E2,2.3E2,1.41E2,1.06E2,1.3E1,2.9E1,1.86E2,1.42E2,9E0,2.2E1,1.42E2,1.1E1,2.5E1,1E0,7.3E1,1.8E1,1.7E2,1.06E2,1E1,7E0,1.9E1,4.8E1,9E0,2E0,7E0,1E1,5E0,1.8E1,6.89E2,7.9E1,1.397E3,1.52E2,1.05E2,1.8E1,1.39E2,9.1E1,1.07E2,3.4E1,1.1E1,9.5E1,6E0,7E0,5E0,2.4E1,5.9E1,1.27E2,5.8E1,8.4E1,5E0,4E0,2.1E1,1E0,4.5E1,9.7E1,2E0,9E0,2.2E1,3E0,1.1E1,6.2E1,6E0,1.2E1,3.2E1,1.38E2,6.4E1,4.2E1,2E0,8E0,2E0,5E0,2E0,1.7E1,1E1,3.8E1,6E0,1E0,2E0,8E0,4E0,1E0,1E0,1.7E1],"tree_param":{"num_deleted":"0","num_feature":"15","num_nodes":"115","size_leaf_vector":"1"}},{"base_weights":[2.92591E2,-3.8028394E3,3.1982357E4,-6.312672E3,8.902983E3,2.5960682E4,7.750722E4,-7.1393936E3,1.323487E3,4.8422173E3,1.4212598E4,1.2936007E4,3.2473348E4,6.6874484E4,1.2205896E5,-7.971933E3,-2.5813877E3,2.4052483E1,8.787121E3,2.3542437E3,1.1742209E4,1.1875902E4,2.8427562E4,9.630381E3,2.2666863E4,2.7925049E4,5.9507047E4,1.0670538E5,5.801062E4,1.3861473E5,4.27425E3,-5.557022E3,-9.169298E3,8.10948E2,-4.3364434E3,-1.5976218E3,2.1759563E3,2.803077E3,1.0756541E4,1.3668896E3,1.5574078E4,-8.545124E3,1.3067291E4,1.0122038E4,2.4505656E4,7.888892E3,3.0823232E4,-7.068056E3,1.1681465E4,6.816799E3,2.7281623E4,2.3626924E4,5.8549645E4,7.749542E4,4.125477E4,2.2487039E3,1.1699394E4,4.7541438E4,7.330978E4,1.4790458E4,4.1437827E3,-6.7656464E2,-3.378822E2,-1.0290319E3,-7.5157855E2,-1.5520654E2,3.7151218E2,-6.018266E2,-1.9018439E2,-4.1045703E2,-8.60505E1,-9.485832E1,3.4056284E2,3.9820312E1,9.884964E2,1.9758327E2,1.2706864E3,5.2314056E2,-4.272659E1,5.0378595E2,1.9544348E3,-1.0704955E3,-2.816974E2,9.67561E2,2.0130762E3,1.5991307E3,6.527132E2,3.1869114E3,1.4690729E3,9.066485E1,1.2241505E3,3.2611108E3,1.0602308E3,-1.0695781E3,1.6418461E3,1.436077E3,5.859603E2,9.566524E1,1.3902819E3,3.9660312E2,2.9059338E3,3.452481E3,1.7124127E3,6.358355E3,1.2450328E3,1.0330914E3,8.083858E3,3.1729922E3,6.5388296E3,5.6027437E3,2.5287063E3,2.0217391E3,7.583863E3],"categories":[],"categories_nodes":[],"categories_segments":[],"categories_sizes":[],"default_left":[0,0,0,0,0,0,0,0,0,0,0,0,0,0,0,0,0,0,0,0,0,0,0,0,0,0,0,0,0,0,0,0,0,0,0,0,0,0,0,0,0,0,0,0,0,0,0,0,0,0,0,0,0,0,0,0,0,0,0,0,0,0,0,0,0,0,0,0,0,0,0,0,0,0,0,0,0,0,0,0,0,0,0,0,0,0,0,0,0,0,0,0,0,0,0,0,0,0,0,0,0,0,0,0,0,0,0,0,0,0,0,0,0],"id":12,"left_children":[1,3,5,7,9,11,13,15,17,19,21,23,25,27,29,31,33,35,37,39,41,43,45,47,49,51,53,55,57,59,-1,61,63,65,67,69,71,73,75,77,79,81,83,85,87,89,91,93,95,97,99,101,103,105,107,-1,-1,109,111,-1,-1,-1,-1,-1,-1,-1,-1,-1,-1,-1,-1,-1,-1,-1,-1,-1,-1,-1,-1,-1,-1,-1,-1,-1,-1,-1,-1,-1,-1,-1,-1,-1,-1,-1,-1,-1,-1,-1,-1,-1,-1,-1,-1,-1,-1,-1,-1,-1,-1,-1,-1,-1,-1],"loss_changes":[5.1938433E11,1.1307254E11,1.2354211E11,1.8695856E10,1.2544422E10,3.4018984E10,1.6943841E10,1.0115121E10,2.8123548E9,5.688966E9,8.0660603E9,4.1885307E9,3.1536775E10,9.697444E9,5.8935706E9,6.4781353E9,2.4683638E9,8.6891866E8,4.766075E8,3.1896655E9,2.477311E9,4.6029906E9,1.4789734E9,3.6445542E9,2.30093E9,2.928604E10,9.279431E9,3.4345452E9,2.7613676E9,1.90464E8,0E0,1.9542426E9,2.7179172E9,9.8025555E8,1.10637E9,2.5887184E8,4.1434157E8,2.0043629E8,5.2290022E8,1.59695E9,6.1267584E8,4.4075456E7,1.7936579E9,3.9889203E9,1.4108877E9,1.4085632E8,7.7497344E8,1.1980398E9,1.3665167E9,3.604258E8,9.624105E8,1.4007337E10,5.706023E9,3.206611E9,2.752467E9,0E0,0E0,3.4933473E9,3.464151E8,0E0,0E0,0E0,0E0,0E0,0E0,0E0,0E0,0E0,0E0,0E0,0E0,0E0,0E0,0E0,0E0,0E0,0E0,0E0,0E0,0E0,0E0,0E0,0E0,0E0,0E0,0E0,0E0,0E0,0E0,0E0,0E0,0E0,0E0,0E0,0E0,0E0,0E0,0E0,0E0,0E0,0E0,0E0,0E0,0E0,0E0,0E0,0E0,0E0,0E0,0E0,0E0,0E0,0E0],"parents":[2147483647,0,0,1,1,2,2,3,3,4,4,5,5,6,6,7,7,8,8,9,9,10,10,11,11,12,12,13,13,14,14,15,15,16,16,17,17,18,18,19,19,20,20,21,21,22,22,23,23,24,24,25,25,26,26,27,27,28,28,29,29,31,31,32,32,33,33,34,34,35,35,36,36,37,37,38,38,39,39,40,40,41,41,42,42,43,43,44,44,45,45,46,46,47,47,48,48,49,49,50,50,51,51,52,52,53,53,54,54,57,57,58,58],"right_children":[2,4,6,8,10,12,14,16,18,20,22,24,26,28,30,32,34,36,38,40,42,44,46,48,50,52,54,56,58,60,-1,62,64,66,68,70,72,74,76,78,80,82,84,86,88,90,92,94,96,98,100,102,104,106,108,-1,-1,110,112,-1,-1,-1,-1,-1,-1,-1,-1,-1,-1,-1,-1,-1,-1,-1,-1,-1,-1,-1,-1,-1,-1,-1,-1,-1,-1,-1,-1,-1,-1,-1,-1,-1,-1,-1,-1,-1,-1,-1,-1,-1,-1,-1,-1,-1,-1,-1,-1,-1,-1,-1,-1,-1,-1],"split_conditions":[1E4,7.2E4,1.55E4,2E0,1E0,8.05E4,2.2E4,5.7E4,5.84E4,9.76E4,9.99E4,1E0,5E4,1E0,2E0,1E0,1E0,1E0,1E0,2E0,3E0,2E0,3E0,6.21E4,2E0,2E0,1E0,2.2E1,1E0,2.1E1,4.27425E3,1E0,1E0,1E0,1E0,7E0,1E4,1.2E1,1.8E1,1E0,7.7E4,3.8E1,2E0,1E0,2E0,2E0,5.5E1,3.3E1,1E0,2.7E1,2E1,1E0,4.3E1,8.6E4,2E0,2.2487039E3,1.1699394E4,2E0,2E1,1.4790458E4,4.1437827E3,-6.7656464E2,-3.378822E2,-1.0290319E3,-7.5157855E2,-1.5520654E2,3.7151218E2,-6.018266E2,-1.9018439E2,-4.1045703E2,-8.60505E1,-9.485832E1,3.4056284E2,3.9820312E1,9.884964E2,1.9758327E2,1.2706864E3,5.2314056E2,-4.272659E1,5.0378595E2,1.9544348E3,-1.0704955E3,-2.816974E2,9.67561E2,2.0130762E3,1.5991307E3,6.527132E2,3.1869114E3,1.4690729E3,9.066485E1,1.2241505E3,3.2611108E3,1.0602308E3,-1.0695781E3,1.6418461E3,1.436077E3,5.859603E2,9.566524E1,1.3902819E3,3.9660312E2,2.9059338E3,3.452481E3,1.7124127E3,6.358355E3,1.2450328E3,1.0330914E3,8.083858E3,3.1729922E3,6.5388296E3,5.6027437E3,2.5287063E3,2.0217391E3,7.583863E3],"split_indices":[8,10,8,2,12,10,8,10,10,10,10,2,1,3,9,2,2,12,14,2,13,2,5,10,5,2,2,4,12,5,0,12,12,12,12,5,1,13,7,2,10,4,11,2,11,3,4,4,9,7,4,2,4,10,2,0,0,9,4,0,0,0,0,0,0,0,0,0,0,0,0,0,0,0,0,0,0,0,0,0,0,0,0,0,0,0,0,0,0,0,0,0,0,0,0,0,0,0,0,0,0,0,0,0,0,0,0,0,0,0,0,0,0],"split_type":[0,0,0,0,0,0,0,0,0,0,0,0,0,0,0,0,0,0,0,0,0,0,0,0,0,0,0,0,0,0,0,0,0,0,0,0,0,0,0,0,0,0,0,0,0,0,0,0,0,0,0,0,0,0,0,0,0,0,0,0,0,0,0,0,0,0,0,0,0,0,0,0,0,0,0,0,0,0,0,0,0,0,0,0,0,0,0,0,0,0,0,0,0,0,0,0,0,0,0,0,0,0,0,0,0,0,0,0,0,0,0,0,0],"sum_hessian":[4E3,3.543E3,4.57E2,2.959E3,5.84E2,4.05E2,5.2E1,2.67E3,2.89E2,3.32E2,2.52E2,1.36E2,2.69E2,4.4E1,8E0,2.257E3,4.13E2,2.47E2,4.2E1,2.45E2,8.7E1,2.18E2,3.4E1,1.03E2,3.3E1,2.32E2,3.7E1,6E0,3.8E1,6E0,2E0,7.5E2,1.507E3,1.41E2,2.72E2,1.41E2,1.06E2,1.1E1,3.1E1,2.29E2,1.6E1,5E0,8.2E1,1.93E2,2.5E1,4E0,3E1,1.1E1,9.2E1,8E0,2.5E1,2.05E2,2.7E1,1.7E1,2E1,1E0,5E0,2.5E1,1.3E1,5E0,1E0,4.81E2,2.69E2,8.95E2,6.12E2,7.8E1,6.3E1,1.6E2,1.12E2,3.1E1,1.1E2,3E1,7.6E1,9E0,2E0,6E0,2.5E1,7.2E1,1.57E2,5E0,1.1E1,3E0,2E0,5.7E1,2.5E1,7.2E1,1.21E2,1.3E1,1.2E1,2E0,2E0,2.7E1,3E0,1E1,1E0,6.2E1,3E1,5E0,3E0,2E0,2.3E1,7.5E1,1.3E2,2.4E1,3E0,1E0,1.6E1,1.6E1,4E0,1.7E1,8E0,1E0,1.2E1],"tree_param":{"num_deleted":"0","num_feature":"15","num_nodes":"113","size_leaf_vector":"1"}},{"base_weights":[2.9078955E2,-3.4180452E3,2.8989086E4,-5.535675E3,8.935261E3,2.209907E4,6.2794242E4,-6.2808037E3,1.3578447E3,7.499584E3,2.2866598E4,7.853758E3,2.65268E4,5.2872395E4,1.0027972E5,-7.1145967E3,-1.5971975E3,-1.9770789E2,7.2319897E3,5.754865E3,1.8532246E4,2.7230865E4,1.6938875E4,-6.0241016E2,1.0363362E4,2.3268414E4,4.3822242E4,4.715407E4,9.188267E4,1.3114683E5,6.5129777E4,-4.934475E3,-8.191628E3,1.7649923E3,-3.3778547E3,-7.762714E2,4.9211743E3,4.3716196E3,1.0549167E4,4.43718E3,1.8142209E4,1.1514176E4,2.5190496E4,1.6573246E4,3.394157E4,-6.0541327E2,1.8259201E4,-6.881292E3,5.203432E3,4.5668013E3,1.5277039E4,3.1171598E4,1.6259886E4,3.1587312E4,6.211581E4,3.9243902E4,8.498121E3,9.995761E3,2.1716555E3,1.4241823E4,3.1759219E3,1.6390055E3,6.9173486E3,-5.465612E2,-2.9174042E1,-8.6140576E2,-4.2782394E2,6.8379745E0,5.7484686E2,-4.7708365E2,-1.1645263E2,-4.5248218E2,-3.4835851E0,1.0275443E3,-1.2893803E2,9.5796387E2,2.2003963E2,2.0350725E2,1.277869E3,8.77998E2,1.8570793E2,1.329231E3,3.0877688E3,2.9166818E2,1.5125404E3,3.7014622E3,1.9706846E3,5.8589764E2,1.9493672E3,3.510709E3,8.8121405E2,2.5427501E2,2.0606917E3,1.8858844E3,-1.134119E3,-9.157715E2,7.3415106E2,8.629379E2,-3.6003723E2,1.9420135E3,3.3421542E2,2.3392168E3,4.901694E3,1.1061691E3,2.4400874E3,-3.077844E2,3.2935278E3,8.324901E3,3.8997664E3,5.0175503E3,2.7643809E3],"categories":[],"categories_nodes":[],"categories_segments":[],"categories_sizes":[],"default_left":[0,0,0,0,0,0,0,0,0,0,0,0,0,0,0,0,0,0,0,0,0,0,0,0,0,0,0,0,0,0,0,0,0,0,0,0,0,0,0,0,0,0,0,0,0,0,0,0,0,0,0,0,0,0,0,0,0,0,0,0,0,0,0,0,0,0,0,0,0,0,0,0,0,0,0,0,0,0,0,0,0,0,0,0,0,0,0,0,0,0,0,0,0,0,0,0,0,0,0,0,0,0,0,0,0,0,0,0,0,0,0],"id":13,"left_children":[1,3,5,7,9,11,13,15,17,19,21,23,25,27,29,31,33,35,37,39,41,43,45,47,49,51,53,55,57,59,61,63,65,67,69,71,73,75,77,79,81,83,85,87,89,-1,91,93,95,97,99,101,103,105,107,109,-1,-1,-1,-1,-1,-1,-1,-1,-1,-1,-1,-1,-1,-1,-1,-1,-1,-1,-1,-1,-1,-1,-1,-1,-1,-1,-1,-1,-1,-1,-1,-1,-1,-1,-1,-1,-1,-1,-1,-1,-1,-1,-1,-1,-1,-1,-1,-1,-1,-1,-1,-1,-1,-1,-1],"loss_changes":[4.2595444E11,9.275954E10,1.05288794E11,1.5551758E10,1.0208973E10,2.388607E10,2.3336223E10,1.0653622E10,2.7061422E9,8.978823E9,7.8050714E8,1.958634E9,1.5379694E10,9.720988E9,7.7331005E9,5.402378E9,2.4845417E9,6.9979584E8,5.421609E8,6.595453E9,2.700548E9,1.2970025E9,8.0878336E8,8.377988E8,1.9524854E9,1.3174424E10,8.1098506E9,1.3720494E10,1.7953669E9,3.318571E9,6.4004506E8,1.8947031E9,2.5255035E9,9.7281894E8,8.2997146E8,5.8905574E8,8.113201E8,3.7469306E8,5.0550067E8,4.1406986E9,1.9984302E9,9.8045184E8,1.3454172E9,2.6126976E8,1.2996403E8,0E0,7.593528E8,1.4766639E9,4.3569456E8,1.1591816E9,1.8140948E9,1.4818427E10,5.3584364E9,1.4564639E9,5.0590106E9,4.8265216E9,0E0,0E0,0E0,0E0,0E0,0E0,0E0,0E0,0E0,0E0,0E0,0E0,0E0,0E0,0E0,0E0,0E0,0E0,0E0,0E0,0E0,0E0,0E0,0E0,0E0,0E0,0E0,0E0,0E0,0E0,0E0,0E0,0E0,0E0,0E0,0E0,0E0,0E0,0E0,0E0,0E0,0E0,0E0,0E0,0E0,0E0,0E0,0E0,0E0,0E0,0E0,0E0,0E0,0E0,0E0],"parents":[2147483647,0,0,1,1,2,2,3,3,4,4,5,5,6,6,7,7,8,8,9,9,10,10,11,11,12,12,13,13,14,14,15,15,16,16,17,17,18,18,19,19,20,20,21,21,22,22,23,23,24,24,25,25,26,26,27,27,28,28,29,29,30,30,31,31,32,32,33,33,34,34,35,35,36,36,37,37,38,38,39,39,40,40,41,41,42,42,43,43,44,44,46,46,47,47,48,48,49,49,50,50,51,51,52,52,53,53,54,54,55,55],"right_children":[2,4,6,8,10,12,14,16,18,20,22,24,26,28,30,32,34,36,38,40,42,44,46,48,50,52,54,56,58,60,62,64,66,68,70,72,74,76,78,80,82,84,86,88,90,-1,92,94,96,98,100,102,104,106,108,110,-1,-1,-1,-1,-1,-1,-1,-1,-1,-1,-1,-1,-1,-1,-1,-1,-1,-1,-1,-1,-1,-1,-1,-1,-1,-1,-1,-1,-1,-1,-1,-1,-1,-1,-1,-1,-1,-1,-1,-1,-1,-1,-1,-1,-1,-1,-1,-1,-1,-1,-1,-1,-1,-1,-1],"split_conditions":[1E4,7.51E4,1.45E4,2E0,2E0,7.06E4,2E4,5.88E4,5.36E4,2E0,2E0,2E0,2E0,5E4,4E0,1E0,1E0,2E0,1E0,1.109E5,8.95E4,1E0,3E0,1E0,2.8E1,1E0,1.1E4,2E0,2E0,1.2E1,2.05E4,2E0,2E0,6.92E4,1E0,5E0,3E1,1E0,3.2E1,1E0,1.2E1,1E0,1E0,1E0,5.9E1,-6.0541327E2,1E4,6E0,1E0,2.5E1,3.7E1,1E0,1.33E5,1E0,1E0,1E0,8.498121E3,9.995761E3,2.1716555E3,1.4241823E4,3.1759219E3,1.6390055E3,6.9173486E3,-5.465612E2,-2.9174042E1,-8.6140576E2,-4.2782394E2,6.8379745E0,5.7484686E2,-4.7708365E2,-1.1645263E2,-4.5248218E2,-3.4835851E0,1.0275443E3,-1.2893803E2,9.5796387E2,2.2003963E2,2.0350725E2,1.277869E3,8.77998E2,1.8570793E2,1.329231E3,3.0877688E3,2.9166818E2,1.5125404E3,3.7014622E3,1.9706846E3,5.8589764E2,1.9493672E3,3.510709E3,8.8121405E2,2.5427501E2,2.0606917E3,1.8858844E3,-1.134119E3,-9.157715E2,7.3415106E2,8.629379E2,-3.6003723E2,1.9420135E3,3.3421542E2,2.3392168E3,4.901694E3,1.1061691E3,2.4400874E3,-3.077844E2,3.2935278E3,8.324901E3,3.8997664E3,5.0175503E3,2.7643809E3],"split_indices":[8,10,8,2,2,10,8,10,10,12,11,5,2,1,5,2,2,12,12,10,10,12,13,3,4,2,8,2,6,13,8,12,12,10,12,5,7,0,4,2,13,14,2,3,7,0,1,7,13,4,4,12,10,5,9,2,0,0,0,0,0,0,0,0,0,0,0,0,0,0,0,0,0,0,0,0,0,0,0,0,0,0,0,0,0,0,0,0,0,0,0,0,0,0,0,0,0,0,0,0,0,0,0,0,0,0,0,0,0,0,0],"split_type":[0,0,0,0,0,0,0,0,0,0,0,0,0,0,0,0,0,0,0,0,0,0,0,0,0,0,0,0,0,0,0,0,0,0,0,0,0,0,0,0,0,0,0,0,0,0,0,0,0,0,0,0,0,0,0,0,0,0,0,0,0,0,0,0,0,0,0,0,0,0,0,0,0,0,0,0,0,0,0,0,0,0,0,0,0,0,0,0,0,0,0,0,0,0,0,0,0,0,0,0,0,0,0,0,0,0,0,0,0,0,0],"sum_hessian":[4E3,3.543E3,4.57E2,3.025E3,5.18E2,3.81E2,7.6E1,2.73E3,2.95E2,4.71E2,4.7E1,9.1E1,2.9E2,6.2E1,1.4E1,2.317E3,4.13E2,2.34E2,6.1E1,4.08E2,6.3E1,2.5E1,2.2E1,2.1E1,7E1,2.46E2,4.4E1,5.6E1,6E0,6E0,8E0,7.68E2,1.549E3,1.43E2,2.7E2,2.11E2,2.3E1,3.4E1,2.7E1,3.7E2,3.8E1,3.2E1,3.1E1,1.1E1,1.4E1,1E0,2.1E1,1E1,1.1E1,3.3E1,3.7E1,1.14E2,1.32E2,2.8E1,1.6E1,4.8E1,8E0,5E0,1E0,5E0,1E0,1E0,7E0,6.89E2,7.9E1,1.397E3,1.52E2,1.01E2,4.2E1,1.65E2,1.05E2,3.4E1,1.77E2,1.2E1,1.1E1,9E0,2.5E1,6E0,2.1E1,1.37E2,2.33E2,2.9E1,9E0,1E1,2.2E1,8E0,2.3E1,3E0,8E0,1.3E1,1E0,3E0,1.8E1,1E0,9E0,1E0,1E1,2.2E1,1.1E1,2.7E1,1E1,8.1E1,3.3E1,8.2E1,5E1,1E0,2.7E1,7E0,9E0,2.3E1,2.5E1],"tree_param":{"num_deleted":"0","num_feature":"15","num_nodes":"111","size_leaf_vector":"1"}},{"base_weights":[2.883509E2,-3.651304E3,2.2538414E4,-5.5777305E3,3.7738079E3,1.5841302E4,4.958769E4,-6.25622E3,5.7715515E2,1.8214847E3,1.2499273E4,1.0897335E4,2.2988617E4,7.68558E4,3.8230676E4,-4.2541025E3,-7.257125E3,-2.5342351E2,5.3385537E3,9.080877E2,1.0973123E4,9.711901E3,2.1280957E4,6.6965757E3,1.6399172E4,1.881834E4,4.4712742E4,9.082401E4,3.424969E4,3.1601328E4,8.055793E4,-5.445697E3,-2.1207417E3,-7.674367E3,-3.5060303E3,-7.9943646E2,4.4664976E3,8.1368066E3,1.8174946E3,2.8005709E1,8.246843E3,1.9684592E4,6.1794214E3,7.7104375E3,1.8290133E4,6.800781E2,2.4424166E4,-3.190001E3,8.160521E3,1.3494782E4,2.504977E4,1.3318963E4,2.6248633E4,5.7435543E4,3.3654363E4,9.299381E4,1.9374375E3,6.920229E2,4.021703E3,4.9568953E4,2.4742488E4,3.1954398E4,9.478995E4,-5.84781E2,-3.3142947E2,-2.868562E2,2.823231E2,-8.283662E2,-6.491609E2,-4.252784E2,3.201358E2,-4.1871368E2,-1.3287757E1,7.257483E2,-5.1160406E2,1.0462372E3,-1.8625844E2,4.8203012E2,-2.9139023E2,3.3302094E2,-1.7311028E2,4.9617007E2,1.6149592E3,-4.751797E1,2.0898413E3,-6.444659E1,8.934755E2,1.1208074E3,1.7050926E1,3.134958E3,9.1479443E2,-4.3395468E2,1.037929E3,2.564892E3,-3.0973438E2,1.3389116E2,-1.1282963E3,7.1371674E2,2.2717808E3,1.148106E3,2.6466277E3,2.8456318E3,9.791639E2,3.619306E3,1.00108234E3,3.767401E3,2.1873062E3,6.0329346E3,1.1354977E3,2.3790151E3,5.6516133E3,7.4819663E3,1.1497077E4,3.321464E3,5.9930244E3,1.8397181E3,4.291756E3,3.6500984E3,9.1573206E2,1.0047478E4,2.7498093E3],"categories":[],"categories_nodes":[],"categories_segments":[],"categories_sizes":[],"default_left":[0,0,0,0,0,0,0,0,0,0,0,0,0,0,0,0,0,0,0,0,0,0,0,0,0,0,0,0,0,0,0,0,0,0,0,0,0,0,0,0,0,0,0,0,0,0,0,0,0,0,0,0,0,0,0,0,0,0,0,0,0,0,0,0,0,0,0,0,0,0,0,0,0,0,0,0,0,0,0,0,0,0,0,0,0,0,0,0,0,0,0,0,0,0,0,0,0,0,0,0,0,0,0,0,0,0,0,0,0,0,0,0,0,0,0,0,0,0,0,0,0],"id":14,"left_children":[1,3,5,7,9,11,13,15,17,19,21,23,25,27,29,31,33,35,37,39,41,43,45,47,49,51,53,55,57,59,61,63,65,67,69,71,73,75,77,79,81,83,85,87,89,91,93,95,97,99,101,103,105,107,109,111,-1,-1,-1,113,115,117,119,-1,-1,-1,-1,-1,-1,-1,-1,-1,-1,-1,-1,-1,-1,-1,-1,-1,-1,-1,-1,-1,-1,-1,-1,-1,-1,-1,-1,-1,-1,-1,-1,-1,-1,-1,-1,-1,-1,-1,-1,-1,-1,-1,-1,-1,-1,-1,-1,-1,-1,-1,-1,-1,-1,-1,-1,-1,-1],"loss_changes":[3.508002E11,4.8654414E10,1.08267995E11,1.1278877E10,1.1918715E10,1.6852148E10,3.3914192E10,4.8426926E9,1.0651715E9,4.788147E9,2.9264835E9,6.5464074E9,1.7005928E10,1.712377E10,2.158606E10,2.0551782E9,2.5085788E9,5.963124E8,3.7932416E8,3.3776722E9,2.0498898E9,1.5587082E9,1.925976E9,2.414144E9,2.777424E9,6.4743506E9,2.428547E9,2.0740833E9,1.3525289E9,8.139555E9,4.5800325E9,4.2715034E8,1.0913791E9,9.9621274E8,8.350524E8,4.6687062E8,6.79003E8,5.310798E8,2.8398784E8,2.724346E9,1.3737231E9,4.503972E8,6.638312E8,2.1605868E9,1.86227E9,2.884734E8,9.558262E8,8.214577E8,1.983064E9,2.1776343E9,1.2806943E9,7.053406E9,2.6754294E9,1.0484818E9,2.9402276E9,9.838264E8,0E0,0E0,0E0,1.3984727E9,5.7840435E9,8.034432E7,2.974761E8,0E0,0E0,0E0,0E0,0E0,0E0,0E0,0E0,0E0,0E0,0E0,0E0,0E0,0E0,0E0,0E0,0E0,0E0,0E0,0E0,0E0,0E0,0E0,0E0,0E0,0E0,0E0,0E0,0E0,0E0,0E0,0E0,0E0,0E0,0E0,0E0,0E0,0E0,0E0,0E0,0E0,0E0,0E0,0E0,0E0,0E0,0E0,0E0,0E0,0E0,0E0,0E0,0E0,0E0,0E0,0E0,0E0,0E0],"parents":[2147483647,0,0,1,1,2,2,3,3,4,4,5,5,6,6,7,7,8,8,9,9,10,10,11,11,12,12,13,13,14,14,15,15,16,16,17,17,18,18,19,19,20,20,21,21,22,22,23,23,24,24,25,25,26,26,27,27,28,28,29,29,30,30,31,31,32,32,33,33,34,34,35,35,36,36,37,37,38,38,39,39,40,40,41,41,42,42,43,43,44,44,45,45,46,46,47,47,48,48,49,49,50,50,51,51,52,52,53,53,54,54,55,55,59,59,60,60,61,61,62,62],"right_children":[2,4,6,8,10,12,14,16,18,20,22,24,26,28,30,32,34,36,38,40,42,44,46,48,50,52,54,56,58,60,62,64,66,68,70,72,74,76,78,80,82,84,86,88,90,92,94,96,98,100,102,104,106,108,110,112,-1,-1,-1,114,116,118,120,-1,-1,-1,-1,-1,-1,-1,-1,-1,-1,-1,-1,-1,-1,-1,-1,-1,-1,-1,-1,-1,-1,-1,-1,-1,-1,-1,-1,-1,-1,-1,-1,-1,-1,-1,-1,-1,-1,-1,-1,-1,-1,-1,-1,-1,-1,-1,-1,-1,-1,-1,-1,-1,-1,-1,-1,-1,-1],"split_conditions":[8.68E4,6.19E4,1.3E4,2E0,9E3,1E4,1E0,1E0,5.27E4,2E0,1E0,1E0,5E4,3.5E1,2E0,1E0,2E0,2E0,2E0,2E0,1E0,7.4E4,2E0,1E4,1.008E5,1E0,1E0,2E0,1E0,6E0,1.45E4,5.05E4,5.3E4,1E0,5.5E3,5E0,4.1E1,2.1E1,3.9E1,1E0,5E4,9E0,3.6E1,1E0,2.2E1,2.7E1,1.3E1,4.9E1,1.279E5,2E0,4.5E1,1.008E5,1E0,2.3E1,2E0,1E0,1.9374375E3,6.920229E2,4.021703E3,1.45E4,1.861E5,2E0,5.1E1,-5.84781E2,-3.3142947E2,-2.868562E2,2.823231E2,-8.283662E2,-6.491609E2,-4.252784E2,3.201358E2,-4.1871368E2,-1.3287757E1,7.257483E2,-5.1160406E2,1.0462372E3,-1.8625844E2,4.8203012E2,-2.9139023E2,3.3302094E2,-1.7311028E2,4.9617007E2,1.6149592E3,-4.751797E1,2.0898413E3,-6.444659E1,8.934755E2,1.1208074E3,1.7050926E1,3.134958E3,9.1479443E2,-4.3395468E2,1.037929E3,2.564892E3,-3.0973438E2,1.3389116E2,-1.1282963E3,7.1371674E2,2.2717808E3,1.148106E3,2.6466277E3,2.8456318E3,9.791639E2,3.619306E3,1.00108234E3,3.767401E3,2.1873062E3,6.0329346E3,1.1354977E3,2.3790151E3,5.6516133E3,7.4819663E3,1.1497077E4,3.321464E3,5.9930244E3,1.8397181E3,4.291756E3,3.6500984E3,9.1573206E2,1.0047478E4,2.7498093E3],"split_indices":[10,10,8,2,8,8,9,2,10,2,2,12,1,4,2,12,12,12,11,12,0,10,5,1,10,12,2,3,11,5,8,10,10,12,8,5,7,5,4,2,1,7,4,9,4,7,13,4,10,2,4,10,2,5,2,12,0,0,0,8,10,6,4,0,0,0,0,0,0,0,0,0,0,0,0,0,0,0,0,0,0,0,0,0,0,0,0,0,0,0,0,0,0,0,0,0,0,0,0,0,0,0,0,0,0,0,0,0,0,0,0,0,0,0,0,0,0,0,0,0,0],"split_type":[0,0,0,0,0,0,0,0,0,0,0,0,0,0,0,0,0,0,0,0,0,0,0,0,0,0,0,0,0,0,0,0,0,0,0,0,0,0,0,0,0,0,0,0,0,0,0,0,0,0,0,0,0,0,0,0,0,0,0,0,0,0,0,0,0,0,0,0,0,0,0,0,0,0,0,0,0,0,0,0,0,0,0,0,0,0,0,0,0,0,0,0,0,0,0,0,0,0,0,0,0,0,0,0,0,0,0,0,0,0,0,0,0,0,0,0,0,0,0,0,0],"sum_hessian":[4E3,3.399E3,6.01E2,2.699E3,7E2,4.83E2,1.18E2,2.431E3,2.68E2,5.73E2,1.27E2,2.87E2,1.96E2,3.3E1,8.5E1,8.12E2,1.619E3,2.29E2,3.9E1,5.22E2,5.1E1,9.8E1,2.9E1,1.64E2,1.23E2,1.66E2,3E1,2.4E1,9E0,7.5E1,1E1,5.2E2,2.92E2,1.456E3,1.63E2,2.06E2,2.3E1,2.1E1,1.8E1,4.67E2,5.5E1,1.7E1,3.4E1,8.1E1,1.7E1,4E0,2.5E1,2.1E1,1.43E2,9.4E1,2.9E1,9.7E1,6.9E1,1.2E1,1.8E1,2.3E1,1E0,2E0,7E0,1.9E1,5.6E1,3E0,7E0,4.36E2,8.4E1,2.54E2,3.8E1,9.57E2,4.99E2,1.47E2,1.6E1,3.3E1,1.73E2,1.8E1,5E0,1.7E1,4E0,1.1E1,7E0,1.62E2,3.05E2,4E1,1.5E1,1E0,1.6E1,1E1,2.4E1,5.5E1,2.6E1,6E0,1.1E1,3E0,1E0,2.4E1,1E0,1.4E1,7E0,1.35E2,8E0,8.3E1,1.1E1,2.3E1,6E0,1.1E1,8.6E1,1.7E1,5.2E1,1.1E1,1E0,1.4E1,4E0,1.5E1,8E0,9E0,1E1,4.3E1,1.3E1,2E0,1E0,6E0,1E0],"tree_param":{"num_deleted":"0","num_feature":"15","num_nodes":"121","size_leaf_vector":"1"}},{"base_weights":[2.8584555E2,-3.282785E3,2.0440426E4,-5.0205747E3,3.4152405E3,1.5669636E4,5.2289457E4,-5.631626E3,5.2253595E2,1.648294E3,1.131221E4,9.840971E3,2.2656973E4,8.91222E4,4.3551797E4,-3.8298235E3,-6.532387E3,-2.2902795E2,4.830965E3,8.216199E2,9.931029E3,8.793109E3,1.9248166E4,8.132979E3,2.1207805E4,1.9467932E4,4.58795E4,1.0297708E5,2.874074E3,8.284824E4,3.815134E4,-4.3296064E3,4.4543167E2,-6.907943E3,-3.1560654E3,-1.4963867E3,1.4932959E3,9.153059E3,2.6517441E3,2.5545456E1,7.4598555E3,1.7829592E4,5.5851675E3,2.347513E3,1.1056645E4,7.328656E2,2.2068488E4,6.5785894E3,2.0333146E4,3.215682E4,1.7078531E4,3.0611857E4,1.1707252E4,6.057986E4,3.4347086E4,1.07988734E5,2.6430266E3,9.128534E3,1.6112821E3,2.4172314E4,4.641093E4,-4.65915E2,-1.5633693E2,1.3179584E2,-1.1407917E3,-7.45616E2,-5.843743E2,-3.8303763E2,2.9000568E2,-4.2496054E2,-6.878007E1,-3.8459714E2,2.2125822E2,-3.3576642E2,1.0475424E3,1.8370157E1,5.106665E2,2.9992294E2,-1.5585591E2,4.4776303E2,1.4635566E3,2.1739211E3,8.580306E2,-5.8587715E1,8.077021E2,1.2397362E3,-3.3661533E2,1.2273638E3,1.0387266E2,-4.014082E2,9.8603284E2,2.5473105E3,9.188364E2,4.7822437E2,1.5023154E3,-2.587422E2,2.2195784E3,3.521388E3,3.8501718E2,2.4210286E3,1.1375223E3,1.4958558E3,3.5438945E3,6.8166565E2,1.769877E3,6.7780767E3,1.878387E3,1.2655004E3,4.1716733E3,3.0234297E3,1.1326875E4,2.5973242E3,2.908073E2,4.0933386E3,6.6976416E3],"categories":[],"categories_nodes":[],"categories_segments":[],"categories_sizes":[],"default_left":[0,0,0,0,0,0,0,0,0,0,0,0,0,0,0,0,0,0,0,0,0,0,0,0,0,0,0,0,0,0,0,0,0,0,0,0,0,0,0,0,0,0,0,0,0,0,0,0,0,0,0,0,0,0,0,0,0,0,0,0,0,0,0,0,0,0,0,0,0,0,0,0,0,0,0,0,0,0,0,0,0,0,0,0,0,0,0,0,0,0,0,0,0,0,0,0,0,0,0,0,0,0,0,0,0,0,0,0,0,0,0,0,0,0,0],"id":15,"left_children":[1,3,5,7,9,11,13,15,17,19,21,23,25,27,29,31,33,35,37,39,41,43,45,47,49,51,53,55,-1,57,59,61,63,65,67,69,71,73,75,77,79,81,83,85,87,89,91,93,95,97,99,101,103,105,107,109,-1,-1,-1,111,113,-1,-1,-1,-1,-1,-1,-1,-1,-1,-1,-1,-1,-1,-1,-1,-1,-1,-1,-1,-1,-1,-1,-1,-1,-1,-1,-1,-1,-1,-1,-1,-1,-1,-1,-1,-1,-1,-1,-1,-1,-1,-1,-1,-1,-1,-1,-1,-1,-1,-1,-1,-1,-1,-1],"loss_changes":[2.87836E11,3.959234E10,9.065154E10,9.148174E9,9.762774E9,2.1158633E10,2.1221458E10,3.9221084E9,8.721445E8,3.9220884E9,2.3896576E9,5.418881E9,1.6732529E10,8.752464E9,1.0633462E10,1.7390653E9,2.0323533E9,5.0427904E8,3.524802E8,2.763618E9,1.6853745E9,1.4184381E9,1.5503995E9,4.645117E9,1.1236342E9,1.7889829E10,2.666115E9,1.3657047E9,0E0,2.4705106E9,5.6903434E9,6.563574E8,9.044783E8,8.0645325E8,6.8083635E8,2.9316362E8,3.8487485E8,2.502418E8,1.687097E8,2.2092472E9,1.1328443E9,4.6437222E8,5.4293875E8,1.5921112E9,8.772485E8,2.5621811E8,9.060936E8,3.3412598E9,1.2528261E9,6.4323686E8,9.041659E8,5.968036E9,3.571417E9,2.0374733E9,2.349609E9,6.808535E8,0E0,0E0,0E0,8.4355686E8,1.3137674E9,0E0,0E0,0E0,0E0,0E0,0E0,0E0,0E0,0E0,0E0,0E0,0E0,0E0,0E0,0E0,0E0,0E0,0E0,0E0,0E0,0E0,0E0,0E0,0E0,0E0,0E0,0E0,0E0,0E0,0E0,0E0,0E0,0E0,0E0,0E0,0E0,0E0,0E0,0E0,0E0,0E0,0E0,0E0,0E0,0E0,0E0,0E0,0E0,0E0,0E0,0E0,0E0,0E0,0E0],"parents":[2147483647,0,0,1,1,2,2,3,3,4,4,5,5,6,6,7,7,8,8,9,9,10,10,11,11,12,12,13,13,14,14,15,15,16,16,17,17,18,18,19,19,20,20,21,21,22,22,23,23,24,24,25,25,26,26,27,27,29,29,30,30,31,31,32,32,33,33,34,34,35,35,36,36,37,37,38,38,39,39,40,40,41,41,42,42,43,43,44,44,45,45,46,46,47,47,48,48,49,49,50,50,51,51,52,52,53,53,54,54,55,55,59,59,60,60],"right_children":[2,4,6,8,10,12,14,16,18,20,22,24,26,28,30,32,34,36,38,40,42,44,46,48,50,52,54,56,-1,58,60,62,64,66,68,70,72,74,76,78,80,82,84,86,88,90,92,94,96,98,100,102,104,106,108,110,-1,-1,-1,112,114,-1,-1,-1,-1,-1,-1,-1,-1,-1,-1,-1,-1,-1,-1,-1,-1,-1,-1,-1,-1,-1,-1,-1,-1,-1,-1,-1,-1,-1,-1,-1,-1,-1,-1,-1,-1,-1,-1,-1,-1,-1,-1,-1,-1,-1,-1,-1,-1,-1,-1,-1,-1,-1,-1],"split_conditions":[8.68E4,6.19E4,1.559E5,2E0,9E3,1E4,3E0,1E0,5.27E4,2E0,1E0,2E0,2E0,4.3E1,1E0,2E0,2E0,1E0,5E0,2E0,1E0,6.61E4,2E0,2E0,1E0,1E0,1E0,1.3E1,2.874074E3,3.2E1,1.68E5,2E0,1.4E1,1E0,5.5E3,7E0,2E0,1E0,2E4,1E0,5E4,3.9E1,3.6E1,1E0,4.1E1,2.7E1,1.1E1,1.109E5,3E0,4.3E1,2E0,1E4,1E0,2E0,2E1,4E0,2.6430266E3,9.128534E3,1.6112821E3,1.1E1,2E0,-4.65915E2,-1.5633693E2,1.3179584E2,-1.1407917E3,-7.45616E2,-5.843743E2,-3.8303763E2,2.9000568E2,-4.2496054E2,-6.878007E1,-3.8459714E2,2.2125822E2,-3.3576642E2,1.0475424E3,1.8370157E1,5.106665E2,2.9992294E2,-1.5585591E2,4.4776303E2,1.4635566E3,2.1739211E3,8.580306E2,-5.8587715E1,8.077021E2,1.2397362E3,-3.3661533E2,1.2273638E3,1.0387266E2,-4.014082E2,9.8603284E2,2.5473105E3,9.188364E2,4.7822437E2,1.5023154E3,-2.587422E2,2.2195784E3,3.521388E3,3.8501718E2,2.4210286E3,1.1375223E3,1.4958558E3,3.5438945E3,6.8166565E2,1.769877E3,6.7780767E3,1.878387E3,1.2655004E3,4.1716733E3,3.0234297E3,1.1326875E4,2.5973242E3,2.908073E2,4.0933386E3,6.6976416E3],"split_indices":[10,10,10,2,8,8,5,2,10,2,2,12,2,4,3,12,12,12,5,12,0,10,5,2,2,2,9,13,0,4,10,6,13,12,8,5,13,13,1,2,1,7,4,11,7,7,13,10,13,4,9,1,12,0,7,7,0,0,0,13,2,0,0,0,0,0,0,0,0,0,0,0,0,0,0,0,0,0,0,0,0,0,0,0,0,0,0,0,0,0,0,0,0,0,0,0,0,0,0,0,0,0,0,0,0,0,0,0,0,0,0,0,0,0,0],"split_type":[0,0,0,0,0,0,0,0,0,0,0,0,0,0,0,0,0,0,0,0,0,0,0,0,0,0,0,0,0,0,0,0,0,0,0,0,0,0,0,0,0,0,0,0,0,0,0,0,0,0,0,0,0,0,0,0,0,0,0,0,0,0,0,0,0,0,0,0,0,0,0,0,0,0,0,0,0,0,0,0,0,0,0,0,0,0,0,0,0,0,0,0,0,0,0,0,0,0,0,0,0,0,0,0,0,0,0,0,0,0,0,0,0,0,0],"sum_hessian":[4E3,3.399E3,6.01E2,2.699E3,7E2,5.24E2,7.7E1,2.431E3,2.68E2,5.73E2,1.27E2,2.87E2,2.37E2,1.3E1,6.4E1,8.12E2,1.619E3,2.29E2,3.9E1,5.22E2,5.1E1,9.8E1,2.9E1,2.51E2,3.6E1,2.1E2,2.7E1,1E1,3E0,6E0,5.8E1,7.27E2,8.5E1,1.456E3,1.63E2,1.32E2,9.7E1,1.2E1,2.7E1,4.67E2,5.5E1,1.7E1,3.4E1,2.6E1,7.2E1,4E0,2.5E1,2.24E2,2.7E1,8E0,2.8E1,8.5E1,1.25E2,1E1,1.7E1,9E0,1E0,5E0,1E0,2.3E1,3.5E1,6.49E2,7.8E1,8E1,5E0,9.57E2,4.99E2,1.47E2,1.6E1,2.9E1,1.03E2,1.1E1,8.6E1,1E0,1.1E1,1.4E1,1.3E1,1.62E2,3.05E2,4E1,1.5E1,1.1E1,6E0,1E1,2.4E1,9E0,1.7E1,6.4E1,8E0,3E0,1E0,1.9E1,6E0,1.86E2,3.8E1,2E0,2.5E1,7E0,1E0,1.1E1,1.7E1,2.1E1,6.4E1,7E1,5.5E1,8E0,2E0,5E0,1.2E1,1E0,8E0,2.1E1,2E0,3E1,5E0],"tree_param":{"num_deleted":"0","num_feature":"15","num_nodes":"115","size_leaf_vector":"1"}},{"base_weights":[2.7898828E2,-2.3817542E3,2.249678E4,-4.507643E3,4.261025E3,1.7455523E4,5.0896176E4,-5.077347E3,6.132242E2,2.6319795E3,1.2701626E4,1.4822689E4,3.8476734E4,4.3644938E4,9.0359875E4,-3.4717976E3,-5.881941E3,-7.250189E0,6.7438013E3,1.1306409E2,5.843243E3,9.557671E3,3.222062E4,2.2635188E4,1.0222098E4,2.977339E4,6.514675E4,6.1676863E4,3.5543574E4,1.2453368E4,5.251736E3,-4.5147485E3,-1.6046715E3,-6.2197256E3,-2.8410251E3,-1.2431357E3,1.6329648E3,8.875372E3,1.104791E3,-5.838559E2,7.5768335E3,2.3585051E3,9.537587E3,7.4444546E3,1.7459174E4,4.05222E4,2.069698E4,1.2605952E4,3.0649926E4,5.831458E3,1.6093174E4,3.766282E4,2.1544791E4,3.621319E4,8.105096E3,6.717929E4,1.5439927E3,6.034472E3,2.9567816E4,-4.2262662E2,-6.99325E2,-2.7184998E2,1.21226234E2,-6.507185E2,-4.449646E2,-3.7118964E2,1.1725954E2,-4.4643314E1,-3.760708E2,8.487375E1,6.040212E2,-3.1897812E2,9.7727216E2,-3.0092645E2,8.964638E2,-2.840158E2,1.0012603E2,3.8088324E2,1.3660464E3,1.0280778E2,7.897542E2,8.23688E2,1.7905516E3,1.2986715E3,3.717911E2,7.229958E2,2.6345376E3,4.3119214E3,8.574531E2,2.2342808E3,2.9422656E2,6.438335E2,2.6013665E3,4.4386914E3,2.4978176E3,2.7530066E2,1.4975046E3,1.1537751E3,2.5442732E3,4.469633E3,2.3239333E3,-4.3970938E2,2.7026306E3,4.123314E3,8.0667035E2,1.6358984E3,6.9830156E3,2.3454873E3,3.9329714E3],"categories":[],"categories_nodes":[],"categories_segments":[],"categories_sizes":[],"default_left":[0,0,0,0,0,0,0,0,0,0,0,0,0,0,0,0,0,0,0,0,0,0,0,0,0,0,0,0,0,0,0,0,0,0,0,0,0,0,0,0,0,0,0,0,0,0,0,0,0,0,0,0,0,0,0,0,0,0,0,0,0,0,0,0,0,0,0,0,0,0,0,0,0,0,0,0,0,0,0,0,0,0,0,0,0,0,0,0,0,0,0,0,0,0,0,0,0,0,0,0,0,0,0,0,0,0,0,0,0],"id":16,"left_children":[1,3,5,7,9,11,13,15,17,19,21,23,25,27,29,31,33,35,37,39,41,43,45,47,49,51,53,55,57,-1,-1,59,61,63,65,67,69,71,73,75,77,79,81,83,85,87,89,91,93,95,97,99,101,103,-1,105,-1,-1,107,-1,-1,-1,-1,-1,-1,-1,-1,-1,-1,-1,-1,-1,-1,-1,-1,-1,-1,-1,-1,-1,-1,-1,-1,-1,-1,-1,-1,-1,-1,-1,-1,-1,-1,-1,-1,-1,-1,-1,-1,-1,-1,-1,-1,-1,-1,-1,-1,-1,-1],"loss_changes":[2.3657597E11,5.049057E10,6.0387754E10,7.9033713E9,1.1887925E10,1.963071E10,1.4370537E10,3.1277343E9,1.0347005E9,5.888061E9,8.2834043E9,1.1485757E10,7.3450947E9,5.988442E9,5.0988237E9,1.5817677E9,1.6484106E9,5.047553E8,2.9069338E8,2.1318988E9,4.0971274E9,1.9071314E9,9.789358E8,9.259426E9,5.242153E9,1.2659671E9,1.2063785E9,3.0333993E9,4.2921738E9,0E0,0E0,3.443927E8,9.2574426E8,7.134208E8,5.775891E8,2.831385E8,3.6469578E8,2.260526E8,2.856637E8,1.3440315E9,7.502788E8,1.2151821E9,1.5395697E9,1.9757573E9,2.0819958E9,4.5996032E8,2.2647398E8,4.380666E9,4.03354E9,3.3365445E9,3.4544742E9,4.830044E8,2.6784538E9,3.738532E8,0E0,7.437025E8,0E0,0E0,1.1661169E9,0E0,0E0,0E0,0E0,0E0,0E0,0E0,0E0,0E0,0E0,0E0,0E0,0E0,0E0,0E0,0E0,0E0,0E0,0E0,0E0,0E0,0E0,0E0,0E0,0E0,0E0,0E0,0E0,0E0,0E0,0E0,0E0,0E0,0E0,0E0,0E0,0E0,0E0,0E0,0E0,0E0,0E0,0E0,0E0,0E0,0E0,0E0,0E0,0E0,0E0],"parents":[2147483647,0,0,1,1,2,2,3,3,4,4,5,5,6,6,7,7,8,8,9,9,10,10,11,11,12,12,13,13,14,14,15,15,16,16,17,17,18,18,19,19,20,20,21,21,22,22,23,23,24,24,25,25,26,26,27,27,28,28,31,31,32,32,33,33,34,34,35,35,36,36,37,37,38,38,39,39,40,40,41,41,42,42,43,43,44,44,45,45,46,46,47,47,48,48,49,49,50,50,51,51,52,52,53,53,55,55,58,58],"right_children":[2,4,6,8,10,12,14,16,18,20,22,24,26,28,30,32,34,36,38,40,42,44,46,48,50,52,54,56,58,-1,-1,60,62,64,66,68,70,72,74,76,78,80,82,84,86,88,90,92,94,96,98,100,102,104,-1,106,-1,-1,108,-1,-1,-1,-1,-1,-1,-1,-1,-1,-1,-1,-1,-1,-1,-1,-1,-1,-1,-1,-1,-1,-1,-1,-1,-1,-1,-1,-1,-1,-1,-1,-1,-1,-1,-1,-1,-1,-1,-1,-1,-1,-1,-1,-1,-1,-1,-1,-1,-1,-1],"split_conditions":[9.79E4,6.21E4,1.615E5,2E0,1E4,2E0,2.2E4,1E0,5.84E4,1E0,8.34E4,1E0,1.3E4,1E0,3E0,1E0,2E0,1E0,3.9E1,2E0,7.81E4,1E0,8.95E4,1.143E5,1E0,3.7E1,2.8E1,4.3E1,1.6E1,1.2453368E4,5.251736E3,5.6E1,1.7E1,5.18E4,5.23E4,1.9E1,5.6E1,1E0,5.1E1,7.31E4,7.7E4,1.8E1,2E0,2.5E1,7.04E4,3.4E1,1E0,1E0,2.1E1,1.1E1,1.298E5,3.3E1,3.9E1,2E0,8.105096E3,2E1,1.5439927E3,6.034472E3,1E0,-4.2262662E2,-6.99325E2,-2.7184998E2,1.21226234E2,-6.507185E2,-4.449646E2,-3.7118964E2,1.1725954E2,-4.4643314E1,-3.760708E2,8.487375E1,6.040212E2,-3.1897812E2,9.7727216E2,-3.0092645E2,8.964638E2,-2.840158E2,1.0012603E2,3.8088324E2,1.3660464E3,1.0280778E2,7.897542E2,8.23688E2,1.7905516E3,1.2986715E3,3.717911E2,7.229958E2,2.6345376E3,4.3119214E3,8.574531E2,2.2342808E3,2.9422656E2,6.438335E2,2.6013665E3,4.4386914E3,2.4978176E3,2.7530066E2,1.4975046E3,1.1537751E3,2.5442732E3,4.469633E3,2.3239333E3,-4.3970938E2,2.7026306E3,4.123314E3,8.0667035E2,1.6358984E3,6.9830156E3,2.3454873E3,3.9329714E3],"split_indices":[10,10,10,2,8,2,8,2,10,12,10,2,8,9,5,12,12,12,4,2,10,12,10,10,12,4,7,4,7,0,0,4,5,10,10,5,4,13,4,10,10,5,2,4,10,7,2,12,7,13,10,7,4,6,0,4,0,0,12,0,0,0,0,0,0,0,0,0,0,0,0,0,0,0,0,0,0,0,0,0,0,0,0,0,0,0,0,0,0,0,0,0,0,0,0,0,0,0,0,0,0,0,0,0,0,0,0,0,0],"split_type":[0,0,0,0,0,0,0,0,0,0,0,0,0,0,0,0,0,0,0,0,0,0,0,0,0,0,0,0,0,0,0,0,0,0,0,0,0,0,0,0,0,0,0,0,0,0,0,0,0,0,0,0,0,0,0,0,0,0,0,0,0,0,0,0,0,0,0,0,0,0,0,0,0,0,0,0,0,0,0,0,0,0,0,0,0,0,0,0,0,0,0,0,0,0,0,0,0,0,0,0,0,0,0,0,0,0,0,0,0],"sum_hessian":[4E3,3.573E3,4.27E2,2.707E3,8.66E2,3.64E2,6.3E1,2.436E3,2.71E2,7.27E2,1.39E2,3.25E2,3.9E1,5.5E1,8E0,8.15E2,1.621E3,2.47E2,2.4E1,4.08E2,3.19E2,1.21E2,1.8E1,1.19E2,2.06E2,3.1E1,8E0,1.5E1,4E1,3E0,5E0,5.22E2,2.93E2,1.458E3,1.63E2,1.41E2,1.06E2,1.7E1,7E0,3.74E2,3.4E1,1.65E2,1.54E2,9.7E1,2.4E1,9E0,9E0,5.4E1,6.5E1,1.19E2,8.7E1,1.4E1,1.7E1,4E0,4E0,1.3E1,2E0,6E0,3.4E1,4.7E2,5.2E1,2.1E2,8.3E1,1.252E3,2.06E2,1.34E2,2.9E1,1.08E2,3.3E1,9.1E1,1.5E1,1E0,1.6E1,5E0,2E0,1.54E2,2.2E2,2.2E1,1.2E1,1.34E2,3.1E1,1.35E2,1.9E1,3.8E1,5.9E1,1.2E1,1.2E1,8E0,1E0,8E0,1E0,3.8E1,1.6E1,1.7E1,4.8E1,9E1,2.9E1,6E1,2.7E1,8E0,6E0,3E0,1.4E1,3E0,1E0,1E0,1.2E1,2.3E1,1.1E1],"tree_param":{"num_deleted":"0","num_feature":"15","num_nodes":"109","size_leaf_vector":"1"}},{"base_weights":[2.7473868E2,-1.6626892E3,2.5541912E4,-3.8755378E3,5.4123105E3,2.0992365E4,5.6426496E4,-4.4337793E3,1.0709902E3,3.6299429E3,1.2633074E4,1.8389305E4,4.4738293E4,7.7888836E4,3.7387258E4,-2.9161963E3,-5.2120513E3,2.676389E2,1.0315358E4,2.6590583E3,1.2785687E4,1.7050453E4,7.5312764E3,2.9282938E4,1.271249E4,5.900922E4,3.2241791E4,7.336992E2,8.210316E4,1.3927917E4,4.584247E4,-3.5886357E3,-4.0793564E2,-6.0393125E3,-4.01516E3,-2.3266072E2,4.528495E3,4.8466313E3,1.4924472E4,1.6176439E3,1.0924514E4,5.199397E3,1.6547582E4,1.1529608E4,3.0118826E4,-2.880761E3,9.685614E3,2.4619193E4,5.034912E4,8.752387E3,1.8911408E4,1.7362164E3,6.170754E3,3.8033625E4,6.805836E3,9.307326E4,4.1548306E3,2.7685078E3,-3.3112227E3,5.809275E4,1.7784922E4,-4.3818042E2,-2.1650455E2,-9.375378E1,8.006492E2,-6.360412E2,-4.5654327E2,-4.540611E2,-1.5315794E2,-4.573173E2,2.0643988E1,1.0757373E2,1.3025922E3,7.805566E2,-8.5698906E1,2.5580275E1,1.9785605E3,4.6719244E2,-1.3088687E1,7.773106E2,1.730042E3,-5.4428986E2,6.9789105E2,2.0185127E3,1.1827186E3,2.9283777E2,1.5127401E3,3.7051833E3,-7.796775E2,-1.3140814E3,2.044787E2,1.9069096E2,1.3533512E3,2.673117E3,3.3012344E2,1.827535E3,6.8110815E3,1.7344446E2,1.4148636E3,1.0734983E3,2.293229E3,1.1743235E3,4.2117383E3,1.4077465E3,-7.5045233E2,9.714228E3,2.619158E3,4.4146616E2,-1.3244437E3,1.1665305E3,6.195521E3,1.9819928E3,3.8049454E2],"categories":[],"categories_nodes":[],"categories_segments":[],"categories_sizes":[],"default_left":[0,0,0,0,0,0,0,0,0,0,0,0,0,0,0,0,0,0,0,0,0,0,0,0,0,0,0,0,0,0,0,0,0,0,0,0,0,0,0,0,0,0,0,0,0,0,0,0,0,0,0,0,0,0,0,0,0,0,0,0,0,0,0,0,0,0,0,0,0,0,0,0,0,0,0,0,0,0,0,0,0,0,0,0,0,0,0,0,0,0,0,0,0,0,0,0,0,0,0,0,0,0,0,0,0,0,0,0,0,0,0,0,0],"id":17,"left_children":[1,3,5,7,9,11,13,15,17,19,21,23,25,27,29,31,33,35,37,39,41,43,45,47,49,51,53,-1,55,57,59,61,63,65,67,69,71,73,75,77,79,81,83,85,87,89,91,93,95,97,99,-1,-1,101,103,105,-1,-1,107,109,111,-1,-1,-1,-1,-1,-1,-1,-1,-1,-1,-1,-1,-1,-1,-1,-1,-1,-1,-1,-1,-1,-1,-1,-1,-1,-1,-1,-1,-1,-1,-1,-1,-1,-1,-1,-1,-1,-1,-1,-1,-1,-1,-1,-1,-1,-1,-1,-1,-1,-1,-1,-1],"loss_changes":[1.9590473E11,5.821397E10,3.8861062E10,7.8249124E9,1.1357012E10,1.463033E10,1.1798512E10,2.990682E9,2.1360641E9,6.29509E9,3.8154895E9,1.3665673E10,2.377511E9,4.1548595E9,3.5269366E9,1.457492E9,1.6401777E9,5.68087E8,5.0740403E8,5.5343345E9,1.8546022E9,6.362544E9,1.8896783E9,6.3254897E9,3.5412808E9,5.240013E7,1.9509647E9,0E0,2.8063252E9,1.751803E9,4.1225196E9,7.6059136E8,8.274653E8,4.404388E8,8.934963E8,4.5645933E8,8.074951E8,2.0920893E8,8.5061504E8,3.0660605E9,1.3122253E9,4.9250016E8,5.3394637E8,2.0290458E9,7.3863516E9,7.8491584E8,2.0394772E9,2.8382536E9,6.16115E9,3.535293E9,1.6606577E9,0E0,0E0,7.937659E8,5.2188307E8,4.4925747E8,0E0,0E0,3.6544118E8,1.0705162E9,9.52823E7,0E0,0E0,0E0,0E0,0E0,0E0,0E0,0E0,0E0,0E0,0E0,0E0,0E0,0E0,0E0,0E0,0E0,0E0,0E0,0E0,0E0,0E0,0E0,0E0,0E0,0E0,0E0,0E0,0E0,0E0,0E0,0E0,0E0,0E0,0E0,0E0,0E0,0E0,0E0,0E0,